svm_type c_svc
kernel_type rbf
gamma 0.5
nr_class 2
total_sv 9772
rho 1.04047
label -1 1
nr_sv 3660 6112
SV
2 310:0.18417212 764:0.18007573 861:0.14197012 1332:0.2377546 1528:0.27825503 2055:0.26793484 2574:0.25816153 7650:0.38477711 8743:0.28703246 10039:0.32561371 10213:0.14250699 11929:0.21710314 12706:0.368828 13727:0.22973364 15599:0.21997561 
2 1085:0.44988455 3773:0.48416858 4119:0.27955979 4798:0.46839329 9164:0.51540152 
1.196301142041184 25:0.13314436 47:0.13658785 56:0.13717942 146:0.13119801 282:0.089419618 414:0.12374806 437:0.20524186 503:0.14778507 543:0.31072242 642:0.18065833 789:0.17086466 791:0.18320323 1254:0.15951211 1463:0.20279057 1787:0.20601591 1883:0.14747737 2896:0.11974826 2965:0.11064335 4059:0.13678344 4402:0.2097393 5303:0.19740073 5417:0.20601591 8532:0.16930578 9087:0.1929969 10016:0.19994562 10210:0.15757874 10387:0.1457092 11116:0.19740073 13826:0.25821862 16523:0.20279057 19318:0.21953297 
1.639677794452137 16:0.17552977 51:0.18712641 198:0.22918184 569:0.2918125 752:0.26221329 791:0.27980741 898:0.24211786 1061:0.23478209 2544:0.2890786 2741:0.2865334 3019:0.24138732 3050:0.34590687 8938:0.27592057 10101:0.20439881 14151:0.2724045 
2 13:0.11384857 17:0.11242664 169:0.15125379 175:0.17793838 282:0.10296618 313:0.17701118 345:0.19583769 386:0.1739897 436:0.11422764 524:0.19246224 534:0.19409879 544:0.20537615 764:0.12732867 1068:0.13317445 1418:0.11490369 1571:0.11333566 1867:0.18426286 2739:0.18874827 2796:0.1668186 5156:0.25279098 5712:0.27206975 9158:0.17089614 9701:0.18874827 11556:0.16164246 12511:0.26079239 12813:0.26079239 16406:0.18199112 16409:0.092572548 17430:0.16354265 18887:0.29766741 
2 20:0.15340689 21:0.13640829 92:0.13666744 1507:0.21599058 1883:0.23676919 2086:0.24554529 2821:0.33075055 3758:0.14400597 4737:0.22220844 4810:0.29634219 4880:0.35245166 8293:0.25529091 10341:0.26618391 12707:0.36360756 14812:0.17637239 19926:0.29202902 
2 364:0.11082023 604:0.14233392 687:0.10548335 978:0.17363849 1557:0.13955456 1582:0.38494813 4187:0.19408678 4325:0.21698345 5767:0.24443604 7076:0.24443604 7212:0.48887208 7804:0.24443604 9972:0.41370302 10222:0.17939892 15591:0.14931353 17607:0.17291414 
2 348:0.19655116 769:0.16011068 1116:0.11920089 1189:0.16858577 1881:0.23864273 3795:0.5226499 3932:0.28710117 4163:0.14287246 9072:0.54647152 9599:0.24190199 9928:0.23969501 16330:0.21341956 
1.073041899276799 6:0.1306417 18:0.11292996 93:0.17393567 96:0.20056908 133:0.20163472 178:0.16483677 437:0.13354713 996:0.19572361 1069:0.14727019 1172:0.24864311 2002:0.22132633 2063:0.15248633 4661:0.16352 5348:0.16450237 5912:0.30748013 8232:0.30748013 8429:0.11358146 8685:0.13348507 9004:0.20163472 10000:0.26020193 11358:0.18451212 12560:0.29473501 15442:0.23510216 17476:0.24864311 
0.9978834784024186 6:0.13487266 13:0.13283316 18:0.11658732 127:0.17105467 206:0.14096513 227:0.21640039 292:0.22549657 833:0.2186393 836:0.12514469 863:0.15440645 1276:0.17605707 1482:0.20160201 1506:0.13612439 1521:0.22646534 2224:0.29494462 3068:0.3042803 3304:0.3042803 3667:0.28770331 5383:0.13469772 9096:0.1461562 10371:0.24613527 11280:0.16549667 12863:0.3042803 
0.6167655074070766 11:0.2557363 12:0.11651773 29:0.15671607 69:0.1530572 78:0.15793675 179:0.18141086 329:0.20528111 339:0.1462031 395:0.21096486 722:0.23200888 860:0.18818552 1072:0.21796358 1159:0.25894748 1263:0.36629239 1950:0.18314619 4104:0.19865491 10337:0.17615798 13806:0.49045034 15536:0.156866 
0.4222090027652491 12:0.17686727 47:0.13030121 48:0.110566 63:0.13369888 65:0.13717921 74:0.13668366 121:0.14448588 237:0.11306401 310:0.21577417 377:0.14821049 464:0.15032596 524:0.31889673 664:0.11096398 690:0.1861189 872:0.19074285 1118:0.14448588 1193:0.1861189 1343:0.16720151 1651:0.15944836 1768:0.11537481 1975:0.107127 2135:0.19345685 2204:0.41885732 2529:0.18056194 2689:0.11951768 3737:0.1194016 4155:0.16629776 7673:0.22540046 8511:0.1861189 15514:0.18411395 18912:0.14011343 
2 1:0.15591343 12:0.20294868 19:0.21846269 98:0.26567681 165:0.30682908 206:0.22970798 713:0.19036444 1260:0.29186394 1517:0.40108667 1575:0.26049251 2907:0.33158446 8422:0.34299128 8753:0.30255837 
2 98:0.17798188 123:0.378299 590:0.27515437 1260:0.19552513 1768:0.17737887 2000:0.24943749 2495:0.23321839 2834:0.30215378 4047:0.20690028 4217:0.19976011 5309:0.28951829 7704:0.34653388 8535:0.22545825 9954:0.2058832 11049:0.17437124 14862:0.24831277 
2 57:0.23602023 178:0.13477215 230:0.092946165 425:0.43787976 668:0.15085891 673:0.14491928 725:0.19639858 2432:0.17641141 4766:0.11325292 5084:0.23358472 8510:0.20758635 8845:0.21577068 9020:0.19795665 9162:0.15503568 9827:0.19639858 10946:0.44632835 12550:0.24097821 15461:0.16919215 15572:0.19639858 18910:0.17026315 
0.6368026733138668 30:0.14452355 42:0.14465756 60:0.13694815 66:0.17084333 82:0.16189088 83:0.10749741 90:0.1315675 215:0.12127883 227:0.37622489 270:0.15250549 341:0.26163486 757:0.10338637 1255:0.1655871 1376:0.21557277 1711:0.25009462 1973:0.14321733 2023:0.23054142 2598:0.16341608 3989:0.17118526 3991:0.3512973 4153:0.1441253 4719:0.22314031 8415:0.17773918 15467:0.32379756 
2 1:0.24698482 5:0.16957503 17:0.16930481 41:0.18686386 80:0.1832365 350:0.13684763 713:0.1507796 1180:0.17130461 2146:0.25520642 2892:0.17325645 6320:0.40971354 8604:0.3253202 9938:0.29358486 10408:0.10822075 15500:0.33466647 16303:0.24713592 17530:0.3200778 
0.7384356816060575 4:0.17357889 9:0.11410806 11:0.33257112 23:0.27121818 41:0.11742897 89:0.12656999 115:0.13788765 164:0.11360241 206:0.11433595 303:0.1501469 397:0.10664965 656:0.13157002 947:0.13535354 1261:0.14948608 1522:0.18368463 2892:0.32663341 3889:0.11742897 4741:0.16207553 6246:0.25747215 7814:0.25747215 8604:0.2044377 9005:0.33768247 9387:0.23335437 14891:0.15940782 18934:0.23922776 
2 44:0.156993 802:0.22314457 817:0.24721579 1936:0.1868651 2363:0.29247594 2426:0.16463492 2680:0.19481097 4846:0.25027993 10215:0.32851715 19144:0.30613296 19248:0.61226592 19988:0.19944131 
2 3:0.11192009 12:0.11548624 20:0.11904035 825:0.16325327 921:0.14511924 1085:0.35148998 1271:0.22359641 1299:0.11985003 1947:0.29553267 2029:0.20273869 2965:0.13783974 4228:0.37388088 6644:0.5887048 10743:0.20575034 18869:0.21957827 
2 44:0.25065727 68:0.28201086 98:0.27018354 213:0.32316161 350:0.17570566 1024:0.42140551 1905:0.42969538 1964:0.41769523 8343:0.33562738 
2 3:0.056863236 89:0.073517642 102:0.16100715 134:0.072152141 314:0.089439906 382:0.064864026 558:0.3759662 862:0.073677175 1128:0.080671583 1540:0.12093457 1979:0.11360262 2580:0.45762143 2603:0.087874135 3878:0.081186974 4119:0.055485575 4265:0.09068864 4760:0.13432161 14850:0.096328682 14863:0.21432579 16306:0.65522634 16409:0.050885384 19384:0.13895443 19985:0.087739433 
1.485335180141349 111:0.12210506 116:0.24160849 253:0.10564859 282:0.072261126 350:0.063774538 374:0.070506067 424:0.07027867 493:0.36136367 516:0.097652011 702:0.43121362 705:0.1469935 1096:0.14916454 1274:0.09224278 1342:0.1356348 1530:0.10787057 1625:0.1469935 1836:0.22800046 1938:0.095045573 2008:0.15952203 2158:0.27747926 2186:0.17740738 2267:0.17740738 7578:0.38187424 8316:0.11798045 9414:0.17305177 9818:0.14916454 11289:0.1469935 13715:0.079538366 
2 44:0.29026079 70:0.10820049 174:0.12184941 287:0.040260374 374:0.037490544 424:0.037369629 637:0.14139549 796:0.15062636 802:0.55008924 1059:0.12782117 1193:0.16766843 1360:0.16586223 1653:0.13502833 2500:0.10798649 4825:0.11624414 8284:0.2030559 9015:0.15989047 9978:0.34366797 10408:0.053634696 10528:0.15235721 11872:0.14424354 12582:0.38927836 14211:0.15989047 14812:0.094412166 15467:0.079423544 
1.091482576771658 1:0.095122815 24:0.31072911 34:0.17829425 150:0.20088656 284:0.17945909 605:0.1595604 905:0.43173248 1609:0.1702371 1838:0.20925905 2489:0.2605916 3534:0.30250976 4105:0.21110313 5383:0.13391395 10228:0.19103418 11060:0.26366655 13097:0.30250976 19371:0.29322841 
2 19:0.16145022 150:0.24333864 521:0.20556979 942:0.27272659 1854:0.29864837 1892:0.19160957 2109:0.32810605 4160:0.2140785 6112:0.38228294 8115:0.38228294 8607:0.30353979 12935:0.36643722 
2 378:0.19292102 397:0.10650286 440:0.33204275 587:0.20415633 614:0.17304108 637:0.35808167 977:0.15084671 1185:0.19292102 1235:0.43516662 1299:0.1046894 1418:0.108589 1487:0.16048671 1814:0.22418908 2767:0.14452428 5300:0.1510783 6379:0.25711779 10219:0.18870643 14431:0.16220528 14839:0.1953122 16331:0.28868725 
1.763536163620328 11:0.23380127 15:0.11092999 363:0.15005506 397:0.11246387 445:0.14676648 500:0.19286997 1085:0.16210605 1088:0.15904725 1263:0.16743737 1344:0.20140453 2191:0.25226974 2969:0.091436327 4350:0.24101563 4528:0.22976153 4950:0.25226974 7688:0.54301753 9024:0.21379169 9705:0.1850899 10742:0.17282637 12290:0.26025466 
2 44:0.53138084 371:0.84713305 
1.464284679138889 4:0.15962819 20:0.19151356 24:0.11656553 388:0.15445069 392:0.2678826 397:0.09807811 421:0.11303991 666:0.10317681 831:0.072901432 2639:0.4007434 2778:0.17204937 5074:0.22000079 6804:0.23677886 8417:0.1220302 9069:0.38681634 11554:0.15700101 11562:0.16141422 16289:0.1220302 17510:0.51527279 
2 4:0.066785191 116:0.5014127 155:0.15924759 212:0.12418541 220:0.11849056 277:0.13461969 493:0.12499032 586:0.1100151 836:0.078108224 1062:0.14779689 1280:0.1560093 1613:0.14467467 1849:0.093692169 2158:0.14396392 2447:0.18820987 2932:0.14327727 2969:0.06672344 3718:0.27592654 3872:0.10107542 4153:0.41392824 5029:0.36817544 5605:0.15871388 8685:0.086012018 8735:0.12611585 10408:0.05233277 10605:0.15871388 11280:0.10329365 
2 76:0.15088749 134:0.1296719 148:0.16811244 921:0.13250893 1117:0.15604801 1631:0.1753213 1663:0.48719568 4798:0.16707547 5609:0.2153075 7996:0.2687743 8429:0.099283737 8627:0.15069993 8671:0.17978675 8943:0.1412951 9010:0.15559757 9726:0.34540501 11885:0.20049776 11889:0.20049776 13774:0.22193379 14867:0.19259326 15483:0.21954302 16407:0.17978675 
0.49566384171824 16:0.12798356 48:0.12906685 161:0.15104102 180:0.18391659 191:0.13631809 219:0.17997323 230:0.097278371 243:0.16132889 303:0.15343839 350:0.087883003 478:0.19861758 513:0.19986888 546:0.20401524 1024:0.21077512 1262:0.16226187 1436:0.20118124 4155:0.38824828 4768:0.38237377 4958:0.48894413 10408:0.069498934 10750:0.1396526 
1.464513895948448 25:0.30004825 98:0.13673725 116:0.2245884 155:0.10699319 262:0.14531695 341:0.37863868 374:0.049154456 424:0.048995922 465:0.14629489 523:0.11442118 761:0.20096781 892:0.20798499 1060:0.15548565 1418:0.11243732 1817:0.23213418 2217:0.2473649 2590:0.19859968 2892:0.1125812 4138:0.14035481 4699:0.16386358 7017:0.26622986 10121:0.1916341 11602:0.17276914 17400:0.39234345 
2 98:0.23821915 116:0.39127053 218:0.15262191 702:0.20949742 840:0.33385863 2118:0.39808508 2545:0.37155062 2776:0.28332213 8388:0.30667314 17485:0.37506449 
2 14:0.21162427 146:0.22918365 230:0.15259602 564:0.15567521 970:0.32002914 1260:0.23287975 2106:0.35424536 2428:0.19579209 3860:0.33063304 12108:0.39563026 14432:0.51850964 
0.3813845073009929 4:0.078124322 10:0.092305428 14:0.23766773 81:0.13907768 146:0.25738806 230:0.085687596 350:0.077411692 564:0.087416662 666:0.20198483 956:0.16328384 970:0.3594134 1181:0.15852932 1197:0.19137503 1260:0.26153901 1301:0.12349894 1609:0.12501988 1726:0.21005609 2106:0.39784043 2390:0.20573632 4036:0.16263467 9954:0.1376971 11027:0.15281542 11303:0.14965164 11324:0.17099413 17606:0.1639513 19960:0.2695158 
1.372849148006527 1:0.066124265 161:0.25187083 405:0.4968118 414:0.11490022 560:0.31168195 928:0.35480543 1319:0.16889183 3288:0.21028851 4772:0.15940835 5889:0.21938195 7080:0.21938195 9684:0.15584098 9839:0.15057419 10051:0.11948352 11299:0.16889183 14231:0.38257203 18914:0.1363722 
2 17:0.097403152 119:0.11364526 124:0.11260388 137:0.10514959 310:0.11282327 397:0.19527345 687:0.20343829 713:0.08674537 819:0.15004108 835:0.15220044 862:0.11612505 1034:0.57761329 1180:0.098553666 1755:0.19946996 2034:0.11637915 4183:0.18716074 4963:0.21901071 8497:0.38926891 8943:0.12391486 9572:0.16711145 10215:0.11751229 12891:0.2259429 14819:0.17905287 16329:0.15335731 
2 94:0.14278657 125:0.16436529 473:0.17055973 907:0.15347491 947:0.12675077 983:0.12899306 1504:0.1255879 1944:0.24939113 2219:0.22402297 4006:0.19908884 4056:0.13264091 5486:0.21022945 7860:0.24110779 9289:0.21852288 10057:0.19497126 10757:0.15530154 12169:0.23111381 12355:0.23111381 12875:0.46222761 13224:0.23111381 13744:0.18090837 14896:0.15568369 15476:0.19694417 
2 4:0.092916626 6:0.11711743 12:0.10814823 52:0.13784252 70:0.14688262 91:0.15288014 155:0.22155733 382:0.1195555 484:0.12970936 499:0.12955105 580:0.20682555 605:0.1393661 787:0.16541108 825:0.15288014 1378:0.36451544 1653:0.18330152 6491:0.27564922 8538:0.13609679 9010:0.15957756 9161:0.18277479 9403:0.24982877 10069:0.22290311 10405:0.36660304 10408:0.072809321 14221:0.20938907 16332:0.15592952 17489:0.1521667 17497:0.17066172 
2 1:0.16527089 2:0.10408033 5:0.11347182 10:0.1091903 62:0.14608985 160:0.49525362 235:0.16778443 239:0.09945572 346:0.28019676 861:0.10115658 1278:0.35493577 2040:0.20019601 2425:0.13586185 5044:0.25473447 5566:0.15372048 7477:0.27416147 8416:0.17258125 10092:0.11058696 11561:0.17411737 13093:0.26279741 17606:0.19394192 19919:0.1282307 
2 12:0.13418959 13:0.071560525 17:0.070666756 206:0.075941419 287:0.033906923 328:0.097766818 364:0.07753182 374:0.031574197 391:0.31763386 424:0.031472363 713:0.062934451 1262:0.10546169 1487:0.21348291 1571:0.071238125 2946:0.11953612 3856:0.68496376 4486:0.090855821 6492:0.17101184 8946:0.10674145 9707:0.21011021 9846:0.11439212 10049:0.28943406 10071:0.13828833 12512:0.16392336 15474:0.13968767 15533:0.12909099 19386:0.158894 
2 12:0.11394121 110:0.16602881 285:0.20002636 334:0.19044362 363:0.16050367 392:0.16428191 422:0.16558236 436:0.12192959 656:0.14840374 835:0.18752106 1514:0.22518157 1565:0.1569861 1599:0.23980258 2481:0.23980258 3872:0.14815634 4266:0.23721932 4567:0.14941452 5525:0.25322145 5604:0.46528555 8924:0.19932776 9572:0.20589241 10340:0.1879886 11613:0.17944768 16409:0.098814374 
2 19:0.099804557 342:0.12942017 362:0.12494332 492:0.18764084 672:0.13622591 740:0.15538919 757:0.088540356 921:0.11650755 1187:0.16334892 1527:0.12530662 1890:0.081378232 2034:0.11667768 2063:0.11719538 2426:0.11808366 2502:0.14156884 2803:0.10053734 2851:0.20605302 3756:0.13316834 4119:0.17535399 4181:0.18764084 4659:0.15625208 6301:0.23631792 6493:0.23631792 6628:0.23631792 7132:0.23631792 8141:0.23631792 8427:0.13907137 9706:0.16109999 11044:0.14660351 11351:0.16649081 12335:0.22652248 12340:0.22652248 14214:0.15496903 14851:0.1522163 15536:0.12482343 19236:0.21957251 
2 17:0.12175543 31:0.14066571 184:0.18587982 254:0.18670511 275:0.16265306 333:0.13651909 543:0.19374188 1261:0.17106843 1491:0.21409649 1975:0.14003723 1987:0.22846204 2490:0.24329605 2804:0.18712639 2969:0.19845603 3875:0.22381883 5356:0.15608268 5387:0.18066066 5553:0.18798706 7721:0.2946452 8242:0.2946452 10408:0.15565375 10812:0.26155362 14866:0.21113135 15475:0.24067516 18867:0.14711612 
2 60:0.27591895 373:0.31827278 1341:0.31698589 1571:0.23159561 3735:0.31369017 4867:0.51656543 5271:0.365568 5375:0.24590611 11314:0.33030811 
1.423444590796908 24:0.088734651 46:0.19764597 73:0.096529746 220:0.1077969 236:0.30955852 287:0.035737835 374:0.033279146 388:0.11757445 424:0.033171813 640:0.19004943 666:0.078542587 758:0.10209392 800:0.23972059 1375:0.42243756 1483:0.0734739 1590:0.14883385 2038:0.10816179 2853:0.31432459 3626:0.32672451 4226:0.087613783 5348:0.096431993 7956:0.18024617 8119:0.18024617 8301:0.13606167 8627:0.10106281 8934:0.11274003 9966:0.15253148 10408:0.095219577 11281:0.093971495 11610:0.087674297 14413:0.1571623 14847:0.18240865 17510:0.098061905 17582:0.13298347 18990:0.16747398 
2 56:0.55120225 619:0.57674604 19945:0.60294286 
1.864264388639942 1:0.065516275 18:0.079832801 42:0.11394932 45:0.11241623 91:0.12055453 150:0.13836154 169:0.12084126 358:0.15872241 445:0.11749849 831:0.066924074 891:0.16981047 921:0.10716344 1068:0.10639712 1069:0.1041087 1326:0.17412481 1503:0.13043588 1632:0.16124068 1647:0.12752431 1890:0.074851557 2068:0.17577156 2145:0.12999585 2930:0.10954801 2965:0.10178789 3705:0.12217938 3984:0.15024805 4093:0.37485123 4153:0.34059012 4351:0.19295258 4619:0.14332001 4624:0.13065921 4815:0.16124068 8392:0.14000829 8520:0.1281169 8987:0.14674538 10408:0.057414218 10910:0.19295258 11093:0.18160155 15515:0.13773556 16521:0.18656001 17490:0.15376394 19431:0.20196241 
1.921401413484798 4:0.069505087 93:0.23328215 116:0.34788883 147:0.10327041 279:0.11169785 382:0.089431957 656:0.10536749 702:0.093134809 705:0.31748095 1637:0.26628199 1739:0.17449114 1975:0.097999544 2146:0.25687463 2151:0.15874048 2580:0.37857021 2717:0.12270518 2890:0.12503791 8080:0.20619585 8943:0.10839751 17402:0.13558264 17607:0.14586302 18905:0.12006684 19139:0.19158488 19289:0.38316976 
1.560164640383466 16:0.44390558 615:0.12274997 621:0.53541197 979:0.15119963 1114:0.20879146 1116:0.10840191 1495:0.24154264 1943:0.18616942 13817:0.21431704 15422:0.46519243 15609:0.13350603 16417:0.22326347 
0.4113232898223109 50:0.20868998 77:0.23635436 169:0.21348331 191:0.3978996 318:0.19984001 451:0.27278387 1326:0.3076163 2035:0.48450782 2738:0.31366771 3872:0.19590251 4351:0.34087825 
0.6884934034187192 36:0.32667837 50:0.15890275 77:0.17996723 132:0.14807006 282:0.33197345 313:0.19023401 517:0.17606285 907:0.18612036 1068:0.14312266 1131:0.14867394 1760:0.24743503 1840:0.20068614 7555:0.29239351 8429:0.10800854 8858:0.2509557 9591:0.15243961 10092:0.11794112 11290:0.2251 11559:0.15488989 12879:0.28027373 14233:0.25494709 16287:0.20517823 
1.994163428270115 50:0.14592407 77:0.16526806 169:0.14927575 171:0.13664298 218:0.088355493 332:0.15208875 363:0.29679737 402:0.19417667 765:0.1760806 1182:0.14656246 1214:0.15092873 1264:0.11984161 3751:0.34183726 3920:0.23045841 4127:0.20269031 4200:0.18429472 4661:0.14279634 4854:0.14909808 5168:0.24948507 8627:0.1505527 9784:0.13686891 15652:0.20671453 17419:0.20819866 19395:0.24948507 19572:0.24948507 19644:0.24948507 
0.4605485517986305 16:0.47206713 51:0.12581374 98:0.37384266 198:0.15408955 436:0.20373163 558:0.12199028 815:0.11077951 2418:0.21537678 2506:0.14766278 2664:0.20531987 2697:0.17385647 2973:0.13129266 3244:0.23256919 4037:0.12095861 4302:0.13520919 4734:0.19619904 4774:0.17629812 9038:0.17235278 9724:0.11502294 10062:0.19619904 14430:0.15590083 16483:0.20824129 19918:0.17545725 19930:0.18678641 
1.411679831755827 41:0.35560539 626:0.56122803 3432:0.747374 
2 14:0.13576228 15:0.32454497 38:0.15137487 361:0.42454791 413:0.17556907 429:0.34726959 491:0.14920825 599:0.15943677 851:0.10497037 957:0.11489538 960:0.15756924 1432:0.22121715 3758:0.1005196 4082:0.20530672 4679:0.15510678 9784:0.13496776 9953:0.14685299 10099:0.15971439 12013:0.25380674 12958:0.25380674 15463:0.17819914 19452:0.24601965 19991:0.11521699 
2 21:0.1038727 84:0.18105309 161:0.16581578 208:0.19045679 432:0.22237534 1103:0.18105309 1892:0.14478086 2086:0.18697874 5096:0.2683862 6641:0.28885433 7025:0.28885433 8429:0.10670119 19047:0.2683862 19555:0.2683862 19670:0.2683862 19753:0.53677241 
2 184:0.44672426 218:0.23301129 531:0.45284539 1965:0.56226025 11610:0.34443948 15586:0.32603539 
0.9636736634178625 22:0.1806023 24:0.16550984 73:0.36009886 672:0.19380264 1062:0.25079473 1304:0.24674661 1890:0.11577325 2456:0.45837981 2969:0.11322219 3773:0.21602674 5623:0.33619916 8790:0.28855323 10384:0.21449897 10408:0.088802836 15398:0.14656832 15609:0.14754837 20037:0.26931964 
2 4:0.12885071 26:0.080718645 36:0.10676841 115:0.10235646 287:0.037895038 374:0.035287937 424:0.035174126 425:0.55483091 733:0.15175774 828:0.13308837 1180:0.079911427 1973:0.19839333 2782:0.11336868 2841:0.33329781 2907:0.12251542 3127:0.18320394 4303:0.3921944 8532:0.13695361 11629:0.15175774 14806:0.13411696 14811:0.38709415 15518:0.1442746 
2 20:0.072286724 22:0.096019309 109:0.093188437 184:0.11276253 543:0.35259596 558:0.089871012 589:0.14192622 1262:0.11023017 1565:0.19324353 1619:0.12494098 1656:0.16200097 1788:0.15585267 2454:0.097889752 2774:0.09088643 2931:0.085223997 4721:0.14454108 5407:0.092040887 6286:0.17874419 6720:0.17874419 6753:0.17874419 7194:0.17874419 7358:0.17874419 7367:0.17874419 7741:0.17874419 7960:0.17874419 7977:0.17874419 8462:0.26823123 8686:0.098109909 10216:0.10707867 10521:0.13411561 11079:0.14933522 12043:0.34267039 13312:0.1713352 13489:0.097889752 13491:0.12144986 18891:0.086410594 19429:0.16607843 19963:0.1202954 
0.3990560261473373 3:0.10839921 46:0.46892009 104:0.14783464 134:0.13754468 157:0.16211619 216:0.19127929 388:0.18596559 436:0.11969516 482:0.16650191 604:0.16600792 766:0.18695364 804:0.22448774 1084:0.19852062 1344:0.21148085 1891:0.13945024 2363:0.2530737 3649:0.25838741 3751:0.18147291 4797:0.19308263 6722:0.28509241 8617:0.19013621 10063:0.23053933 
2 2939:0.46670175 10757:0.44242419 13252:0.65839876 14892:0.39110278 
2 1:0.45622757 44:0.72122881 1890:0.52123451 
0.2292195719375539 1:0.13645122 10:0.090149868 21:0.081397296 26:0.09559632 61:0.2236798 100:0.25811506 222:0.13122849 287:0.04487967 374:0.041792041 424:0.041657253 549:0.16293091 644:0.18132549 767:0.16219625 924:0.18304034 1012:0.19427494 1150:0.19736484 1451:0.19427494 1826:0.19736484 2083:0.15330101 2588:0.16885318 2613:0.31523717 3100:0.21697121 3819:0.10651285 3966:0.19427494 4293:0.16293091 4296:0.16293091 5509:0.19736484 8740:0.12396319 9831:0.17683275 10518:0.1424868 10779:0.20093187 10788:0.20093187 12413:0.21697121 19823:0.10549275 
2 44:0.20748805 124:0.20802278 222:0.252454 648:0.33764184 1216:0.33764184 2150:0.33523499 3875:0.33077968 5242:0.40459722 9400:0.39466378 17428:0.28404589 
2 1:0.061261906 6:0.086356554 17:0.083988441 35:0.17746755 91:0.1127262 119:0.097993626 137:0.18133602 245:0.08580244 310:0.097284849 369:0.26585811 516:0.10394925 855:0.10577306 894:0.12485948 895:0.1351574 948:0.15540683 1259:0.1385573 1274:0.098191199 1431:0.16980906 1797:0.17722006 1931:0.10219232 2030:0.13999084 2428:0.096416387 2530:0.16281783 2549:0.11732941 2682:0.1484156 2965:0.095178181 3009:0.16435765 3026:0.11635526 3801:0.094725236 4018:0.1678287 4479:0.12608931 4647:0.15540683 4744:0.094336851 7059:0.20325 8161:0.20325 8245:0.20325 8429:0.075079422 9569:0.10907154 9574:0.25875378 10000:0.17199824 12639:0.19482523 14834:0.15439306 15575:0.15878365 16409:0.069156421 19218:0.18884777 19573:0.18884777 
2 124:0.16690062 220:0.2089435 311:0.17928682 640:0.18418709 1249:0.29565286 1329:0.18100652 1504:0.18198065 1648:0.18383864 1890:0.12030959 2969:0.11765857 3793:0.27293791 3987:0.16855699 4107:0.27157121 4616:0.23035955 5566:0.19589076 6918:0.34937243 7127:0.34937243 10408:0.092282393 11549:0.23817024 15531:0.2637293 
2 13:0.083187849 20:0.080396876 48:0.097516777 93:0.11245639 328:0.1136522 382:0.086223444 463:0.13258419 497:0.14590398 576:0.12212471 945:0.13421089 1169:0.17333844 1546:0.14590398 1589:0.32830556 1818:0.17333844 2073:0.16075775 2098:0.34124938 3342:0.19055801 3819:0.093546409 4119:0.073756713 4198:0.12382942 7521:0.19879825 7536:0.19879825 8429:0.073434971 9492:0.18017654 11002:0.17647123 11625:0.15784952 12451:0.19055801 12473:0.19055801 12786:0.19055801 12809:0.19055801 13025:0.19055801 14222:0.15101142 16408:0.10792146 17591:0.29334194 
1.147389958437026 3:0.094344716 4:0.1672799 30:0.12995622 64:0.12733179 82:0.145573 83:0.096662145 95:0.12995622 115:0.13288386 729:0.19701887 948:0.18972155 1467:0.42592823 1925:0.17943655 2618:0.14364555 2812:0.43270252 5032:0.46109287 6236:0.24812876 9360:0.22488619 10092:0.1000863 11941:0.1840613 
0.9598857576536971 7:0.11035005 48:0.11874958 63:0.14359466 65:0.44199777 74:0.44040107 99:0.15018032 377:0.15918035 475:0.18058725 558:0.1217175 946:0.10655239 1343:0.35915399 1615:0.53031703 16313:0.16857194 16331:0.13590355 
2 116:0.12956702 145:0.20486751 222:0.17808796 436:0.12896885 837:0.22111078 1253:0.16658002 1609:0.16570033 1711:0.27840663 2603:0.18049445 2808:0.26784048 2930:0.15481362 3770:0.21011346 7172:0.30718068 7426:0.30718068 7709:0.30718068 8684:0.2019845 9417:0.27840663 13448:0.29444796 14138:0.17399138 19823:0.14316242 
2 17:0.28268758 424:0.12589861 861:0.25240937 957:0.29684642 985:0.41121462 2762:0.40013207 4119:0.25380885 5349:0.34422858 8532:0.49019751 
0.9070315284362579 33:0.32410582 58:0.32833649 60:0.2794284 1638:0.42501356 3722:0.398289 3830:0.34021283 9511:0.29710997 9599:0.40716162 
2 58:0.29462012 831:0.15554979 1253:0.27397145 2043:0.36891415 2744:0.40115021 5271:0.33220063 5375:0.22346093 14820:0.38377223 15467:0.19761047 15479:0.41267503 
2 60:1 
0.6144971442501009 1:0.085899699 10:0.11350352 23:0.30020659 30:0.14926282 32:0.152937 53:0.12424393 62:0.15186067 138:0.13519231 164:0.12574449 309:0.16669297 350:0.095189412 425:0.33092698 641:0.17474144 656:0.14563252 1161:0.24849291 1359:0.2327896 1571:0.11871839 1824:0.24849291 1931:0.14329116 2001:0.20513875 2288:0.26479696 2318:0.26479696 5309:0.23810142 9572:0.10102384 10108:0.17788471 11283:0.19493583 14437:0.20513875 
2 15:0.078061354 107:0.11544858 245:0.080656623 319:0.46597325 391:0.23658124 456:0.25716866 855:0.59657727 982:0.13407089 1180:0.079883979 1725:0.17316361 2406:0.16960252 2843:0.16659166 2912:0.14708849 5310:0.15962512 6119:0.19106051 7993:0.19106051 9575:0.12161779 13492:0.11782555 15562:0.13882929 
0.2723536603011035 1:0.10761333 2:0.13554028 3:0.13575211 5:0.14777049 18:0.13112885 21:0.12838925 41:0.16283626 53:0.15565018 129:0.21611876 156:0.23741897 242:0.22726485 253:0.1975511 350:0.11925129 764:0.16709062 1139:0.24180411 1301:0.19024785 1825:0.62261337 2948:0.23350463 8303:0.26951061 
1.181261980477722 1:0.18734247 12:0.24385909 18:0.22828029 41:0.28347926 206:0.27601254 699:0.42514421 936:0.40133604 12218:0.59578689 
1.036285124915648 1:0.089651423 2:0.11291704 3:0.11309351 5:0.36931765 10:0.11846086 21:0.1069596 53:0.12967036 57:0.13962183 156:0.197791 667:0.14590293 764:0.13920126 958:0.2048643 2470:0.24560257 2923:0.16761063 2969:0.10016872 3833:0.17423666 5464:0.518692 8024:0.29743853 10536:0.342918 17431:0.20634785 
0.530347299178701 1:0.17304572 24:0.1413182 171:0.14608142 342:0.15720857 551:0.12640958 757:0.10755126 764:0.13434356 1145:0.50059122 1171:0.46425893 1870:0.21948784 3779:0.17255267 3801:0.26756916 13458:0.27516017 13486:0.10700633 15628:0.22099307 17484:0.23212947 20025:0.22995471 
0.6015996096034846 14:0.25061377 21:0.17576679 30:0.12799832 75:0.15071374 90:0.1165237 138:0.11593234 195:0.16158962 309:0.14294531 315:0.14337982 381:0.18128826 425:0.14189099 483:0.16251505 645:0.19577432 1824:0.21309175 1920:0.19962558 3814:0.17512077 4845:0.13824706 5328:0.20418066 7619:0.24439049 8152:0.24439049 8542:0.12835609 8594:0.38810123 9058:0.19962558 12642:0.23426044 13804:0.20179945 17578:0.16347609 17606:0.17288192 
2 7:0.36393931 12:0.1566226 69:0.20573877 110:0.22822176 950:0.30523287 1213:0.29452582 2444:0.2995292 9847:0.267031 11869:0.56479003 18876:0.29779235 
0.2943147009881084 2:0.15121131 6:0.084616834 8:0.087572658 10:0.15863523 13:0.083337286 17:0.082296429 26:0.16821927 43:0.21203368 253:0.11019588 365:0.38578483 554:0.11208486 754:0.11401119 842:0.45384809 1905:0.16267616 1966:0.15813308 3983:0.27532245 4081:0.15442112 4739:0.14208054 7204:0.19915537 8948:0.43413364 9078:0.16267616 11910:0.11309942 13486:0.074238735 15466:0.1159672 
0.07146444224281291 1:0.087296912 2:0.1099515 56:0.16815486 143:0.18271399 146:0.32164567 161:0.16625928 228:0.1974412 231:0.15897172 505:0.19316041 558:0.14562188 658:0.19373534 673:0.16695598 939:0.18393933 1670:0.52499432 2287:0.26910405 2358:0.25709894 3834:0.1671919 4854:0.16082284 10092:0.11682517 13756:0.16063243 14226:0.22000683 16409:0.098546427 
0.3692152744607555 1:0.068273295 17:0.2808026 39:0.2131746 53:0.19749877 59:0.13189674 78:0.12046052 116:0.095541371 137:0.10104491 222:0.13132021 265:0.1544151 334:0.14853855 453:0.32461923 586:0.12577656 604:0.13189674 634:0.14385554 702:0.10231116 781:0.37848721 1108:0.14662373 2502:0.1356944 3569:0.20529416 3737:0.11999033 3754:0.14737077 4013:0.18703659 8809:0.19441073 9351:0.20529416 9572:0.080293997 9803:0.13836455 10749:0.15019325 10852:0.20107231 11103:0.1892436 13020:0.21712287 
0.3724735522134595 7:0.10567037 19:0.097903841 27:0.12767581 59:0.13498614 69:0.11947317 182:0.15284935 226:0.14530249 311:0.11896131 529:0.18570236 547:0.17724972 576:0.14240885 713:0.085311638 722:0.18110117 867:0.19617311 1074:0.15803194 1411:0.20578199 1654:0.15415418 1801:0.40425773 2089:0.109285 2111:0.19896438 2158:0.33688849 2479:0.19141752 2672:0.19617311 3273:0.2222085 3737:0.12280084 4188:0.18406734 4733:0.1874586 4819:0.17196157 12001:0.2222085 
0.5252770184179053 12:0.10029407 17:0.10563347 20:0.20676127 22:0.13732172 24:0.12584611 46:0.14015368 206:0.34055429 275:0.28223146 639:0.19296668 825:0.14177736 1999:0.12188283 2096:0.21940266 3165:0.2450345 3482:0.2450345 3801:0.11913729 6408:0.25563044 6833:0.25563044 8220:0.25563044 13715:0.31946268 15609:0.11218902 16400:0.14974588 18929:0.23751655 20005:0.20477832 
0.3260243574757751 1:0.12225741 2:0.230977 6:0.086168789 8:0.089178825 10:0.08077238 253:0.22443396 323:0.42864731 397:0.084006792 421:0.096822013 564:0.15298888 801:0.11329425 835:0.1309535 1301:0.10806844 2423:0.36006142 2701:0.15725335 8488:0.33492758 9617:0.22188925 13486:0.075600346 16471:0.52219873 
0.6086684809283486 4:0.058090668 13:0.072113577 20:0.1393883 21:0.18591459 107:0.10413275 136:0.077922528 178:0.18477225 187:0.096506784 190:0.10969728 203:0.11127602 206:0.076528329 213:0.10586702 227:0.11748125 231:0.28377354 318:0.089683844 332:0.097612075 339:0.084839267 666:0.075094627 764:0.16130419 831:0.053059461 851:0.13664003 968:0.11183535 1258:0.11394594 1260:0.19447177 1372:0.13463096 1418:0.072781906 2426:0.086111839 2497:0.10871828 2720:0.14076724 3019:0.1152762 3386:0.16519023 4385:0.15297873 5382:0.087412359 5407:0.088739825 7434:0.1723335 9011:0.13569901 9725:0.075451268 10041:0.4375064 10087:0.13935709 10094:0.11869673 10384:0.10995077 11353:0.12141248 11556:0.10238702 11866:0.12190878 13435:0.16519023 15398:0.075129968 16318:0.08195769 16471:0.29582101 
0.2903752139336643 1:0.070116173 8:0.30687112 9:0.10309659 12:0.091268499 18:0.085437863 106:0.11968312 129:0.14081359 167:0.14911758 205:0.12871572 309:0.13606419 312:0.15338251 364:0.1054659 391:0.28804981 476:0.17353218 699:0.1591176 771:0.34146234 1157:0.60850174 1482:0.14773858 4202:0.15966432 6597:0.232626 14860:0.14773858 
0.5599849072537069 18:0.077047329 44:0.19991573 52:0.20980793 84:0.13148994 91:0.11634822 100:0.11960831 155:0.08430723 178:0.11246114 179:0.38443297 212:0.13148994 227:0.14300931 408:0.15318437 1002:0.18005068 1332:0.12962392 1484:0.15740295 1605:0.34644248 1638:0.15835625 1849:0.099203099 2035:0.13234219 2089:0.098896289 4904:0.19491567 5508:0.18291435 7284:0.41956133 8330:0.26468439 8514:0.17322124 8816:0.18005068 
0.574927273881924 3:0.080676008 4:0.071522154 5:0.35127359 49:0.23425927 53:0.092501212 106:0.32749134 209:0.12913306 253:0.11740248 256:0.15203979 359:0.14324489 401:0.12429287 551:0.093435734 640:0.22371982 1005:0.18210977 1614:0.15493621 2414:0.37669971 4107:0.082464877 4462:0.2107638 5012:0.19714476 9042:0.22657636 11606:0.3973124 12557:0.20338484 13486:0.079093805 
0.9471201915335754 3:0.078632714 11:0.35616874 118:0.12540781 138:0.19620636 174:0.12409967 179:0.12632715 245:0.17460709 346:0.10567919 365:0.13353486 437:0.089821495 466:0.1328843 694:0.17076485 747:0.30854219 921:0.10195774 1136:0.15812565 1209:0.15257887 1320:0.15921007 1503:0.12409967 1916:0.16892529 1924:0.1495535 2429:0.14511969 2882:0.1803205 3445:0.39646736 3758:0.078510011 5118:0.19215164 9473:0.18743404 9951:0.12881727 13490:0.28103336 19298:0.19215164 
0.4399041264371597 4:0.061590594 5:0.075623943 32:0.098052486 54:0.29093775 57:0.17153938 75:0.11267985 80:0.081716433 81:0.10964418 90:0.26135388 160:0.11002154 483:0.24300601 551:0.080461256 1070:0.098561479 1180:0.076395271 1506:0.078352793 1851:0.42822717 1892:0.091581975 1920:0.29849676 2208:0.16976925 2768:0.095696862 4548:0.15462196 5139:0.16976925 5433:0.31863248 5677:0.36543297 8395:0.13410109 10888:0.16219561 11337:0.12979516 
0.5584135499762928 1:0.092896831 17:0.12735908 20:0.1246429 49:0.17013897 50:0.16749607 77:0.18969969 83:0.12006606 169:0.17134323 300:0.206787 337:0.21627409 350:0.10294326 445:0.16660344 707:0.2372732 921:0.15194918 1264:0.13755784 1301:0.16423079 1387:0.27359131 1884:0.19237467 2090:0.41232614 2331:0.2010425 9180:0.27933582 14326:0.2687344 15401:0.15570172 16409:0.10486798 19921:0.17259535 19960:0.17920313 
1.688841715869224 1:0.083802231 49:0.30696473 134:0.13413859 171:0.14148803 189:0.33719988 451:0.19750422 1180:0.2324954 1418:0.11742196 2451:0.20106173 2574:0.18654255 3549:0.25198884 4545:0.2352822 6835:0.55606507 9724:0.13180825 11027:0.18332142 12305:0.26650802 15609:0.12202067 
0.9489565166304869 3:0.1049573 4:0.093048381 12:0.43320635 31:0.1317835 83:0.10753541 125:0.37635788 206:0.24516286 215:0.3639651 254:0.17491578 374:0.10193147 382:0.11972503 424:0.10160272 836:0.10882418 1180:0.11541464 1273:0.20968598 1303:0.19693129 2443:0.20711882 5764:0.27604009 8732:0.19693129 9853:0.19869557 15516:0.13550313 17506:0.20057755 
0.315851164020591 3:0.073973567 6:0.082661035 17:0.080394263 80:0.087009717 181:0.096991873 319:0.35586674 346:0.099417486 391:0.24090479 437:0.084499391 456:0.13093423 477:0.14686078 506:0.12975236 556:0.070479038 771:0.71393827 1256:0.1262541 1725:0.1763282 1880:0.13879654 1881:0.13879654 3776:0.10451118 5310:0.1625423 11558:0.11449254 14182:0.1204524 17400:0.095570636 19716:0.18076627 
0.9174386491841071 4:0.097507738 59:0.16844013 61:0.14292616 95:0.1515034 104:0.15000059 112:0.15323492 124:0.13818845 374:0.053408274 424:0.053236021 687:0.12483061 776:0.44235604 942:0.20636925 1238:0.24479124 1385:0.25678153 1551:0.16427474 2504:0.44235604 4183:0.22968526 4398:0.25678153 8654:0.21122797 9804:0.17669991 15578:0.22598398 
0.6892141979382019 1:0.11548569 35:0.1672733 114:0.23674887 137:0.17091956 204:0.25478715 214:0.23192874 223:0.24560592 315:0.22478739 673:0.22086723 827:0.26680145 1127:0.27978036 1422:0.32010947 1438:0.29295962 4107:0.14891324 8290:0.18327382 9947:0.26993664 10536:0.22086723 17602:0.28268309 
0.7566561731415203 4:0.12358664 56:0.10643277 101:0.097682892 121:0.35253053 146:0.71254403 192:0.12863774 228:0.12496942 282:0.20813278 469:0.14214106 791:0.14214106 1348:0.31702185 1670:0.16614626 1802:0.15984064 10001:0.15513091 19972:0.12915121 19999:0.14685079 
0.6351377380037834 42:0.15788399 50:0.16367384 77:0.18537079 150:0.19170867 169:0.16743321 230:0.1113484 452:0.2158087 456:0.20269018 556:0.1091037 829:0.19969865 836:0.11873229 855:0.15673288 1503:0.18072717 1840:0.20671179 3758:0.11433465 4156:0.21779575 4483:0.16625643 5215:0.2798317 5756:0.3011727 5954:0.3011727 8293:0.20269018 9574:0.19170867 9725:0.13185981 11553:0.19084133 11559:0.1595405 14120:0.20206817 14429:0.19352029 
1.388461051113599 1:0.062289145 4:0.1393218 19:0.087278271 64:0.10605036 83:0.080506646 95:0.10823616 207:0.14184109 310:0.19783224 322:0.11243116 374:0.038155622 421:0.098660039 1274:0.099837668 2326:0.19201436 2347:0.550345 2923:0.11645463 6073:0.20665809 6527:0.61997427 7706:0.20665809 11936:0.15329846 
1.783803505685026 6:0.1116865 10:0.10469202 28:0.13729587 34:0.14850755 189:0.15940345 206:0.1167316 280:0.15855922 402:0.19009457 437:0.11417037 556:0.095226934 922:0.15801078 1092:0.1753134 1114:0.36084073 1186:0.19723471 1632:0.19499403 2234:0.24424025 2342:0.19394006 2720:0.21471768 4740:0.13165335 7710:0.26286691 11913:0.20099047 13414:0.25197101 14430:0.16890668 15577:0.20535778 15597:0.17102372 16312:0.18304416 19842:0.13818958 19958:0.17284629 19974:0.18519512 
1.958502619679528 20:0.10563201 22:0.28062449 310:0.12502118 318:0.13592941 1999:0.12453714 2448:0.1233641 6240:0.26119745 6249:0.26119745 8749:0.14756438 8862:0.22418072 8897:0.16015229 9160:0.17319225 9355:0.47346144 9996:0.22103568 10965:0.23186238 11041:0.31735334 13741:0.39196415 
0.7944978368698798 1:0.063549579 6:0.17916265 11:0.090779072 29:0.11125945 69:0.10866185 149:0.24739245 203:0.27227928 235:0.12903216 740:0.27727254 904:0.50223236 1301:0.11234826 1466:0.18095977 3751:0.13420815 3836:0.13826141 6082:0.21083986 6865:0.42167972 16303:0.38153075 
0.7519979977884953 3:0.080726207 32:0.11393442 76:0.11918993 116:0.17910373 279:0.11501089 319:0.12945062 342:0.11627313 349:0.12784215 390:0.12344648 551:0.093493873 561:0.14379097 586:0.1178916 634:0.13483721 655:0.14898331 702:0.095897255 1261:0.12326636 1452:0.18222308 1978:0.16127658 2502:0.12718769 2516:0.12344648 2711:0.13998827 2915:0.16344883 3031:0.1009704 3268:0.20351139 3569:0.19242423 3906:0.18222308 4013:0.35062247 4237:0.14333402 4732:0.17168543 4799:0.097808901 6191:0.21231177 8306:0.16026689 8485:0.17531124 9572:0.075260352 10933:0.3769341 12430:0.20351139 15597:0.13813207 
0.7306526890231277 3:0.10699727 49:0.31068844 169:0.15644376 193:0.15625756 209:0.17126387 217:0.18308496 385:0.19522479 401:0.16484453 556:0.1019427 708:0.21664067 1333:0.1570097 1476:0.2415247 1489:0.19382121 1632:0.41749148 2862:0.2453661 3351:0.26974096 4056:0.15480982 5030:0.26146499 7128:0.28140528 8882:0.2415247 
1.515357417439014 8:0.25249839 10:0.11434831 23:0.15122049 38:0.16414112 186:0.14982255 425:0.50008504 1931:0.14435765 3870:0.39145421 4303:0.19638671 4710:0.23217287 4728:0.23217287 5608:0.22999771 5768:0.2871125 6396:0.2871125 13486:0.10702633 14811:0.19383282 17432:0.11654856 
0.8590130068747265 10:0.082639745 11:0.35735868 13:0.086827773 48:0.10178367 116:0.26256277 123:0.11325851 155:0.33355748 190:0.13208013 310:0.099317548 448:0.13208013 546:0.16088887 830:0.13758492 968:0.13465446 1257:0.13118998 1552:0.25165358 1850:0.16210132 1975:0.098617833 2153:0.32677461 2795:0.23661225 4035:0.14560452 4224:0.11799186 4657:0.1371957 5593:0.16621979 10856:0.18419282 12033:0.19889597 12353:0.19889597 16338:0.14618572 18887:0.22701908 
2 2:0.080668258 10:0.084628777 68:0.1139141 105:0.13235846 136:0.096080169 222:0.1231916 290:0.14970422 333:0.09845424 685:0.134052 687:0.091697836 767:0.15226279 812:0.17022049 819:0.27051825 862:0.10468448 894:0.13053633 975:0.11139428 1933:0.21846011 2007:0.17752958 2402:0.1886261 2588:0.31702404 2650:0.1798183 2891:0.27868826 3395:0.20368314 3699:0.19258662 3737:0.22512605 3814:0.15226279 3889:0.19382751 3950:0.18237686 4649:0.110682 6823:0.21249094 8469:0.17545918 10036:0.1798183 17458:0.17183032 19991:0.092463099 
0.677857911238636 2:0.090526196 6:0.10131571 11:0.10267035 18:0.08757984 26:0.10070841 187:0.2670731 445:0.12890063 451:0.33878391 480:0.16255895 482:0.13926615 660:0.15554604 956:0.16799859 2018:0.1992243 2179:0.221561 2531:0.19102202 3833:0.13968646 3984:0.16482824 4955:0.221561 4956:0.221561 9592:0.23904204 10935:0.21167686 11010:0.42335371 11310:0.16604736 11910:0.27083849 
1.616082284076078 4:0.082437589 5:0.1012209 18:0.089821592 53:0.10661839 81:0.1467562 146:0.13579926 159:0.15264956 615:0.098684036 759:0.18461134 1260:0.27597865 1370:0.28001035 3543:0.22165335 3934:0.41980532 4636:0.15296805 8372:0.33343983 9664:0.3460062 14388:0.42648223 17432:0.09927581 19957:0.17447419 
2 29:0.38308874 52:0.24201951 68:0.12972718 69:0.3741447 149:0.42591108 297:0.14837412 526:0.17670261 836:0.095399743 965:0.17670261 2503:0.37005263 3823:0.13551335 4130:0.18266852 4954:0.22484087 9096:0.11141715 12470:0.2319576 13789:0.19981571 18887:0.13237775 
0.5326650458979378 11:0.17820823 42:0.21697876 91:0.45911242 298:0.30702952 361:0.22121354 449:0.25834596 554:0.23294302 964:0.3022343 1219:0.32092934 1695:0.37512882 9941:0.21062932 16288:0.25834596 
2 12:0.076254444 116:0.16395817 282:0.14711158 364:0.088116307 634:0.12343496 944:0.23789085 1325:0.15569473 1418:0.082083565 1480:0.13926944 1571:0.08096341 2080:0.14671423 2445:0.29166204 3162:0.18630184 3731:0.14860795 4113:0.13585495 4603:0.10528522 4799:0.089537878 5903:0.19435803 6440:0.38871606 9357:0.35230449 11556:0.11547227 11935:0.28834862 13275:0.37260368 13712:0.12677961 15596:0.12645119 16475:0.16681374 
2 1:0.078320005 49:0.14344176 60:0.12895858 62:0.13846065 83:0.101226 256:0.18619418 458:0.17773491 1117:0.15086318 1533:0.39476622 1940:0.16949609 2050:0.17039663 2803:0.11054612 3817:0.17279137 4111:0.46018486 4119:0.096405484 4176:0.20091584 8945:0.15463069 9042:0.13873736 12240:0.24907343 15598:0.35546981 16409:0.17682542 19798:0.24143157 
0.6968900441681932 1:0.10043188 2:0.25299031 5:0.1379092 452:0.47752376 816:0.7500329 3984:0.23031979 4131:0.25152514 
1.848536288417321 2:0.091317303 24:0.11841808 31:0.11483643 102:0.12948364 356:0.17746897 666:0.10481658 672:0.13866086 831:0.074060042 1218:0.18651145 1450:0.2064525 1507:0.1369643 1771:0.16343908 2783:0.39132815 4119:0.17848833 4193:0.1909948 4292:0.19648197 4637:0.15045372 5098:0.22349722 7503:0.24054195 7813:0.24054195 8329:0.15816667 8385:0.13188116 8535:0.15649889 9014:0.18940777 11881:0.15649889 11894:0.3588745 12360:0.23057142 
2 83:0.10768086 91:0.30660801 122:0.13759439 123:0.15087549 155:0.1110858 199:0.17362458 318:0.14384796 2659:0.23391208 3306:0.26495606 3813:0.19806719 3985:0.19106398 4823:0.32533463 5042:0.2568269 6687:0.55282694 7234:0.27641347 10225:0.1872047 
0.7103160998018372 4:0.090942061 11:0.46464486 26:0.11394148 75:0.16637829 82:0.31656424 92:0.097201937 145:0.17993155 152:0.15321331 164:0.11903794 271:0.15382397 390:0.15686743 479:0.15926724 630:0.2012565 939:0.17134199 1433:0.22540234 1971:0.2012565 2009:0.22540234 2602:0.15852512 2968:0.3450654 5089:0.25067408 5118:0.25067408 
0.06671508844720207 1:0.078903887 4:0.088241951 7:0.11932891 9:0.23203552 52:0.26181521 121:0.1678066 220:0.15655923 228:0.17845853 262:0.14288872 310:0.12530058 377:0.17213238 397:0.10843453 558:0.13162129 805:0.6414925 823:0.38231156 1056:0.17357931 1321:0.20153301 2618:0.15154915 11280:0.13647985 
2 15:0.086187129 116:0.44488508 245:0.089052551 278:0.1237602 319:0.2572393 532:0.14478611 655:0.14802696 702:0.19056335 856:0.16239963 982:0.14802696 1288:0.10581491 1835:0.12177373 2804:0.13397166 5310:0.17624126 6200:0.2109489 8417:0.10871805 11551:0.094294542 11976:0.60661506 14848:0.11079227 15597:0.13724537 19507:0.19600113 
0.9541874291576179 1:0.063030687 2:0.079387903 12:0.082045496 20:0.08457046 21:0.07519944 78:0.11121053 189:0.25362022 253:0.11570854 445:0.33912232 452:0.14984609 485:0.12822015 551:0.092087601 660:0.40922321 981:0.1467424 1567:0.27653572 2241:0.19430026 2931:0.099706173 3341:0.40090062 3735:0.11799102 4107:0.081275036 7883:0.41823664 13821:0.14732814 17539:0.16336812 
2 24:0.22711222 392:0.52193316 2081:0.34824353 3758:0.17513605 9010:0.26707201 9157:0.28977793 9795:0.29862535 10107:0.26303237 10408:0.12185505 11949:0.44220939 
1.672247757199768 1:0.25298422 5:0.23159213 9:0.24798663 209:0.51081893 952:0.42784037 2937:0.1772838 4738:0.19959736 4989:0.25995222 5519:0.48789295 
2 12:0.11248961 21:0.20620645 128:0.17090157 277:0.1948116 836:0.11303241 921:0.14135369 1070:0.15466043 1288:0.14382001 1418:0.12108866 1860:0.15864379 2723:0.23419716 3819:0.13491626 4068:0.18513205 6244:0.28671455 7927:0.28671455 8606:0.22765671 8936:0.2192246 10862:0.25451366 11903:0.21388066 14811:0.19356416 15466:0.16695249 15589:0.18208971 16277:0.17647184 17514:0.19678834 19397:0.26639805 19993:0.19747803 
1.890849483564763 28:0.15129146 33:0.16674263 189:0.35130525 206:0.12863092 232:0.17126849 484:0.13630363 996:0.18438221 1020:0.23204075 1021:0.23204075 1134:0.44295784 2392:0.51426173 3724:0.20490762 8653:0.21151533 9036:0.205766 20039:0.17323398 
0.3077562189479314 9:0.1920801 10:0.086306593 14:0.11111098 52:0.10836593 121:0.27782219 199:0.27223774 228:0.14772881 260:0.14584228 377:0.142492 558:0.10895672 566:0.29851447 637:0.15089898 645:0.17359521 669:0.16075027 823:0.15823966 1184:0.16259746 1222:0.1833833 1292:0.12339083 1975:0.10299365 2333:0.14629906 3373:0.20772128 5195:0.4026963 9225:0.19640476 14226:0.16461279 14891:0.26833399 15460:0.14584228 19689:0.20134815 
0.0188494221133058 7:0.1131754 12:0.097410882 29:0.26203481 69:0.25591704 78:0.13203791 116:0.20944759 117:0.16510267 158:0.17224536 171:0.12634815 173:0.15840664 179:0.15166268 243:0.15223308 254:0.15732641 334:0.1628145 346:0.12687367 357:0.18317931 395:0.17637035 421:0.11853147 764:0.23239178 1018:0.16815212 2565:0.32562899 2731:0.20280409 3801:0.23142483 3848:0.13337409 13709:0.15663099 16361:0.38502549 18887:0.13582066 
1.226472347743095 73:0.137646 121:0.16475517 194:0.16994079 200:0.17965588 203:0.33191764 885:0.21750133 1068:0.12580825 1115:0.15503295 1347:0.26446798 1523:0.18336271 1626:0.1978683 2035:0.32428833 2345:0.22815491 2373:0.22815491 2696:0.18417124 3902:0.22059607 4532:0.21750133 4842:0.1314496 5596:0.20589219 7606:0.25702091 9976:0.21750133 16302:0.15671065 17400:0.1262574 
1.672273506940752 4:0.10289012 18:0.11210608 19:0.12891123 38:0.17450277 81:0.183166 155:0.12266944 234:0.16216742 311:0.15663786 605:0.1543254 1571:0.12715204 2331:0.19910582 3934:0.26197892 4093:0.52638891 4153:0.15942579 6183:0.3052369 8372:0.20808266 9664:0.43184937 17400:0.14994273 19987:0.18476656 
0.2669536062943579 6:0.2038827 93:0.27144835 150:0.15272558 189:0.14549478 191:0.12430575 318:0.24972392 482:0.14012615 604:0.27942083 707:0.18471127 1341:0.13679856 1418:0.10133031 1921:0.3919652 3886:0.1427804 4309:0.21298401 8750:0.16770986 10408:0.063374689 13185:0.22998541 14307:0.20920302 14853:0.46362987 15536:0.12673165 16288:0.14975887 
2 2:0.095152667 10:0.099824318 189:0.15199192 445:0.13548829 480:0.34173351 579:0.34173351 660:0.16349544 1266:0.16716213 1326:0.20078447 2213:0.2328842 2728:0.2047343 4107:0.097414545 8534:0.33531937 9592:0.25125863 10346:0.16816709 10567:0.54907159 
1.278776680202003 1:0.18386998 29:0.16095522 128:0.18180976 323:0.4297783 421:0.14561622 564:0.1150444 1301:0.16253037 2303:0.28340153 2423:0.54151717 2701:0.2365024 3983:0.21083392 8488:0.25185847 9617:0.33371206 13486:0.11369973 
0.9064367698654141 2:0.097144134 6:0.10872241 15:0.1045489 52:0.12796192 66:0.15842864 94:0.15154111 117:0.17016241 202:0.17503073 462:0.13952001 511:0.19438 608:0.17563213 3807:0.18028016 4176:0.09892949 4581:0.16967343 4603:0.13861787 8095:0.76767179 8681:0.15252837 10582:0.20498673 17432:0.10387455 
0.8795901978966444 2:0.11322867 4:0.10053813 10:0.11878778 30:0.15621189 62:0.15893069 90:0.28441605 145:0.19891765 291:0.21372114 337:0.20929443 479:0.17607288 630:0.22249278 667:0.14630559 938:0.17169116 1571:0.12424543 1944:0.1542531 2666:0.25239898 4110:0.16871967 7363:0.2982594 8354:0.42937836 10601:0.23892717 13800:0.24628038 18879:0.22249278 
1.87642586963375 318:0.13220575 341:0.12043502 490:0.16485997 516:0.12992617 615:0.1025095 659:0.31713396 836:0.10015187 1061:0.33056453 1068:0.1243502 1412:0.22551072 1731:0.1509319 2217:0.23604083 2403:0.22551072 2601:0.16097657 2667:0.2149806 2983:0.21224434 3956:0.21803948 4201:0.17436345 4875:0.23604083 4946:0.23604083 8371:0.12400042 8853:0.21803948 9027:0.20003814 10029:0.2149806 17481:0.20543062 
1.068151811091912 46:0.16644961 153:0.18650129 223:0.19460835 236:0.17379862 400:0.18759038 446:0.21388705 638:0.18871908 758:0.17195892 1019:0.48639855 1095:0.2291715 1867:0.20561198 3980:0.26056746 3986:0.16857752 4824:0.1655286 6184:0.30359238 9805:0.19029086 17448:0.24549928 19312:0.28207992 
0.8330279644788344 3:0.19892882 7:0.11924343 44:0.24929222 70:0.13939297 369:0.17108684 401:0.15323908 516:0.13378827 557:0.28076185 656:0.13367615 1591:0.43200911 2596:0.15863135 2966:0.14457528 3255:0.25075054 4732:0.21153712 6161:0.26159367 7722:0.26159367 9030:0.20598434 10074:0.21153712 10232:0.18917381 13238:0.25075054 16409:0.089008029 17612:0.16228371 
2 1:0.059451189 100:0.11245959 187:0.2209117 367:0.13840894 445:0.10662121 451:0.28022788 660:0.12866117 667:0.096753652 707:0.15184774 1482:0.12526688 2531:0.31601085 3735:0.22258068 4107:0.076659446 4176:0.07625565 4273:0.1611137 5726:0.19724254 6465:0.19724254 8608:0.15661426 9073:0.1611137 11317:0.29104637 12455:0.56720036 15596:0.12832788 19925:0.15184774 
2 21:0.1025952 30:0.14942542 57:0.13392468 80:0.12759574 90:0.13602993 238:0.19942403 328:0.16310596 1046:0.23836079 1117:0.16564374 1180:0.11928704 1277:0.17998545 2523:0.22288444 3187:0.27347597 3736:0.14820717 3870:0.19449274 4134:0.30910029 4971:0.53017082 9849:0.20536222 14273:0.24876361 20019:0.22854721 
0.1963421879817364 2:0.17087673 5:0.18629546 10:0.17926616 18:0.16531521 38:0.25732737 44:0.21447278 166:0.28853021 263:0.33035072 1562:0.23984701 4255:0.29209901 5566:0.2523748 6318:0.45011209 8608:0.35739741 13715:0.18750247 
2 21:0.22475189 387:0.38321724 573:0.44785165 1091:0.44032611 2426:0.31230144 2969:0.21048238 4007:0.51607938 
0.9962527802143863 3:0.10175735 12:0.10499968 70:0.28521275 78:0.14232432 116:0.11288231 159:0.16704452 252:0.38706963 495:0.15427245 699:0.18305656 879:0.22647421 915:0.22098408 954:0.19852294 1711:0.24255543 2892:0.1131708 3718:0.55907043 4842:0.13687248 5324:0.22359166 10333:0.19176911 
1.432098546655691 6:0.10572827 68:0.13340234 132:0.50406425 150:0.15839904 228:0.16963883 339:0.36751482 350:0.083115754 448:0.15839904 556:0.090146791 910:0.20547646 978:0.17676943 1060:0.14533157 1516:0.19294835 4287:0.20326298 4475:0.28045341 5354:0.13952489 5391:0.16274804 10085:0.20122677 10522:0.37342535 17432:0.10101392 
2 45:0.28804803 67:0.26817166 106:0.14327479 154:0.1741836 307:0.17937407 462:0.1518369 992:0.43856313 1064:0.2143892 1617:0.18984275 1851:0.21755566 1901:0.22747152 1921:0.45494305 3806:0.16098625 5259:0.25874768 9096:0.2564385 
1.226364955397758 50:0.21578481 67:0.19118109 70:0.21157816 83:0.15468084 92:0.28611062 217:0.25833166 218:0.13065544 237:0.19917131 5014:0.36892535 6831:0.39706097 8464:0.2979234 11021:0.35246708 19014:0.36892535 
0.4623492121057831 10:0.10778183 19:0.22858705 27:0.1490495 89:0.26607151 109:0.14109058 182:0.17843724 195:0.17893573 206:0.12017675 212:0.16962699 216:0.18157255 311:0.13887614 519:0.174743 666:0.11792532 713:0.099593312 817:0.20305576 941:0.19306808 1609:0.14598136 1650:0.19144022 1837:0.39328562 3469:0.25940752 5155:0.2514486 8686:0.14854186 10408:0.071482235 12437:0.25940752 13361:0.25940752 13727:0.16157839 
0.7811661513927883 1:0.1171816 2:0.073795812 7:0.088608765 13:0.081342366 26:0.24628867 42:0.10190417 44:0.18524691 103:0.12679916 203:0.12551665 206:0.1726442 284:0.11053764 323:0.13695033 666:0.084704917 742:0.13808618 842:0.29532261 1571:0.32390358 1731:0.11549008 1998:0.37941208 2564:0.12236484 3180:0.37266114 3983:0.1343659 9049:0.15878203 12874:0.18633057 13118:0.18633057 14848:0.10209433 15536:0.102676 19823:0.09059508 20020:0.31143747 
1.305628109626438 2:0.099020253 10:0.20776358 21:0.093795997 49:0.14398745 185:0.17500243 940:0.3489488 961:0.11831749 1176:0.21092164 1612:0.13063446 1734:0.44145377 2451:0.1886234 4032:0.19348494 9572:0.092460013 10211:0.17395662 10549:0.19046307 11551:0.11659262 11904:0.19457344 12728:0.25002097 13013:0.25002097 13443:0.25002097 14444:0.17058905 18924:0.24235003 19950:0.14055217 
2 4:0.13143427 134:0.18811788 249:0.48675327 328:0.22291395 2457:0.26580969 2506:0.23730422 8597:0.61920244 10340:0.25239765 15518:0.29433485 
0.9837131053904794 4:0.19765352 11:0.12623242 44:0.13969775 59:0.17071868 64:0.15045188 83:0.11421344 91:0.16260437 115:0.15701207 245:0.12376761 613:0.20916088 958:0.20193284 1073:0.21517533 1840:0.20122759 1933:0.15070915 2680:0.17334947 3889:0.13371585 4325:0.26025511 10927:0.26025511 11074:0.24494479 11123:0.24494479 19165:0.54481519 
1.567860042682042 7:0.24521996 29:0.14193934 69:0.27725092 179:0.16430566 468:0.20856109 633:0.13935552 1017:0.19544689 1185:0.20182084 1764:0.45524172 2878:0.23453136 7731:0.26897914 10092:0.21699319 13149:0.51565978 15594:0.16253101 
0.2031925987823786 10:0.086151588 21:0.077787206 39:0.10178885 75:0.26679899 112:0.11458848 145:0.14426628 179:0.13213551 183:0.27292826 322:0.11768468 357:0.15959426 499:0.10166462 520:0.2437923 521:0.11632151 605:0.10936693 793:0.14952205 837:0.15570468 1120:0.25917116 1453:0.18565855 1504:0.11267361 1551:0.12284402 2638:0.18305395 4395:0.57606072 9024:0.17033058 9971:0.18305395 13721:0.15432213 13723:0.12958558 
1.566955743711838 2:0.22216088 100:0.16682888 132:0.14817497 157:0.16638573 191:0.15159362 339:0.14404645 787:0.17558329 945:0.19753796 985:0.17588392 1076:0.35680867 6778:0.29260069 7915:0.29260069 8383:0.17088695 8436:0.18459002 8752:0.2045259 9801:0.21587729 12314:0.28047232 12460:0.28047232 14305:0.25512773 17441:0.23661088 
2 2:0.12060276 4:0.10708574 15:0.25959129 53:0.2769928 132:0.1608772 187:0.35580588 438:0.23315759 599:0.19129119 1305:0.23315759 1506:0.13622968 1770:0.20668807 3146:0.30451566 4075:0.17154585 6144:0.31768373 6739:0.31768373 10556:0.15528244 14142:0.22867095 16279:0.20615999 19842:0.16700687 
1.256362041804334 2:0.098132539 55:0.14778014 56:0.30015894 57:0.12134081 66:0.16004059 318:0.13452261 403:0.17999927 517:0.15565059 1282:0.20354374 1875:0.12216317 2380:0.22946272 2709:0.20043126 3821:0.15941138 5603:0.20707239 10556:0.12635084 10588:0.20707239 10821:0.22946272 11612:0.31944822 14378:0.2253892 14400:0.2253892 14437:0.37213182 15465:0.3037741 
1.056575772887736 4:0.093789268 70:0.14826209 83:0.10839164 90:0.13266197 150:0.17710982 307:0.17921774 387:0.17060066 417:0.14826209 520:0.15679089 837:0.40055532 886:0.1993746 915:0.45949645 1199:0.22974822 1220:0.13747566 1253:0.1508848 2680:0.16451333 3769:0.41511484 4518:0.23545609 8353:0.20027766 
0.5143617509137326 1:0.11026114 5:0.075703177 42:0.095885956 101:0.48732216 169:0.10168538 177:0.12093769 272:0.22929235 279:0.29724782 282:0.069222436 350:0.061092722 517:0.22027363 555:0.13290542 1217:0.42546951 1777:0.29304474 3026:0.10470996 4019:0.15103173 4577:0.12886238 4716:0.14790807 4845:0.10346754 5067:0.16994713 5916:0.18290792 6523:0.18290792 8542:0.09606489 9058:0.14940475 11314:0.10866951 14443:0.076255882 
1.40077447580265 35:0.17820851 39:0.19208108 59:0.23769124 61:0.20168767 83:0.15901912 95:0.21379128 110:0.23336478 112:0.21623468 374:0.075366118 424:0.075123047 530:0.27557844 766:0.26768145 896:0.23839854 1029:0.29249831 1031:0.19910563 1116:0.14546009 1180:0.17067062 2590:0.30450316 8293:0.274718 11561:0.2592422 15586:0.18794384 
2 44:0.32251158 165:0.20074132 206:0.15028525 221:0.20711382 674:0.22018324 1047:0.28274447 1400:0.30041747 1609:0.18255482 1713:0.30672523 2325:0.31444531 2426:0.16910521 4138:0.17841623 5356:0.35854952 19995:0.39530051 
0.9848044219605109 15:0.08004001 16:0.2858706 28:0.10232071 151:0.27950093 270:0.10827016 674:0.12745663 887:0.12916938 921:0.096582714 1182:0.10693047 1420:0.12253329 1819:0.17081434 1849:0.092640689 1874:0.083746813 2134:0.1681401 2154:0.15425845 2602:0.11510971 2667:0.16578126 2768:0.10260345 2969:0.065974623 3598:0.17755286 4119:0.07268269 4300:0.13027206 7634:0.19590341 7655:0.19590341 7834:0.58771023 9008:0.097080746 12939:0.18778316 13769:0.16176243 19856:0.15425845 19991:0.085245215 19992:0.11199723 
1.978321534054333 4:0.08797605 24:0.12848576 151:0.24824345 339:0.38545728 361:0.13949054 410:0.57767112 1997:0.17161369 2336:0.18619601 3714:0.18786411 3758:0.099080923 4079:0.20236829 4255:0.16937027 8392:0.16810952 8803:0.22400469 10408:0.068937893 11281:0.13606859 11282:0.15109248 16472:0.22400469 19676:0.24249852 
1.21997927564767 20:0.084802733 21:0.15081195 46:0.11496752 137:0.093542025 193:0.34931182 215:0.092161507 236:0.12004351 270:0.11589109 390:0.12192363 499:0.098552447 551:0.092340519 689:0.15312011 808:0.29919601 1030:0.15025765 1378:0.27729523 1507:0.11939875 1892:0.1051031 2096:0.17997515 2128:0.17997515 2426:0.20955904 2755:0.14343106 4798:0.13034914 5530:0.18283762 8620:0.13984998 8624:0.14714543 9010:0.1213943 9940:0.30051529 10069:0.16956749 11559:0.11108069 12763:0.20100085 13175:0.20100085 14876:0.14601692 16533:0.17997515 17611:0.131715 
2 4:0.066777828 46:0.10861444 116:0.33423828 516:0.10131796 872:0.33528882 983:0.21197309 1111:0.14695386 1163:0.17273405 1416:0.096427856 1570:0.11435942 1625:0.15251178 1772:0.2692097 1870:0.15147298 2085:0.13416931 2580:0.24247718 3724:0.28027921 3758:0.075206933 4001:0.16358042 4107:0.07699468 4119:0.29399816 4292:0.16181826 4877:0.18406742 4936:0.18406742 8625:0.12553143 8869:0.17002976 9592:0.099295119 10092:0.07990853 10228:0.11991733 10337:0.11750831 14892:0.1128008 15433:0.15147298 19986:0.11435942 
2 80:0.10717115 104:0.12426155 115:0.12833389 226:0.15020116 237:0.12020314 316:0.14692999 421:0.11440239 436:0.10060908 709:0.1937785 1377:0.18720673 2532:0.19196305 4243:0.18448199 5298:0.17022643 5377:0.15253601 7281:0.23963278 7415:0.23963278 7895:0.23963278 7908:0.23963278 8684:0.15756885 8869:0.20567218 9028:0.18869188 11052:0.20020574 13727:0.14307429 14361:0.4178867 16326:0.12527538 17608:0.30946255 
1.029224432751748 1:0.074031723 2:0.09324384 3:0.09338957 4:0.08279318 15:0.10035131 50:0.13348165 93:0.1389407 142:0.15362787 179:0.15003474 334:0.16106685 359:0.16581855 754:0.14060908 1293:0.18322287 1386:0.21803151 1521:0.17522677 3612:0.22260944 3771:0.11906183 4093:0.14119078 4527:0.20785063 5410:0.21416092 10235:0.17761993 10408:0.12975321 11599:0.14640443 12832:0.23543583 17401:0.61712038 19823:0.11447036 
2 13:0.12775702 516:0.15614507 649:0.23672936 666:0.13303827 814:0.19915186 1182:0.16664679 2221:0.28367349 2495:0.2054729 2506:0.1858108 2923:0.51613467 3021:0.17884621 3740:0.15386956 5512:0.26620718 9616:0.17804244 9665:0.21597461 11563:0.15473487 12836:0.29265241 14807:0.21424021 19987:0.18480928 
2 46:0.23971345 70:0.23297757 187:0.24484352 215:0.19216169 436:0.18356565 2252:0.40623915 8582:0.25810642 9829:0.34156684 12664:0.41909756 13486:0.16298177 14891:0.27069475 15402:0.3343028 16409:0.14876557 
2 16:0.23799642 151:0.23269346 218:0.080501593 436:0.10271293 516:0.1251195 713:0.090031905 743:0.17378606 923:0.14705675 979:0.1215967 1069:0.11717419 1114:0.1679128 1116:0.087178222 1264:0.10918892 2069:0.19783063 2154:0.19263764 2969:0.082388973 3758:0.092874486 4076:0.11702169 4583:0.15146543 4706:0.10963754 4844:0.15146543 5407:0.12597461 6515:0.24464377 8732:0.17453267 9008:0.36370271 9040:0.17378606 9159:0.14043687 9179:0.22172765 9379:0.22172765 9593:0.15757913 9784:0.12470266 9953:0.13568395 10408:0.064619618 13160:0.23450323 14353:0.21331259 16409:0.083240778 
1.217535536456408 20:0.19101432 39:0.2222562 299:0.31689955 392:0.26718428 539:0.37191723 757:0.1769636 1864:0.35439431 2673:0.39969874 2785:0.28693496 3342:0.45274533 
1.869229275704267 16:0.2032904 131:0.21909532 241:0.27406834 275:0.23071374 848:0.27633747 4296:0.3008338 9943:0.25875572 10752:0.56610652 14217:0.27792007 19003:0.38832193 
1.290095509541167 2:0.10294234 21:0.19502231 24:0.13349315 86:0.11804924 134:0.13082475 225:0.15339223 356:0.20006144 441:0.20114867 470:0.20006144 623:0.19104048 1128:0.14627202 1131:0.13787925 1506:0.11628094 2031:0.1867673 3323:0.25992403 4285:0.22149487 4289:0.22149487 5007:0.50389852 7760:0.27116384 8355:0.19518561 10231:0.19609457 19036:0.25194926 
1.643723261750838 1:0.07107078 2:0.089514497 10:0.093909334 15:0.096337697 100:0.13443954 107:0.14247831 231:0.25884636 339:0.11608025 343:0.24653616 361:0.1260225 372:0.1530173 491:0.13287261 960:0.14031822 978:0.16749887 1055:0.12627758 1230:0.19953752 1506:0.1011132 1563:0.16128393 1634:0.17491075 1841:0.11921516 1932:0.1260225 2335:0.13670103 2714:0.13535619 3751:0.15009191 3859:0.1888872 4854:0.13093022 5044:0.21908489 5329:0.19699782 6620:0.23579312 8086:0.23579312 8807:0.20237667 9090:0.19260298 13486:0.087896112 13784:0.19470038 14868:0.31269478 
1.642914956335591 13:0.096777672 44:0.33059828 86:0.10068372 98:0.11878399 199:0.29054261 270:0.12781877 374:0.042700599 395:0.16428904 424:0.04256288 456:0.1556485 486:0.14825128 535:0.16165934 666:0.10077829 721:0.18067708 1103:0.14496224 1262:0.14262523 1556:0.15470265 2083:0.15663376 2727:0.18891208 2907:0.14825128 3470:0.22168816 3736:0.12014136 3793:0.18067708 4804:0.18067708 4866:0.21488651 7943:0.23127454 8479:0.19096928 8532:0.16572239 10029:0.19571373 11075:0.1932227 11911:0.17683466 12636:0.22168816 18901:0.1206849 
1.989106555842206 16:0.20496625 495:0.24290652 862:0.20759552 939:0.26761582 1030:0.30194612 1784:0.2934243 2740:0.29233367 2969:0.14190936 3758:0.15996993 4861:0.39152312 9203:0.38191067 9349:0.38191067 13715:0.17553447 
2 44:0.17199644 61:0.17835171 65:0.21968553 70:0.1923453 126:0.23545877 183:0.22771981 536:0.25231375 807:0.29484912 915:0.29805995 2060:0.21624146 3758:0.13703459 3802:0.18819065 4008:0.29805995 4075:0.19491855 4246:0.27789178 5091:0.33538934 8682:0.21376868 19986:0.20837436 
1.153053378711807 3:0.12423303 31:0.15598595 39:0.1537486 59:0.38051322 83:0.12728462 102:0.17588171 142:0.20436604 339:0.32170203 959:0.14473279 985:0.39280534 1262:0.2014954 2831:0.28489113 3705:0.18365607 6049:0.32673571 8686:0.17934016 10051:0.17795234 12918:0.31319243 
2 15:0.12756462 90:0.29773168 282:0.11816244 442:0.23426775 938:0.1797293 979:0.15518606 1944:0.32294967 1969:0.23290932 1973:0.32409475 2617:0.15438087 2755:0.21356254 2768:0.16352534 4226:0.15176495 5251:0.29009911 5550:0.27223716 9511:0.16475904 9595:0.22578697 9849:0.22474038 9945:0.21214372 10556:0.15261332 14443:0.1301685 15467:0.12212336 
1.398380918342601 1:0.10892321 2:0.13719009 8:0.15890479 17:0.14933082 21:0.25990402 134:0.17434866 466:0.23220489 620:0.21685444 836:0.14246682 921:0.17816315 1119:0.23164935 1438:0.27631218 2604:0.20950825 2768:0.18926941 4178:0.28694006 4429:0.32079075 4766:0.16279714 8425:0.23961831 9607:0.22797821 12678:0.3463978 15467:0.14134945 
1.500394811885634 95:0.13220977 110:0.14431414 116:0.10647414 183:0.1592489 245:0.10656453 285:0.17386519 334:0.16553577 586:0.28033826 611:0.18432854 624:0.17784317 633:0.13078236 1543:0.20412817 2969:0.17002332 4823:0.14855411 5500:0.44020594 9288:0.22878591 10078:0.20412817 16464:0.43331418 19976:0.35568634 
2 1:0.084887059 11:0.12125916 15:0.11506591 19:0.118942 38:0.16100777 60:0.27954326 122:0.14019194 202:0.1926378 532:0.19329969 671:0.19329969 836:0.11102858 861:0.10391285 921:0.13884778 1276:0.15619813 1571:0.11731886 2628:0.21393349 3613:0.25525086 4253:0.15890531 4489:0.17140167 4760:0.12647547 5083:0.26167536 5375:0.12456809 5566:0.15790898 8542:0.1479155 9522:0.15239982 10601:0.22560719 11108:0.23529453 12393:0.26995799 12989:0.26995799 15609:0.12360024 16276:0.17806184 
1.817726134982884 3:0.089953924 12:0.092820157 16:0.1150763 51:0.24535798 514:0.17971192 525:0.16735739 1562:0.12606463 2424:0.14957843 4026:0.39070171 5590:0.18951825 5874:0.23658088 10028:0.20020416 10065:0.19131058 10229:0.12606463 10942:0.63003148 11067:0.19765597 13811:0.19535086 
1.07940506494805 1:0.055368613 5:0.3041202 8:0.0807756 10:0.073161285 53:0.080084263 181:0.091580486 243:0.22526716 253:0.10164289 265:0.25045664 311:0.094267807 350:0.061356509 453:0.13163065 615:0.074124533 697:0.13954071 1160:0.16017178 1260:0.20729582 2957:0.14464741 3543:0.16649047 3934:0.15766417 4636:0.11489888 6898:0.18369768 7418:0.55109305 7539:0.18369768 8372:0.12522832 9664:0.25989561 12056:0.17608337 19103:0.17068093 19487:0.17068093 
0.3567300649869466 4:0.085509082 91:0.14069215 93:0.14349843 132:0.25692424 136:0.11470145 197:0.1741106 315:0.14882617 318:0.26402806 360:0.16003259 548:0.14793185 620:0.1522241 711:0.20513272 1192:0.4189298 1310:0.36689295 1507:0.14444155 1860:0.28072359 1881:0.18097482 1890:0.087354881 1969:0.18923321 2678:0.21466885 2784:0.13831133 2969:0.085430018 4655:0.15553918 4682:0.14975244 10408:0.067004781 13766:0.16918224 
0.6637222780381934 1:0.078078464 5:0.10721434 10:0.10316893 45:0.13397108 108:0.15823597 193:0.14384014 213:0.15913374 288:0.18106907 295:0.3531833 346:0.13237257 390:0.15061768 541:0.40795125 684:0.16341961 740:0.17033169 1099:0.20237019 1323:0.20751176 1617:0.17659165 1750:0.21921222 1874:0.11073823 2001:0.18646071 3785:0.14653551 8390:0.15017995 9096:0.11926949 9375:0.23477778 9515:0.19215721 10930:0.2299496 16520:0.22233131 
2 30:0.11602841 67:0.1066675 155:0.089031507 164:0.097746594 332:0.12548107 355:0.13098724 364:0.10043802 425:0.25724377 737:0.1445078 754:0.12682353 895:0.29463454 932:0.12436834 2091:0.19014008 2767:0.12452399 2942:0.11840262 5013:0.20583806 6487:0.44307205 10092:0.089359736 10536:0.38311458 10579:0.17746625 11636:0.17590374 14212:0.34888423 17431:0.15369052 19785:0.20583806 
0.4188749986606196 31:0.13394116 61:0.13862275 76:0.15750367 119:0.13526719 136:0.12685819 163:0.18603074 215:0.12330808 254:0.17777964 275:0.3097548 334:0.1839812 923:0.16864597 1116:0.099976755 1530:0.15850312 1874:0.11993653 1882:0.16588603 2542:0.2247484 2794:0.15770079 3532:0.26893037 3558:0.25427923 3783:0.17475777 6514:0.28055964 6767:0.28055964 8469:0.23166524 8734:0.20015561 9184:0.25427923 11608:0.16807233 
2 10:0.08412041 108:0.12902018 164:0.09319251 242:0.26889324 286:0.13850709 390:0.12280849 417:0.11254789 462:0.11516113 563:0.15501664 853:0.28172989 1310:0.15274167 1506:0.090573363 1509:0.14496841 1915:0.17252643 3080:0.20245961 3659:0.19142975 3756:0.11902223 8742:0.15755984 10212:0.12975219 14197:0.66525892 17502:0.15347368 18899:0.14547648 20011:0.16919797 
2 35:0.1255064 61:0.142042 112:0.15228699 382:0.12468674 397:0.2381588 640:0.3031154 836:0.22666826 1220:0.56816801 1299:0.11705178 1303:0.20509262 1438:0.21980978 3832:0.17870324 4226:0.13973779 4706:0.12883461 5382:0.14581782 5538:0.25066275 9591:0.29975577 13723:0.17221798 14892:0.16369071 
1.86156409653862 35:0.097210535 119:0.21470996 137:0.099329548 159:0.13898306 206:0.19775954 237:0.11169263 245:0.18799834 285:0.30672839 447:0.12484761 484:0.2095557 814:0.14524522 946:0.098006032 1031:0.10860966 1074:0.15179371 2603:0.13083529 3031:0.31768462 4284:0.36376156 5375:0.098487297 5512:0.5824498 11551:0.099532337 
0.1446483733575766 3:0.1192735 13:0.13126557 39:0.14761077 94:0.18577173 137:0.13993522 222:0.18186292 245:0.13242579 333:0.14534413 334:0.20570827 347:0.22793639 401:0.18375781 447:0.175885 484:0.14761077 697:0.23828721 1144:0.27351794 1181:0.21456727 1212:0.23143823 1228:0.26545869 1286:0.24700769 1504:0.16339549 2596:0.19022399 4412:0.27846131 5975:0.31369204 11315:0.19662129 
1.403436513854074 103:0.16451394 172:0.30425754 184:0.15910677 188:0.14842152 310:0.12071756 518:0.14935918 547:0.19283921 977:0.14796518 1164:0.21990652 1655:0.22858171 2044:0.17841076 2128:0.21646372 2466:0.2082531 2968:0.16128689 3779:0.15160257 4432:0.22388095 4807:0.19702939 8835:0.21646372 9160:0.16723043 10210:0.16820348 12338:0.24175221 12961:0.24175221 13304:0.24175221 15472:0.2060097 17604:0.15405993 17607:0.17841076 
2 106:0.42966554 282:0.1053535 313:0.36223053 350:0.092980437 390:0.1618599 845:0.17679513 1506:0.11937445 1607:0.20037828 1935:0.15788252 2790:0.21013789 3750:0.15403094 4184:0.22103718 4567:0.14322185 5271:0.18304538 5284:0.18065252 10570:0.19859906 12424:0.53367797 
0.9048815793711105 7:0.08886376 9:0.34559186 74:0.11821682 121:0.37489472 220:0.23317807 614:0.39360066 637:0.13574925 805:0.31847794 823:0.2847059 1279:0.30701135 1975:0.092653449 2215:0.1811335 2965:0.18258047 3819:0.091734358 4462:0.096823229 5508:0.16998077 8743:0.14542506 15598:0.26669044 
2 13:0.12472233 19:0.12587822 206:0.13235776 328:0.17039709 440:0.19245481 447:0.1671176 713:0.32906403 1180:0.24923879 1540:0.24102176 1992:0.19820115 7510:0.29805532 9372:0.27013607 9482:0.27013607 10800:0.26458075 11281:0.1553914 12797:0.28570086 13332:0.28570086 16326:0.31163512 
0.6380701884696529 6:0.25723268 21:0.32656916 70:0.32260792 148:0.18934049 283:0.2233382 294:0.18491209 322:0.16468941 499:0.14227073 655:0.42483954 937:0.19546242 1015:0.17036734 2349:0.26871552 3176:0.29016568 3261:0.29016568 8787:0.2598129 
1.303059905549149 1:0.081551018 13:0.11321833 34:0.15285584 52:0.1352994 67:0.13027382 243:0.16589513 246:0.15754789 320:0.18912215 332:0.15325098 350:0.090370438 556:0.098015173 678:0.20300972 1689:0.49043912 3484:0.2593487 4425:0.24017665 4825:0.15489054 5749:0.27056364 10899:0.24017665 11558:0.15922473 14844:0.4110519 17491:0.19139681 
0.2124343096157902 7:0.12451843 46:0.14976776 112:0.1447044 124:0.13049556 296:0.5291509 308:0.19662667 388:0.1781859 664:0.13447873 766:0.17913262 798:0.17428299 858:0.21029753 1913:0.22313017 2490:0.22556 2782:0.16203147 3365:0.26184306 4198:0.17015225 6300:0.27316585 8496:0.22556 9661:0.12901681 14285:0.23818189 16400:0.16001795 
0.7715619808866038 29:0.32317911 69:0.1578169 92:0.1103255 195:0.20246888 302:0.22474171 306:0.17255734 323:0.21573605 559:0.21752535 2198:0.28451844 2882:0.26700011 3544:0.27753311 4017:0.25285107 4475:0.17255734 5462:0.26700011 9805:0.19193588 10363:0.21243782 12871:0.2935241 19484:0.28451844 
0.09356461585475755 47:0.47540941 65:0.3336694 121:0.35144185 220:0.16394309 475:0.20449122 719:0.197319 1038:0.22391581 1343:0.20334723 1352:0.22391581 2075:0.22167271 2623:0.20823327 2836:0.23902053 3642:0.24844975 4654:0.15221648 8797:0.23527847 
1.24762405256789 74:0.35456366 121:0.18740149 126:0.38139883 194:0.19329989 296:0.37754116 324:0.41897275 558:0.29398159 936:0.18877058 4099:0.15255538 9210:0.26496476 11356:0.21242841 16409:0.19894562 17404:0.19497621 
2 17:0.2980219 134:0.11598346 199:0.15100452 926:0.38880094 950:0.36762708 1059:0.30266007 1173:0.19440047 1594:0.198506 2033:0.13581588 2353:0.21340241 2716:0.13136421 2782:0.14259717 2923:0.13546974 3031:0.11432941 5965:0.24040193 6584:0.24040193 10338:0.15561495 11601:0.1541021 16309:0.35108878 
0.8843222139283545 2:0.2002304 66:0.16327403 106:0.13567893 189:0.31983763 373:0.1509709 445:0.14255446 579:0.17977804 660:0.17202228 708:0.20302313 1418:0.11137597 2213:0.24502989 2728:0.21541188 3833:0.15448278 4710:0.21325397 4900:0.24502989 5272:0.31543363 8534:0.1764037 10346:0.35387514 10567:0.38513835 11551:0.11788188 
1.189485742135139 1:0.088142154 4:0.098573542 6:0.24849545 152:0.16607034 155:0.2350461 225:0.16542277 350:0.097674379 474:0.43629022 707:0.22512901 1372:0.22845409 1395:0.25958827 1506:0.25080168 1622:0.13942918 2720:0.47773338 8297:0.22074631 8811:0.25098804 9096:0.13464238 
2 116:0.1219034 183:0.1823258 222:0.16755443 282:0.21875582 287:0.057303014 311:0.14831155 374:0.053360684 424:0.053188585 611:0.21103975 702:0.13054113 836:0.11393798 855:0.15040413 1180:0.12083813 1455:0.24805306 1571:0.12039309 1712:0.26193947 1840:0.19836493 2513:0.15557483 2907:0.1852618 3140:0.27703199 3260:0.27703199 4338:0.25655272 5409:0.15757867 5465:0.25199829 8951:0.21000297 13766:0.19275003 14117:0.19573695 14297:0.25199829 
2 1:0.084820365 57:0.13209802 132:0.57003259 215:0.123682 282:0.21300242 339:0.13853751 615:0.22710592 826:0.13650597 944:0.17222073 2380:0.24980524 2513:0.15148312 2748:0.22344513 3718:0.19595671 4156:0.20350448 6257:0.28141042 8429:0.2079029 8854:0.24152912 10107:0.16044865 14193:0.22158847 
2 1:0.068908693 2:0.086791322 3:0.086926967 8:0.10052882 9:0.10132115 10:0.091052462 17:0.094471981 53:0.099668415 213:0.28088918 702:0.10326334 981:0.16042705 1278:0.44396493 1595:0.37755457 1701:0.20720476 2138:0.19622005 2424:0.2890902 4107:0.17770888 4720:0.36974594 8753:0.13372101 9373:0.20720476 9711:0.2890902 
1.320780365025515 1:0.16681308 5:0.11453065 17:0.11434814 119:0.13341585 134:0.13350523 233:0.1641395 245:0.11681786 628:0.19918479 966:0.20206409 1015:0.15573818 1594:0.22849454 2285:0.25711147 2793:0.20888627 2923:0.15593531 3546:0.50159803 3870:0.37728454 4653:0.20642483 8460:0.13957256 10819:0.24564137 14848:0.1453357 14902:0.20309289 
2 2:0.10470829 5:0.11415644 9:0.12223761 10:0.10984909 105:0.17180275 106:0.14190361 138:0.13083957 262:0.15054915 480:0.1880259 487:0.19677113 556:0.099917761 716:0.19853397 1452:0.23672718 1508:0.19431773 1658:0.24997956 2040:0.20140387 2107:0.23672718 2110:0.23672718 4202:0.18930777 4816:0.20459932 10370:0.21386193 11357:0.16636976 13822:0.34085408 14415:0.24049228 18889:0.19065071 19026:0.25627139 
1.305195988063153 3:0.080584398 19:0.089508486 59:0.12341094 159:0.13228708 163:0.14053031 199:0.26625176 222:0.1228715 290:0.14931523 314:0.12675081 648:0.16433314 726:0.13228708 959:0.093881672 1090:0.14931523 1170:0.36959221 1181:0.14496744 1286:0.16688506 1952:0.11646163 2716:0.11581094 8316:0.13095744 8469:0.17500327 8585:0.11456541 9258:0.38417241 10826:0.18813598 15581:0.16557155 16288:0.13228708 16313:0.147581 17458:0.17138383 17597:0.15636592 18914:0.39523618 
0.4897309196850918 55:0.16229488 64:0.14567977 121:0.18197433 149:0.16654947 308:0.20434101 377:0.18666533 500:0.20166024 653:0.2235355 926:0.22956141 1231:0.24023317 1309:0.20529261 1314:0.16629601 1416:0.13818039 1757:0.24023317 1768:0.14531007 2085:0.1922636 2129:0.24365136 2934:0.20529261 3156:0.27211606 3910:0.24365136 8481:0.2344095 8838:0.24365136 10337:0.16838852 11315:0.17793713 
2 4:0.073860911 21:0.078795338 26:0.092540474 80:0.097996298 101:0.35027802 110:0.12526891 132:0.22192565 282:0.33170526 548:0.12778036 737:0.1429305 1341:0.12493206 1854:0.34236017 4706:0.098198102 7333:0.65735391 11337:0.15565345 11622:0.17398376 13486:0.081680153 
1.19145635484673 5:0.19665911 8:0.10446697 42:0.12454462 67:0.11439057 71:0.14539442 80:0.10625127 90:0.11327458 181:0.11844091 355:0.14047114 656:0.12140293 819:0.15122675 1277:0.29975424 2232:0.44148279 2339:0.35056139 2758:0.35246651 3488:0.22772837 3737:0.12585133 4290:0.19405926 5536:0.20714993 10075:0.19211525 11071:0.19848732 19760:0.2207414 
1.680877160347489 26:0.26736565 32:0.16986456 83:0.12331083 102:0.17039073 221:0.38743347 374:0.058442397 424:0.058253908 638:0.19676454 656:0.1617516 836:0.12478867 901:0.25133479 1116:0.11279653 2833:0.27599691 4027:0.26137111 7192:0.31653511 9164:0.21651196 10349:0.21237539 13751:0.23750311 15606:0.22582107 16409:0.10770202 19276:0.29410554 
2 76:0.11683601 232:0.12305403 314:0.24893242 436:0.34951205 715:0.46064259 860:0.1318767 2058:0.15438198 2063:0.10321078 2196:0.38674306 3220:0.19949218 4730:0.16829476 5523:0.18146528 6724:0.41623752 10028:0.17611838 10060:0.16829476 13105:0.19949218 
1.641021485981589 3:0.17010758 7:0.10196718 104:0.23199239 310:0.10707001 364:0.10141612 457:0.14708804 509:0.17221103 687:0.28959637 819:0.28477991 933:0.24057892 2965:0.10475145 5656:0.67108025 14216:0.29338064 17434:0.142719 19512:0.20784257 
1.320774028949169 63:0.2086053 124:0.1680048 194:0.23253137 260:0.23668432 308:0.25314445 333:0.16294701 448:0.22386105 464:0.23454791 549:0.25314445 653:0.27692321 787:0.21103778 996:0.22386105 2063:0.17440793 2097:0.30184341 4197:0.2190603 4578:0.2016052 10592:0.28172397 10872:0.31218623 
0.9371567933730729 6:0.1093412 31:0.12285927 39:0.24219414 78:0.13685885 102:0.13852978 131:0.1349092 163:0.17063912 225:0.14557629 331:0.14576488 576:0.15809205 981:0.18058539 1748:0.21777726 1847:0.18986752 3702:0.15365066 4567:0.13240175 5948:0.25734698 6004:0.51469395 6310:0.25734698 7677:0.25734698 9197:0.23324093 14187:0.18986752 14411:0.22438891 
0.2605343892739146 1:0.09370653 2:0.23604899 12:0.12197549 18:0.34254945 60:0.15429342 217:0.6068084 253:0.3440434 317:0.19835287 374:0.057400546 424:0.057215417 979:0.15452456 1390:0.27597596 2564:0.19570282 4057:0.14939417 8949:0.22590199 10353:0.18785707 
1.51928866874725 25:0.13053501 92:0.083458286 190:0.14745137 282:0.17533436 391:0.28683492 479:0.136748 544:0.17486078 1016:0.16831888 1060:0.40586115 1140:0.12200601 1280:0.18240202 1538:0.37463817 1596:0.38255012 2065:0.18731909 2375:0.20562884 2907:0.14848865 7978:0.23164486 8513:0.19127506 11908:0.16751606 19108:0.21523058 
1.06905398400954 7:0.1268891 103:0.36315666 230:0.10291661 244:0.37952986 643:0.2229916 1968:0.16511634 2803:0.11842621 4239:0.21430132 4306:0.20886444 4698:0.16538355 5096:0.25864161 5944:0.55673316 10092:0.11228316 11090:0.23256663 19932:0.21430132 
2 80:0.095553605 138:0.10135279 143:0.13478708 271:0.12181796 380:0.64124326 765:0.14010824 800:0.1420773 931:0.13100251 1277:0.13478708 1943:0.13075571 2784:0.1164924 4081:0.16566474 4100:0.12652943 5300:0.12554094 7743:0.21365615 8989:0.24773426 9156:0.12459526 9954:0.1269377 10075:0.17277256 11610:0.10392539 11870:0.11098904 11878:0.15177358 12383:0.20480005 14212:0.16823734 14425:0.18629351 17488:0.1344939 17610:0.13600083 19845:0.12316249 
2 4:0.16959439 20:0.2034705 48:0.24679798 55:0.28763394 83:0.19599913 218:0.16555608 484:0.23674967 1891:0.24609819 1895:0.26549663 3674:0.45599546 3750:0.2783865 5141:0.46747257 16409:0.17118937 
1.265810224998003 72:0.47625244 80:0.11644412 127:0.14030129 205:0.14406525 214:0.15760582 746:0.18495525 1070:0.14044794 1301:0.13873931 1797:0.22702215 1867:0.352674 2016:0.21752852 2454:0.2851814 2615:0.176337 2629:0.19778035 3298:0.2495747 3771:0.12621198 4494:0.18062948 4495:0.18062948 7683:0.26036698 9852:0.18741396 
0.7212160893933571 4:0.082133841 17:0.10068724 18:0.089490637 115:0.13049101 266:0.15656561 333:0.22579247 360:0.15371574 368:0.15240443 370:0.1850899 397:0.10092869 435:0.17704988 516:0.12461671 576:0.14968437 674:0.15852797 731:0.38694228 743:0.51926313 907:0.15509994 1073:0.17882986 2045:0.17236566 2680:0.14406885 4037:0.12147439 4853:0.2385372 8786:0.14026175 9797:0.15852797 12584:0.23356089 
1.555907360131264 26:0.28321503 101:0.23822369 245:0.094364885 314:0.26736931 343:0.11685864 372:0.14506102 509:0.1720874 666:0.097404829 703:0.1720874 1034:0.18258841 1565:0.12083267 1931:0.11239035 2070:0.18075932 2082:0.33747458 2973:0.12096069 2993:0.18675474 3031:0.10630687 4043:0.14997664 4176:0.086419703 5568:0.11283581 9725:0.097867426 10057:0.18075932 10911:0.19842788 11091:0.18675474 12403:0.21426734 13813:0.18457676 16313:0.31130872 19587:0.20769337 20007:0.17906584 
1.079727183540333 2:0.081246664 4:0.072140633 8:0.094106538 10:0.085235581 13:0.089555162 20:0.086550563 26:0.18077027 39:0.10070658 365:0.27637907 554:0.12044762 564:0.080721256 823:0.156276 842:0.32514009 1547:0.47121501 1571:0.089151692 1944:0.33205063 1998:0.13923991 3180:0.20514359 3750:0.1184177 4768:0.15550826 5873:0.21401454 6101:0.21401454 10756:0.27570066 11022:0.18997858 15609:0.093924973 16535:0.18368454 
1.867554739362246 10:0.1011609 122:0.1264377 124:0.1213401 234:0.1349465 311:0.13034512 754:0.29081748 1303:0.1812081 2490:0.20973491 2503:0.19421135 2986:0.42441952 3688:0.23020817 3801:0.11837778 4058:0.13303166 4107:0.19743772 4245:0.39108648 8943:0.26705727 9667:0.13774126 10408:0.13418231 12214:0.24347238 14195:0.20000554 14219:0.17494604 15602:0.17258384 
2 1:0.13440297 5:0.092278491 18:0.081886258 60:0.11065127 62:0.1188044 92:0.080327766 171:0.11346005 245:0.094121315 488:0.46753392 520:0.12563864 656:0.11393196 1182:0.24339317 1313:0.12678259 2068:0.18029275 2943:0.15356348 4138:0.11754102 4596:0.52668036 8353:0.16048517 9307:0.20207127 9591:0.11623823 14203:0.17556012 15401:0.33790344 19985:0.13080448 
0.3058321250156121 4:0.1629526 16:0.35271354 26:0.10208181 51:0.1253387 83:0.094161626 374:0.044627315 400:0.14935313 424:0.044483382 434:0.55824345 790:0.15937207 836:0.095290121 1291:0.47811621 1894:0.16533112 4508:0.40908926 5566:0.13552516 
1.916839888938825 2:0.16165842 8:0.093623011 10:0.084797634 93:0.24088385 333:0.29595205 365:0.27495902 417:0.11345398 430:0.081913867 842:0.16173475 1547:0.15626462 1606:0.17580927 1944:0.11011484 3336:0.20408954 8300:0.16072219 10365:0.40036343 10385:0.13584219 10805:0.18900246 11340:0.1588283 14848:0.11182483 15536:0.22492387 16291:0.31094608 18973:0.39565567 
2 2:0.065565265 8:0.075943058 13:0.072270141 21:0.062106076 198:0.109685 217:0.11236524 364:0.07830065 373:0.098870569 374:0.031887296 631:0.12883485 932:0.096956525 1260:0.48723497 1991:0.097951476 2520:0.13492325 4176:0.066770251 4506:0.43845626 5629:0.17270765 7420:0.17270765 7547:0.34541529 12894:0.49664661 19095:0.16046964 
2 1:0.072092522 26:0.10101456 28:0.12492571 306:0.13478284 458:0.16360262 687:0.10321645 1506:0.10256685 1770:0.15561473 1844:0.35293268 1882:0.14142132 2378:0.21232035 2451:0.17296732 3771:0.11594311 4226:0.1162617 4927:0.44446909 5586:0.19160272 5709:0.23918297 7708:0.23918297 8519:0.16251571 8670:0.31998542 8922:0.1548259 9378:0.21677837 9799:0.17646634 13056:0.22926878 
1.032909816328723 13:0.097682683 18:0.085735833 19:0.098587979 61:0.2306798 80:0.10440034 109:0.24340547 171:0.11879395 198:0.14825383 245:0.098546076 276:0.28466252 447:0.13088671 709:0.18876854 721:0.36473335 775:0.16513362 1378:0.15434743 1653:0.15523139 2164:0.216896 4334:0.41443994 4494:0.16194703 5429:0.20354131 6595:0.2334373 7593:0.2334373 8388:0.15434743 10841:0.20721997 
2 19:0.1069129 32:0.13584926 157:0.14395181 214:0.30647337 446:0.17834873 666:0.11031017 667:0.12417758 713:0.093161971 923:0.3043387 1482:0.16077262 1571:0.10545391 1612:0.12678632 1994:0.17694951 3387:0.24265601 3725:0.12572988 4228:0.16077262 4847:0.384595 5314:0.21149821 8856:0.21727298 11979:0.24265601 12132:0.24265601 13805:0.20903167 14199:0.19933492 17402:0.16645642 20010:0.2027906 
2 17:0.17913617 116:0.091424981 556:0.078521429 586:0.12035749 604:0.12621398 634:0.13765754 636:0.17705011 702:0.29370928 713:0.07976761 966:0.15827536 1211:0.15991747 1274:0.10471438 1978:0.16464993 2331:0.28277515 2502:0.38954406 3016:0.17527649 3031:0.30924706 3295:0.20776815 4013:0.35795628 5058:0.20139358 5450:0.1889934 8809:0.18603456 11051:0.18109006 11607:0.13529173 
0.9719517239768807 42:0.14002124 50:0.14515604 73:0.28608597 77:0.16439822 279:0.14468928 282:0.10108479 315:0.15670223 452:0.19139244 480:0.36416676 586:0.14831335 634:0.33926348 713:0.098295516 944:0.16346196 2063:0.13246016 2768:0.13989152 2995:0.22315249 4610:0.19139244 4852:0.17813556 4996:0.24817198 5440:0.23289157 6771:0.26709849 8345:0.16741659 9023:0.21031896 19917:0.19315468 
1.244678215582498 1:0.11965277 18:0.072899561 30:0.10395676 106:0.10211921 113:0.20268731 128:0.11831208 187:0.11115293 245:0.083791868 286:0.2603221 362:0.31482589 801:0.11088056 895:0.26398064 1508:0.13983838 1658:0.35978948 2110:0.34071566 2627:0.15077524 8751:0.1387413 10370:0.15390313 10786:0.17619523 13822:0.36793723 14415:0.34613467 18889:0.13719946 
1.549786377487869 20:0.18618599 51:0.11936608 124:0.10996632 245:0.097176103 400:0.14223618 488:0.16090271 931:0.14114146 944:0.14087555 965:0.16808904 1080:0.16646548 2503:0.176007 2726:0.18802789 2986:0.19231833 3848:0.12365652 4199:0.15799379 4245:0.53164214 5220:0.21388075 9278:0.20862967 9572:0.16319714 9667:0.12483012 9706:0.15692396 12887:0.22065057 14195:0.18125808 15585:0.17983144 19030:0.21388075 19201:0.21388075 
0.8941852742844908 3:0.097271738 12:0.20074228 17:0.10571465 116:0.10790629 314:0.30599648 342:0.28020862 364:0.11598451 556:0.092676598 586:0.1420545 604:0.14896675 634:0.16247325 828:0.17814193 966:0.18680788 1108:0.16559971 1978:0.19433161 2502:0.15325591 3031:0.12166515 3268:0.2452228 3754:0.16644342 3773:0.16438307 4013:0.21124278 4464:0.187759 4492:0.14605788 8484:0.42248557 13242:0.2452228 13715:0.1065694 19959:0.16821718 
0.9721196400429938 10:0.22892627 51:0.29806332 122:0.095375814 147:0.095960547 230:0.070837804 245:0.080884596 247:0.10292559 931:0.11747919 965:0.27981805 1875:0.090549541 2431:0.13444983 2503:0.29299909 2726:0.31301029 2986:0.3201526 2999:0.1600763 3688:0.17365305 3848:0.20585119 4058:0.10034984 4245:0.4425127 7244:0.19160054 9572:0.13583725 9667:0.10390244 14892:0.10909712 19328:0.17802379 
1.782479338900587 48:0.11993323 61:0.12080421 112:0.12951739 131:0.12817261 199:0.30715298 274:0.14696825 328:0.13977775 382:0.10604387 397:0.10127492 464:0.16306169 520:0.41333134 521:0.13147619 566:0.33679978 576:0.15019785 727:0.19413483 985:0.14696825 1117:0.14195257 1120:0.29293669 1216:0.18957777 1590:0.20188703 1975:0.11620287 2334:0.16306169 3662:0.22159422 5339:0.20426927 8317:0.16211838 9851:0.17599031 
2 17:0.12626247 193:0.16966572 342:0.16733648 492:0.2426141 628:0.21993854 757:0.11448008 1116:0.10888277 1882:0.1806633 1938:0.15209917 1996:0.20091366 2144:0.20202936 2426:0.15267871 2687:0.19729551 3031:0.14531329 5375:0.13514831 5429:0.2664205 5473:0.2664205 8429:0.11286926 8627:0.17132101 8930:0.20628162 9263:0.27693064 10213:0.22633007 10229:0.1628167 13715:0.12728336 13826:0.16696461 14223:0.23210397 15597:0.19879514 16330:0.19494581 
2 21:0.13633957 64:0.19456249 101:0.20202868 372:0.24604175 490:0.24604175 565:0.26113703 592:0.23116893 1121:0.1759747 1483:0.15454909 2031:0.26113703 2772:0.21855586 2932:0.27417837 8310:0.2016291 9725:0.16599547 10208:0.26207103 10514:0.24303566 17471:0.30659055 19304:0.3522741 
2 14:0.12193553 438:0.17453969 615:0.095961697 617:0.17545722 751:0.17740319 831:0.073220512 1027:0.099762718 1260:0.13418269 1424:0.39737444 1849:0.11246035 2020:0.19868722 2905:0.17545722 2941:0.14270772 3543:0.43107746 3933:0.2041122 3934:0.2041122 4119:0.17646502 4567:0.1223529 4636:0.14874821 8372:0.16212071 9598:0.17197821 9664:0.16823056 11280:0.12398517 11613:0.14694653 11863:0.12267071 19957:0.33932214 
0.5765061671652829 7:0.26075425 12:0.11221653 29:0.15093097 68:0.15333144 69:0.14740716 78:0.15210658 199:0.17965784 333:0.13252206 346:0.29231485 378:0.42921174 413:0.18965037 521:0.30760866 566:0.19699865 669:0.21216785 1487:0.17852586 2599:0.12701257 2912:0.2201922 5992:0.28601854 8493:0.23617279 8818:0.24548418 
1.083678495187538 30:0.1845651 82:0.2067442 160:0.21219229 183:0.22231178 231:0.19342409 235:0.21566261 473:0.24928427 504:0.22329883 521:0.18949772 793:0.24358426 843:0.26768673 921:0.17373488 1163:0.30726418 2040:0.257323 2308:0.32742431 3883:0.22380268 10092:0.14214354 14812:0.16384831 15532:0.26601085 
2 56:0.28145309 74:0.14698307 132:0.12274535 318:0.25227838 414:0.12694789 448:0.15428783 831:0.14925492 1116:0.08637327 1516:0.18794042 2791:0.18296805 2949:0.12967631 2969:0.16325648 4242:0.1866007 4462:0.12038368 8429:0.08953563 8789:0.20803425 10213:0.089770254 10408:0.064022958 10859:0.4303253 10932:0.4303253 12522:0.23233796 19498:0.22520956 19533:0.22520956 
2 3:0.088810545 26:0.098645614 61:0.11540733 112:0.12373125 131:0.12244655 138:0.11080117 216:0.15671348 327:0.15044875 744:0.49776697 1214:0.13129033 1540:0.18887889 2446:0.16145209 3006:0.18887889 3596:0.21169458 4349:0.20734111 6772:0.23357376 9853:0.33625603 10402:0.14549074 11866:0.33046032 15567:0.33944094 19950:0.12586351 
2 287:0.052868504 368:0.16678114 374:0.14769378 424:0.098144957 551:0.23484099 1180:0.11148683 1369:0.13061208 1506:0.11434352 1551:0.15142696 1659:0.48333751 2773:0.16973092 4029:0.22017627 4107:0.20726688 6346:0.26664584 6380:0.53329169 7560:0.26664584 14142:0.19193353 
2 25:0.16006412 134:0.13704014 178:0.15227433 320:0.19854668 497:0.20847032 511:0.21576793 720:0.20445874 802:0.19237437 861:0.10480388 1170:0.24766919 1265:0.29726148 1443:0.24379174 1722:0.2574396 1843:0.20956622 1952:0.15608531 3020:0.16875819 3819:0.13366085 5273:0.16987517 8526:0.37777129 12983:0.27227284 18873:0.21189048 19945:0.18039535 
1.293797773949225 3:0.087868359 35:0.10089054 93:0.1307265 131:0.12114752 294:0.14116465 329:0.15973925 347:0.16791992 422:0.13176132 455:0.32184147 561:0.1565127 687:0.19945306 713:0.085046081 860:0.14643634 1097:0.18053744 1140:0.12171682 1261:0.1341722 2569:0.14039 6035:0.46219159 6519:0.23109579 11861:0.28393113 11929:0.39117417 13791:0.19082168 14396:0.20149968 
0.4029717142397488 52:0.10146056 122:0.30299371 131:0.21272734 151:0.096491896 251:0.131668 311:0.10411914 387:0.1244042 394:0.43238722 507:0.15223631 543:0.13341203 865:0.3027071 886:0.14538653 983:0.10854903 1128:0.10944611 1310:0.14672517 2895:0.12196118 2943:0.27949233 3758:0.077025245 4005:0.16753537 4393:0.18010766 5101:0.37703541 6649:0.20289476 10092:0.081840514 10613:0.16253326 12203:0.19448472 
2 26:0.13715442 189:0.19693271 270:0.17948282 445:0.1755493 612:0.17990307 660:0.21183758 829:0.21533548 1060:0.18966607 1197:0.26815861 1565:0.1755493 3889:0.14811569 4508:0.27482075 4544:0.27482075 4808:0.50741266 5383:0.13780252 6633:0.32475517 9592:0.16277524 19960:0.18882553 
0.9279411890244064 15:0.11317526 32:0.1486508 96:0.36137932 107:0.16738018 136:0.12525057 278:0.16251375 313:0.18022159 339:0.13636835 389:0.18585261 749:0.20663703 907:0.17632445 1060:0.16177818 1420:0.17326007 2428:0.13140342 3382:0.26552232 4112:0.16352521 4203:0.15990524 4567:0.14251515 4649:0.14428559 4679:0.16226643 4824:0.15103185 5226:0.25737579 5664:0.27700421 9039:0.19677374 12589:0.26552232 19457:0.25737579 
2 245:0.093308617 683:0.15449899 687:0.095383076 713:0.081342016 792:0.34276568 999:0.16307383 1183:0.33168824 1211:0.16307383 1274:0.10678117 1978:0.33579939 2089:0.10419988 2724:0.18054462 2767:0.12423997 3031:0.21023386 3635:0.20032648 3756:0.1245538 3869:0.15067858 4002:0.18251071 5297:0.15701221 6998:0.22103073 7491:0.22103073 8372:0.15067858 8928:0.14455797 15458:0.29939201 15483:0.18054462 15549:0.14614428 15603:0.15018195 
1.191684756588375 1:0.079235356 14:0.13478752 134:0.1268286 143:0.33168201 155:0.21129461 491:0.14813695 588:0.20873235 602:0.20536872 834:0.17920822 989:0.20699794 1380:0.23335678 1551:0.29857774 2535:0.21058647 3729:0.20100118 4550:0.2224603 7969:0.26288091 8459:0.15090584 8922:0.17016585 10056:0.21257805 13134:0.25198443 15515:0.16657733 16521:0.2256256 19915:0.1901047 
2 20:0.32753848 102:0.2179866 1835:0.23376638 2426:0.20234798 3432:0.38816858 4226:0.19683944 4680:0.23027482 9942:0.24098426 10229:0.21578406 11870:0.21036351 11893:0.30208385 13165:0.38816858 15467:0.15839424 18869:0.30208385 
2 4:0.10649786 24:0.15553617 939:0.20065033 966:0.23070298 1301:0.16835183 1680:0.28634519 1729:0.28634519 1890:0.10879672 1978:0.23999458 2609:0.16624644 4913:0.29355231 5271:0.20774393 6934:0.3159397 7120:0.3159397 8012:0.3159397 8417:0.16282781 8427:0.18592821 12978:0.30284392 
2 8:0.13147202 28:0.15616309 38:0.17093151 57:0.14035017 127:0.16111375 205:0.66174424 673:0.17235342 741:0.39650288 980:0.15240471 2425:0.14816579 3706:0.18511269 4811:0.23357807 5383:0.1268697 10408:0.07897453 13713:0.19503105 15516:0.14676889 19984:0.20666953 
0.6737281914207107 2:0.13199115 26:0.14683726 259:0.23256935 436:0.14597332 484:0.16360521 548:0.20275364 569:0.28115248 728:0.27606622 1000:0.29840897 1018:0.23547245 2290:0.32304562 2329:0.18794276 2703:0.26958593 3530:0.33327076 3773:0.22340529 5438:0.3031551 8429:0.12843191 13489:0.19040917 
2 29:0.13772759 30:0.13669629 52:0.13051584 69:0.13451204 138:0.12381039 139:0.15583039 149:0.15312303 350:0.087175358 458:0.17852406 522:0.18874288 711:0.21105524 833:0.17976529 894:0.16033478 1131:0.13271007 1829:0.22757215 2446:0.18040825 2715:0.1423046 3336:0.25017934 4465:0.57466217 5050:0.24250354 6359:0.26099776 17455:0.21105524 
1.768285929552879 31:0.17199582 89:0.17710445 112:0.095423281 126:0.23500437 363:0.29866688 664:0.088680109 852:0.12640451 1375:0.14072597 3111:0.34533744 4077:0.11152658 4121:0.13597803 4188:0.14303085 4225:0.098001631 4642:0.11547012 4661:0.19159441 7707:0.18013538 8620:0.12013739 9784:0.091820693 10881:0.15990439 11314:0.10702228 12077:0.17266872 12701:0.51800616 17606:0.12742783 19084:0.16737104 19342:0.16737104 19663:0.16737104 20010:0.14430136 
0.04263220493758734 1:0.06550721 16:0.31714411 26:0.091787357 98:0.11162442 215:0.19104051 236:0.1244184 273:0.53611464 369:0.14214072 551:0.095705792 572:0.14330018 667:0.1066095 687:0.093788114 920:0.17945883 1369:0.10645785 1489:0.14969187 1645:0.16405856 2033:0.12278399 2194:0.20193447 8151:0.21733473 10065:0.35149447 10352:0.13132481 10359:0.15077588 10369:0.16851704 10408:0.057406273 12521:0.20832615 15586:0.10006616 17577:0.14214072 
2 4:0.070147333 20:0.084159106 70:0.11088892 270:0.23002302 328:0.11897064 369:0.1361018 673:0.1199603 1180:0.17401763 2516:0.12099826 2564:0.1309971 2965:0.09744989 3010:0.16828053 4738:0.1484626 4975:0.19335518 5711:0.62430348 5901:0.20810116 7792:0.41620232 8876:0.1786092 9254:0.18860803 10532:0.14283154 14127:0.14911724 
0.4811436157789883 11:0.22043618 14:0.26250676 29:0.13508404 118:0.15523215 229:0.17450936 230:0.094642942 332:0.14499523 363:0.14147727 389:0.17175214 556:0.092735016 790:0.1687864 1027:0.10738621 1521:0.18262593 1530:0.28924275 1569:0.15387592 1762:0.21662737 1868:0.17337139 4017:0.42275188 5283:0.17569909 10557:0.16742073 19013:0.47569783 
0.93405207892195 4:0.062588573 16:0.18063198 51:0.28884855 171:0.094489265 236:0.10629525 273:0.57252826 369:0.12143608 572:0.12242665 671:0.38232199 754:0.10629525 847:0.099539494 920:0.15331833 1104:0.17389826 1536:0.1257523 1645:0.14016131 2033:0.10489892 4107:0.072164479 4740:0.092993881 8215:0.18567712 8532:0.13304904 9354:0.16828448 9661:0.087695692 10065:0.30029475 10369:0.14397035 11622:0.1474311 
1.184874489294299 2:0.11054132 54:0.15454803 58:0.33960845 90:0.13883289 113:0.14867096 164:0.1284753 318:0.15153289 348:0.34218609 387:0.17853633 521:0.15658017 799:0.19362957 980:0.14842393 1071:0.21370612 1860:0.16111491 1880:0.20773274 1889:0.19043718 2339:0.21482954 4056:0.16018751 5103:0.2705476 5446:0.25388948 8292:0.20598123 8534:0.1947746 9823:0.22747707 19976:0.20514267 
1.072070127100367 2:0.10640316 11:0.12067722 49:0.15472309 169:0.15581823 659:0.34988813 725:0.21896137 965:0.20466391 1071:0.20570595 1408:0.49760373 3927:0.24055899 4134:0.15182985 4648:0.16344754 10341:0.19667801 11914:0.21430476 16554:0.48111798 
2 113:0.17119095 553:0.20558018 1968:0.19887949 2496:0.22564937 2590:0.25011447 3814:0.48050772 5193:0.3115289 6730:0.33528724 8342:0.21649552 10077:0.27112926 10557:0.21928372 12801:0.3213895 16353:0.25157324 
2 20:0.43395834 234:0.28504801 310:0.25680655 435:0.38985365 934:0.38799419 1281:0.42247247 1935:0.30429222 10092:0.21641579 15467:0.20985779 
0.2822703377531924 2:0.10731206 49:0.15604474 58:0.16484371 60:0.14028905 113:0.14432782 309:0.16533769 355:0.16713634 362:0.14945232 416:0.39671608 612:0.15659171 799:0.18797304 890:0.22083174 980:0.144088 1198:0.23341134 1313:0.16074112 1467:0.24261385 1572:0.18487391 1860:0.15640823 1889:0.18487391 1931:0.14212614 2066:0.22858389 2441:0.21209659 8534:0.18908462 8828:0.24261385 17416:0.21918001 17606:0.19996387 
1.451153925946764 18:0.092485707 90:0.24012781 394:0.53664181 437:0.10937045 483:0.33490511 573:0.18044125 584:0.37788521 673:0.14515953 1253:0.13655622 1766:0.21309632 3735:0.2841642 4154:0.18578648 9046:0.20569057 9483:0.22822761 10530:0.12370034 13486:0.09386875 17402:0.16557953 
2 1:0.061998053 17:0.084997678 80:0.091991936 138:0.097574963 382:0.089213566 649:0.15948975 836:0.081090755 1234:0.17406504 1240:0.17406504 1260:0.58028985 1439:0.31454851 1441:0.15727426 1517:0.15948975 2000:0.14805876 2767:0.11561835 3731:0.15727426 4094:0.14167302 4580:0.13638845 4773:0.14946113 4842:0.10519835 4964:0.19111703 8583:0.10458881 11643:0.16332355 13331:0.39433265 14902:0.15096375 
0.9940349008856143 1:0.074796533 7:0.11311722 17:0.10254405 44:0.11824234 98:0.12745345 306:0.13983821 358:0.18120514 384:0.18212773 402:0.17945489 426:0.17215682 713:0.091323758 861:0.091560726 1360:0.20269984 1476:0.21298589 2716:0.13560029 4638:0.1409256 5825:0.24815413 8458:0.15425756 9613:0.14129867 9939:0.17781765 10226:0.30042623 10338:0.16063304 13815:0.40981437 18887:0.13575085 19404:0.46114002 
1.554318873183632 30:0.14548071 35:0.12126734 209:0.16905147 235:0.16999286 245:0.11726125 445:0.15015108 462:0.15144942 473:0.19649464 1128:0.14983557 1325:0.22251375 1632:0.20604915 2063:0.13775243 2352:0.24657373 2432:0.19491667 2490:0.22936182 2748:0.22055462 4481:0.1821519 4661:0.14771999 5505:0.24219645 8429:0.10260672 9613:0.15816195 10587:0.22251375 10884:0.24657373 11300:0.21384209 13295:0.26625642 13485:0.26625642 15450:0.13933333 16409:0.094512097 
0.08528804783335064 2:0.1718176 5:0.093660609 10:0.090126609 21:0.081376295 23:0.11918838 106:0.11642602 185:0.15183003 284:0.1286815 351:0.14124801 707:0.17421404 855:0.11776599 1931:0.11377926 1979:0.17189871 2018:0.18906263 2991:0.37812526 4200:0.15531916 4203:0.13063264 6016:0.22629522 8742:0.33761922 10211:0.1509227 11063:0.18906263 11610:0.11007321 15454:0.15326145 15525:0.17082252 15601:0.15375898 17578:0.15137192 18907:0.15326145 19074:0.42052004 19985:0.13276363 
2 4:0.086860047 23:0.1357194 79:0.29190883 148:0.1611742 164:0.11369482 167:0.16517868 206:0.22885791 234:0.13690206 242:0.16402481 267:0.16440385 390:0.29965259 397:0.1067364 849:0.34075525 1301:0.13730838 1367:0.16722176 1509:0.17686139 1863:0.19334405 2564:0.16220737 2599:0.11442895 4817:0.19114757 4853:0.12613164 5086:0.23942236 10201:0.15140958 10566:0.37632442 11623:0.204604 13486:0.096055435 
0.482377284057396 1:0.10929248 12:0.14226334 26:0.15313838 51:0.18802729 94:0.21473679 124:0.17322064 165:0.21508161 184:0.2287511 484:0.17062587 772:0.26612453 921:0.17876716 983:0.19399272 1296:0.25546061 1745:0.30684834 1860:0.2006336 4603:0.19642431 14871:0.2133887 16332:0.20511712 16492:0.31121437 19307:0.33690824 19823:0.16899174 
2 20:0.21409073 98:0.27189507 174:0.31767211 543:0.34809308 1107:0.23687853 3331:0.50744141 9523:0.30431244 9724:0.50193584 
0.6850343099455249 2:0.090102439 4:0.080003863 23:0.12500657 150:0.30215546 189:0.14392495 206:0.10539665 348:0.13945827 465:0.13042074 556:0.085980146 923:0.14266751 1113:0.17605959 1264:0.10592993 1266:0.15829 2018:0.19829173 2263:0.22052387 2991:0.39658346 3511:0.22750396 3537:0.22750396 4273:0.38773605 5040:0.22052387 8742:0.17705006 9198:0.21510969 9592:0.11896154 10408:0.062690901 16415:0.17419227 16425:0.2037059 
0.04278371399457037 23:0.11172022 24:0.20884805 30:0.11109466 54:0.22516678 79:0.24029076 113:0.21660426 129:0.12839839 164:0.093590226 551:0.18681524 604:0.12351406 716:0.1526825 794:0.14661987 1001:0.18205497 1429:0.35443249 1506:0.090959902 1863:0.15915513 1939:0.12685672 4820:0.15734705 6097:0.2121159 8301:0.16011904 9042:0.11325409 15461:0.14275467 16529:0.54616492 18911:0.14365832 
0.02269340435771222 1:0.16237381 9:0.23874928 23:0.14186804 53:0.11742742 54:0.14296414 108:0.16453562 113:0.27505516 138:0.12777513 148:0.16847604 160:0.16219072 215:0.11838382 553:0.33030887 1001:0.23118271 1860:0.29807761 1863:0.20210331 1874:0.11514692 1889:0.35232656 1890:0.092755062 4622:0.14638268 4818:0.39961465 5452:0.23485962 
0.2416590828970879 18:0.096991089 23:0.13909075 45:0.1365776 54:0.28033079 57:0.12396407 79:0.14958001 138:0.12527373 164:0.23303812 210:0.16072122 233:0.15664361 242:0.16809928 307:0.17009997 309:0.1544633 466:0.16968779 563:0.19381808 794:0.18254053 848:0.1746099 853:0.17612414 917:0.21805969 1071:0.19381808 1437:0.40383992 1509:0.18125473 1890:0.090939237 8542:0.13869854 9572:0.093612076 10589:0.21154907 16522:0.22665694 19284:0.24536975 
2 5:0.29108106 23:0.37041699 113:0.35908406 1314:0.4119786 8931:0.47479657 10335:0.50394797 
1.679640363877115 4:0.083935384 10:0.099171312 21:0.089542856 185:0.16706701 284:0.1415954 503:0.1557473 707:0.19169738 854:0.16038839 855:0.12958446 1052:0.20803611 1113:0.36942288 1931:0.12519763 2018:0.41607221 2991:0.41607221 8733:0.17764418 8742:0.18575059 10211:0.16606863 11063:0.20803611 15454:0.16864209 15525:0.18796551 17578:0.16656293 19805:0.23136077 
0.9839827709401175 1:0.080187899 6:0.11303518 103:0.17353849 116:0.11221462 150:0.16934604 206:0.11814121 350:0.088859904 385:0.18456596 513:0.2020906 556:0.096376857 1583:0.20948641 1640:0.20082539 2335:0.15423735 2728:0.21731053 2760:0.1973487 3554:0.24112074 5931:0.26604119 6060:0.26604119 6307:0.26604119 10048:0.45026929 13408:0.25501371 13486:0.099171624 19369:0.24718959 
0.2809196747494186 23:0.24553969 86:0.10147629 106:0.11992447 193:0.25886418 292:0.16558231 396:0.33116461 1267:0.17706405 1268:0.17706405 1505:0.31675848 2168:0.21657807 2371:0.20691622 3223:0.44686652 3235:0.22343326 4176:0.090116561 4530:0.19725436 7347:0.23309511 9572:0.082627638 9618:0.12141427 10883:0.20691622 10914:0.20691622 
0.4431877695377063 1:0.10438863 9:0.15348971 23:0.18241131 41:0.15795676 53:0.15098601 242:0.22045471 579:0.23609788 801:0.19347099 1043:0.28289489 3199:0.33197691 4646:0.26480902 4680:0.19694001 4706:0.31041901 4731:0.28006097 5383:0.14695836 8660:0.21528718 9814:0.27056303 11863:0.35729295 
1.986172737338383 5:0.088556011 18:0.078582996 23:0.1126925 45:0.11065632 79:0.12119098 80:0.095690346 113:0.21848933 122:0.10650696 138:0.10149783 164:0.094404723 247:0.11493786 337:0.15014124 355:0.1265089 450:0.15199077 980:0.10906314 1736:0.18106308 1889:0.55973932 2372:0.18993186 2424:0.13527757 2844:0.18656011 2943:0.14736879 4058:0.1120615 4065:0.14537895 5336:0.17875852 8751:0.29911585 10225:0.2898171 10370:0.16590181 17415:0.16590181 18908:0.14490855 
