svm_type c_svc
kernel_type rbf
gamma 0.5
nr_class 2
total_sv 6910
rho -1.01659
label 1 -1
nr_sv 4852 2058
SV
0.7988441580748316 16:0.086756331 55:0.40537935 68:0.078265974 120:0.085439336 158:0.13376172 165:0.070545287 195:0.23749954 300:0.29275479 328:0.086323606 404:0.12673231 530:0.0766095 758:0.098292377 912:0.057119395 969:0.091072882 1447:0.080000238 1468:0.21892416 1634:0.086707792 1664:0.15553696 2090:0.14732013 3332:0.14077907 3354:0.10205597 3407:0.086181394 3573:0.094755639 3693:0.073451973 3695:0.21284703 3939:0.10046573 4234:0.16042415 4265:0.091621447 4457:0.12673231 5629:0.10470301 6410:0.23389446 6498:0.14461409 7518:0.10367441 7526:0.19297237 7554:0.14547657 7636:0.090132879 7648:0.11394691 8960:0.11037645 10259:0.11199853 11421:0.12604529 12030:0.25636088 12645:0.14777012 13055:0.16958371 
0.5633325709739468 548:0.36486144 674:0.54699445 2138:0.39317912 4629:0.5638021 5644:0.30856211 
0.7405141651592038 89:0.11651335 194:0.18491038 199:0.2153229 253:0.13359936 333:0.09795115 481:0.13193507 504:0.074178593 858:0.21931649 993:0.22062363 1413:0.11048994 1734:0.091752176 2143:0.095299298 2152:0.09922142 3312:0.091073408 3871:0.10616965 4080:0.16774037 5483:0.61008873 5504:0.15252218 5519:0.095052752 5644:0.064311884 5835:0.11316934 6039:0.1214598 6239:0.25445295 7014:0.17572087 7619:0.13887942 7723:0.10425458 8300:0.099732678 9361:0.14308306 9434:0.15106356 10930:0.13606286 12646:0.098046005 14203:0.16774037 
0.3920325173516369 531:0.10510291 1176:0.090947935 1431:0.1355933 2050:0.61900632 4926:0.18487977 7529:0.35778307 8313:0.13447847 10943:0.099082282 11017:0.10851139 11944:0.57264997 12035:0.11453202 12620:0.083570726 14213:0.17097401 
0.4569736763472383 186:0.21127554 4617:0.35926958 5970:0.30769759 7917:0.35153359 9374:0.58220125 10945:0.40634003 11487:0.32243422 
0.2399674432815411 25:0.37823422 942:0.4673199 3638:0.48122326 3807:0.63794605 
0.3944271781946144 326:0.4160534 356:0.2980776 555:0.20765772 626:0.27809293 1413:0.293613 4299:0.478507 6449:0.34652308 7525:0.27115299 12668:0.3298669 
0.3141006236693907 3645:0.30439652 3745:0.40309465 5890:0.54573412 6218:0.66860432 
0.2219098950485979 11:0.059217031 14:0.083745557 137:0.10777609 214:0.052036799 326:0.13036152 412:0.10491876 501:0.1940254 626:0.087134532 682:0.080197061 858:0.18260984 1028:0.18949734 1401:0.10277145 1508:0.12259845 1655:0.071854612 1828:0.082783844 3323:0.065065149 3402:0.30831436 3693:0.059399461 3894:0.19362323 3932:0.09043546 4277:0.12259845 4653:0.13738656 5465:0.091849106 5947:0.094058542 6107:0.07112992 6151:0.079980951 6241:0.082036913 6270:0.10365752 7447:0.080863037 8309:0.34301912 9114:0.084671687 9403:0.50312121 9418:0.1257803 10773:0.259465 12012:0.12464964 12629:0.1156354 12975:0.082531065 12983:0.221528 13933:0.087024174 
2 16:0.10599187 17:0.38639028 56:0.2649786 58:0.14037369 165:0.086186526 179:0.15440806 219:0.15660049 242:0.16057032 319:0.25849658 406:0.15660049 473:0.17199248 504:0.18661813 559:0.15850592 630:0.34939215 723:0.15526188 788:0.090679176 930:0.22493955 949:0.10460642 1032:0.11133906 3312:0.11456101 4271:0.18521549 7741:0.12651852 8300:0.12545348 9898:0.12216376 10769:0.19599325 12645:0.18053358 12805:0.20718366 13142:0.20718366 13912:0.088331086 
1.532885004440193 11:0.089438859 25:0.084688701 62:0.13963337 84:0.043564296 94:0.1737166 99:0.043483322 138:0.17194785 214:0.078594146 332:0.37653091 333:0.12318053 392:0.18997316 427:0.37653091 463:0.16398803 491:0.17110872 504:0.093284852 902:0.20090938 935:0.13297972 1047:0.20486051 1513:0.18516743 3319:0.14562364 4370:0.15354285 4732:0.22810217 5506:0.19180748 5631:0.16729319 7200:0.15846479 7447:0.12213206 7518:0.12662814 9591:0.16874961 10954:0.16052865 11948:0.17663196 12023:0.12503316 12905:0.2071299 
0.8014075610104825 11:0.16661819 186:0.51305617 232:0.36236163 948:0.095699523 1417:0.1097716 3293:0.24839518 5530:0.11845915 6322:0.15862566 7394:0.16358517 7455:0.15003343 8252:0.17115901 9136:0.11212144 9721:0.35732361 9936:0.18050723 12621:0.1120227 13117:0.19293409 14200:0.39297624 
2 6:0.23730169 7:0.10572508 35:0.12809603 38:0.13851271 86:0.13349527 104:0.1409497 125:0.14246903 165:0.079305102 176:0.13601359 196:0.096671358 357:0.10204615 405:0.12223178 430:0.45984887 792:0.33825019 1734:0.10619972 2073:0.12239392 3269:0.18759936 3307:0.10743145 3391:0.16257125 3638:0.099171235 3933:0.12894777 3946:0.10106825 3961:0.10556905 4363:0.12916578 4410:0.11757222 4665:0.27322628 7518:0.058273983 7929:0.10785729 9129:0.15826002 10210:0.29681273 10945:0.081251678 11971:0.10391966 12620:0.18980107 12654:0.1398732 
0.08436949252793734 269:0.29070531 1057:0.31080894 1377:0.26932077 1618:0.15440457 3883:0.29438929 7518:0.1035861 8967:0.23118954 9236:0.30801502 12060:0.33347106 12484:0.33347106 13457:0.33887853 13772:0.2873287 13810:0.23873511 
0.1457689481188378 2021:0.23598784 3266:0.39272928 4379:0.25045669 7126:0.21052406 7919:0.5886152 10078:0.37339183 10210:0.20712055 12320:0.39272928 
0.1033286824693818 231:0.18435811 257:0.10630676 504:0.10919666 1145:0.11140155 1389:0.13806262 2070:0.16318142 3638:0.12612741 3693:0.10501718 3694:0.16689745 3761:0.16944626 4241:0.14681425 4476:0.17224109 5658:0.17298405 5938:0.20127738 6114:0.1580333 6334:0.14336775 7196:0.18549449 7980:0.21204303 8153:0.25708011 9184:0.22037831 9303:0.22037831 10231:0.39869013 11144:0.23212623 12036:0.33082257 12649:0.09028149 14303:0.24692686 
1.995675858329067 1:0.18683752 27:0.11407863 149:0.11816874 155:0.16455957 240:0.16538637 525:0.39184981 640:0.43052697 754:0.093854721 1794:0.22484703 3374:0.20821398 5513:0.20821398 6288:0.15286295 7309:0.36636765 7647:0.1229087 8245:0.39894034 9322:0.15034998 10018:0.21036466 
0.5923809375316194 232:0.28142452 278:0.29135285 320:0.3154021 627:0.30667197 2021:0.26580333 2057:0.23087717 3689:0.2322036 3714:0.68155219 
1.214054454616866 53:0.14853091 61:0.15871788 379:0.23915479 514:0.68138349 523:0.15240056 1380:0.16791449 1728:0.13840211 2066:0.11029039 3355:0.21873207 6592:0.26304784 6909:0.26304784 7518:0.075366633 7929:0.13949348 8153:0.13071311 10943:0.14551739 12704:0.24655946 13817:0.19520503 
1.084944235864104 16:0.088133915 27:0.087406384 149:0.18108041 208:0.16805932 268:0.096481213 788:0.075401168 907:0.53406703 942:0.087028631 1029:0.08411071 1042:0.1082441 1078:0.13799902 1337:0.19222847 1340:0.15658634 1390:0.10431655 1434:0.075858377 1756:0.12983803 2020:0.13490517 2145:0.098178479 2182:0.13639403 3749:0.22554498 6014:0.35997059 6389:0.11692186 7529:0.24476638 8064:0.15171981 9667:0.15953235 9699:0.15953235 9898:0.1015811 10251:0.13139251 11403:0.16493363 13535:0.17227649 13841:0.15525768 
0.5852620117821917 522:0.34689067 1353:0.33174488 1379:0.19540058 1477:0.16975891 2056:0.19626327 3784:0.30642061 3834:0.32275527 7632:0.21233717 7646:0.21942315 7921:0.43761615 8857:0.30137826 8961:0.20434753 11469:0.22068219 
1.302399097211482 11:0.12308828 52:0.14741972 76:0.18325463 183:0.19346524 186:0.12633915 719:0.2107561 1400:0.42724067 3400:0.21362034 3573:0.15927741 3643:0.24169531 6026:0.25909624 7599:0.25288558 7648:0.19153655 8135:0.20519255 10210:0.14793716 10375:0.29030906 13821:0.45136992 
0.7392765313583837 165:0.25114363 257:0.13235129 491:0.49873247 1391:0.48970261 1841:0.14543922 4116:0.61484497 9898:0.17798983 
1.848944868208921 25:0.072909486 55:0.31969814 56:0.11403198 63:0.11273135 65:0.11672893 70:0.12588258 223:0.10137465 358:0.1130136 513:0.1635501 758:0.10335633 939:0.1520645 1030:0.11904938 1042:0.56020836 1417:0.10145708 1471:0.12486767 1624:0.1452785 2118:0.14955464 3325:0.14402465 3400:0.13363207 3889:0.15490995 3910:0.25335362 3978:0.16070465 4047:0.18160537 4310:0.12462131 5970:0.11510148 6394:0.13558842 6588:0.19024552 7931:0.10912846 8138:0.18585469 10259:0.11776861 11475:0.12437778 12023:0.1076425 
0.185119178499647 25:0.089756294 625:0.10041952 912:0.073940384 1027:0.096455783 1515:0.4729876 1704:0.13017573 3645:0.096941594 3891:0.14848372 4653:0.10995964 5466:0.14702595 6020:0.19953086 6277:0.1883177 7409:0.18613035 7440:0.3229422 7518:0.1342053 7902:0.17315296 8942:0.19198409 9133:0.12884259 9138:0.1343442 9925:0.18948381 10365:0.22356796 10977:0.20134076 12567:0.21602118 12729:0.21952412 13181:0.21952412 13779:0.18613035 13858:0.15311709 
1.297431741461051 99:0.057317943 143:0.30488182 558:0.1893436 648:0.24605815 1442:0.1459568 1449:0.20348159 1614:0.17696199 1654:0.17599519 3309:0.21535669 3659:0.43567177 3695:0.17134212 4246:0.19884953 4624:0.1455796 5910:0.18142402 6396:0.19043734 6640:0.29128878 7121:0.20954099 9318:0.15783883 11469:0.17872604 11957:0.23282904 13920:0.21698838 
0.02498043427866297 1534:0.34609912 5990:0.28534624 8958:0.37395224 9349:0.4839259 9569:0.3364655 9953:0.558175 
1.175858732529542 352:0.3844514 639:0.35110991 788:0.23268423 1505:0.37154023 1666:0.48760072 4301:0.30950223 13786:0.45076465 
2 5:0.089806228 10:0.18270852 40:0.085921902 50:0.11269636 61:0.11223842 113:0.2833666 118:0.26357545 147:0.25458666 172:0.10450712 197:0.13257406 333:0.10368994 529:0.12283145 653:0.12668048 872:0.15847661 914:0.12698465 1023:0.086704956 1502:0.16911992 1651:0.13029884 1662:0.12792476 1747:0.15847661 1844:0.1976032 1847:0.18601605 2067:0.13605472 3327:0.1095508 3910:0.12386058 5468:0.26762436 5660:0.12439485 5844:0.096622211 7383:0.27404797 7615:0.14701613 8874:0.13102999 9900:0.12114442 10500:0.17756798 11689:0.16911992 12013:0.31695323 
0.6073001646124451 143:0.1062315 193:0.58596661 883:0.15957358 1614:0.24663902 1720:0.30734626 1832:0.08572282 2177:0.12073667 3329:0.13169939 3702:0.13194788 3755:0.28762729 4624:0.20290012 4632:0.25285793 6239:0.14697034 6398:0.10482466 7282:0.18215692 7367:0.10342842 9341:0.15433221 9470:0.17450663 9901:0.13516312 12658:0.12013434 12660:0.14298676 13264:0.19026656 
0.2059629409063299 416:0.43602527 862:0.086061005 1696:0.26644427 6035:0.51136352 6116:0.21253833 7780:0.35481032 8539:0.39014941 10925:0.21053857 11420:0.29166862 12647:0.13158163 
0.9988892943425801 1:0.12581199 10:0.15865968 71:0.068373596 84:0.06368879 99:0.063570409 501:0.21421037 788:0.13253395 1028:0.20921125 3645:0.13372205 3675:0.27773112 6119:0.21797335 7076:0.21246613 7450:0.21511507 8167:0.20184381 10387:0.30839151 12143:0.29798142 14195:0.61678302 
1.810418558017404 24:0.18535059 174:0.35694805 240:0.63278368 855:0.18435 1485:0.3498518 1624:0.46725227 2129:0.12114928 6506:0.22007958 
0.1086929920486077 292:0.23063308 328:0.17238541 487:0.21076993 582:0.14678198 1030:0.22608974 1458:0.16416099 2107:0.19083994 5448:0.14744333 5933:0.18103757 5935:0.21517024 5954:0.27019283 6401:0.24785121 7077:0.21101594 7380:0.13108592 7385:0.26614256 8287:0.28255129 8869:0.27127206 9426:0.3106022 14230:0.34489142 
0.2237673534467037 47:0.14774078 63:0.13543719 68:0.098874307 84:0.045059099 99:0.044975346 117:0.13212411 206:0.14371664 384:0.146414 484:0.19307306 726:0.19649163 929:0.1461567 1072:0.35935451 1653:0.1285396 1656:0.10670111 2170:0.18492025 3693:0.092792724 4148:0.14720179 5448:0.093274871 6113:0.13963754 7000:0.22856392 7077:0.13349186 7647:0.11710895 7711:0.15839501 8044:0.16659949 9088:0.19307306 9323:0.32679031 9372:0.15251762 10175:0.20043808 10935:0.1769799 11468:0.11998068 11537:0.2078031 12678:0.18164756 13074:0.21423706 13863:0.1660368 
0.03639729192680701 186:0.20089241 3711:0.3137474 6092:0.36609544 6308:0.37094935 6365:0.37266905 7507:0.38653189 9817:0.41974119 11445:0.35370005 
0.2440319936261423 61:0.10312582 66:0.10257882 194:0.089925792 214:0.12157398 478:0.14108456 528:0.083434752 723:0.12005288 858:0.2133164 943:0.11939268 997:0.092934932 1457:0.074209049 1470:0.22435816 1655:0.16787449 1694:0.094284839 1761:0.27166156 3645:0.070744252 3933:0.32507314 4205:0.45464257 4379:0.10053487 6496:0.13661227 6959:0.17091348 7518:0.048968938 7626:0.11404826 7702:0.13827801 8043:0.14108456 8156:0.11505606 8320:0.12073666 8941:0.14010261 8961:0.097105203 9042:0.14437444 9335:0.12994434 10964:0.10835771 11422:0.11907092 13612:0.32040054 14301:0.16315131 
1.333090309495835 3:0.21070645 186:0.15778335 380:0.34531377 727:0.3265171 1014:0.21402853 1634:0.18202476 1656:0.17730902 2136:0.26532058 3572:0.23372239 3745:0.20818611 3937:0.22314536 4266:0.2478314 4301:0.20725517 5558:0.22795595 5641:0.21624478 6288:0.24203131 7380:0.13780262 7853:0.30926761 
0.1718931561153059 120:0.14116519 122:0.14358292 204:0.150078 354:0.18765738 395:0.19286907 722:0.20168899 799:0.13719642 1029:0.13679782 1176:0.15179027 1757:0.1722234 1832:0.12623735 1835:0.24503994 3415:0.18504701 4178:0.22535926 4445:0.24856769 4452:0.18676445 4632:0.18618213 4671:0.18705946 5629:0.17299316 6406:0.13891034 7142:0.23499163 7715:0.20825545 9622:0.25946371 11998:0.25467231 12029:0.2117832 14200:0.28535218 
0.5148583846384462 110:0.15378551 198:0.13860656 431:0.18332456 489:0.4477029 548:0.10479765 655:0.11339787 736:0.1574074 942:0.11466248 1443:0.2335542 1628:0.13408688 3375:0.21018801 3611:0.22016213 3682:0.17258634 3764:0.12587688 4365:0.1492343 4483:0.18575519 6398:0.12505071 7465:0.15595658 10703:0.21471916 10945:0.19347741 11045:0.18842527 11475:0.15831666 12198:0.22335686 12621:0.13178994 13418:0.22697875 13889:0.19355824 14195:0.23115991 
0.5272369818053313 1176:0.22269368 1836:0.71900318 3759:0.22518145 4338:0.28842469 4671:0.2744376 5655:0.27107746 6007:0.30719988 9170:0.2374357 
0.4422366151910808 117:0.1665977 240:0.19869827 324:0.17840611 420:0.1130772 490:0.1732002 866:0.42774099 1400:0.20243745 1435:0.20540109 3752:0.15576268 3902:0.18594745 3955:0.14497731 4086:0.27511156 4461:0.21468778 4645:0.43464584 5844:0.14969978 7380:0.10456408 7586:0.23173436 8317:0.20359047 13284:0.27013541 
1.007103222628579 19:0.18373163 909:0.26700814 1060:0.26988629 1388:0.23064125 1756:0.27217831 3238:0.23004598 7753:0.34163568 8336:0.37566257 9294:0.32825054 10210:0.18742245 13853:0.3254653 14135:0.36779424 
0.9958286645411357 41:0.10510977 311:0.11896011 326:0.17070282 526:0.12272766 528:0.28058176 684:0.14696374 860:0.14504071 863:0.10731784 1026:0.074245469 1079:0.095999304 1447:0.084715247 1913:0.19158765 2097:0.48551514 2189:0.3210748 3903:0.10151753 4624:0.095751213 5583:0.1506097 5857:0.1560028 7632:0.22621445 8875:0.13495463 9640:0.16629423 10913:0.16987914 11675:0.17418544 12012:0.3264467 12649:0.13373409 12709:0.17957854 13918:0.14443617 
0.5049743398792822 420:0.22924711 1372:0.42735285 1584:0.55774754 5558:0.35067499 5644:0.21384116 6110:0.41156999 7881:0.34006197 
0.2222866805043892 7:0.20939232 13:0.09668842 33:0.10072559 121:0.13018945 144:0.14069687 620:0.11819033 625:0.17271732 678:0.16510224 1393:0.13528361 1447:0.089058857 1464:0.16400154 1628:0.1115247 1686:0.18073955 1728:0.10597197 1844:0.10697853 2015:0.13092118 2139:0.11372741 2185:0.083854856 2187:0.10839451 3748:0.20426789 3986:0.17013633 5465:0.1264392 5871:0.25050313 6288:0.3850404 6591:0.20141094 7740:0.12412334 8058:0.14147487 8656:0.19637685 9142:0.13749404 9473:0.17314878 9479:0.34629756 10030:0.1766264 10925:0.10597197 12965:0.18878608 
0.1414450575746944 68:0.38329152 257:0.24275543 557:0.18820631 657:0.17331297 969:0.14867024 2125:0.17967693 3297:0.16495319 3306:0.1724961 3323:0.26268444 4155:0.19972882 6172:0.26851992 6250:0.22553766 6406:0.13724603 6483:0.22981218 7071:0.20161971 7105:0.23097306 7115:0.21246011 7512:0.2360726 8090:0.24380093 9873:0.19624334 10247:0.14495974 
0.01519512286921258 5624:0.36455428 6530:0.53272977 7440:0.36728776 9732:0.46239873 11503:0.48434108 
0.547335289150948 3633:0.44238943 3934:0.44893399 8990:0.48491693 9632:0.49826801 12655:0.34544815 
0.7382922718739473 159:0.23461355 196:0.14401387 326:0.26996658 328:0.14456701 330:0.1843304 414:0.17655222 557:0.19308069 944:0.22239567 1177:0.15502802 1647:0.11286952 2106:0.16132431 2145:0.1618505 3946:0.15056403 4397:0.18728342 4634:0.18900947 7145:0.23818931 7280:0.2718986 8130:0.25011516 8310:0.22749599 8794:0.25388997 9134:0.18930588 11063:0.18930588 11425:0.19770771 11811:0.27547435 
2 7:0.070940404 40:0.18911269 42:0.068294127 79:0.19226323 116:0.087268397 144:0.095333892 170:0.08696569 210:0.076520713 471:0.1184556 502:0.094824305 768:0.13027473 859:0.14689269 937:0.092720598 1698:0.095333892 1759:0.10845956 1760:0.21691912 2113:0.32428152 3324:0.20663236 4484:0.73280206 4609:0.063940807 4695:0.11265465 6036:0.11626814 6385:0.09848799 6390:0.086816555 7380:0.099029333 12625:0.084738311 
1.173354998783235 674:0.91362667 912:0.14819232 1618:0.20046674 5644:0.17179368 6117:0.27133993 
0.007533058862184178 420:0.15816778 532:0.28237595 613:0.34344115 3237:0.27076948 3604:0.36650669 3691:0.27586258 10094:0.35351685 11481:0.2958878 12371:0.371825 13513:0.3778544 
0.01012635825362851 150:0.26142281 245:0.074806762 313:0.092048076 1176:0.19302621 2107:0.066929743 3709:0.069143897 3843:0.11370725 4163:0.085300431 5463:0.093681245 5583:0.099610122 5616:0.076251354 7747:0.084921931 7933:0.83095583 8864:0.095138206 8890:0.33335874 13868:0.092048076 
0.4064569596939779 2110:0.56340806 2152:0.43645468 5911:0.49602352 7379:0.49602352 
0.0497683526707255 5:0.10366368 42:0.10745039 143:0.22473895 170:0.13682724 172:0.12063298 722:0.14487245 2035:0.19038955 3571:0.24501598 3649:0.12570092 3664:0.20976337 3758:0.14358946 4162:0.26788433 5552:0.24741486 5570:0.15546217 5576:0.10145254 5833:0.13008584 5844:0.11153139 5952:0.12676326 7445:0.12212111 7887:0.14999333 8167:0.13415221 8755:0.17991994 9140:0.14657888 9179:0.18293017 10299:0.20496742 10975:0.18458949 11011:0.14919158 11094:0.19268181 11307:0.19268181 14122:0.40993483 
0.03120298590863517 234:0.37823951 523:0.30064413 5835:0.33419991 6019:0.44209508 6080:0.39284687 7521:0.39453174 9355:0.38655708 
0.09186171144862595 55:0.38509431 625:0.29477152 1071:0.17649581 3594:0.31251943 3606:0.31251943 3662:0.22744893 3698:0.18214037 3735:0.22652112 5636:0.2457334 7740:0.21183761 9583:0.26249412 10944:0.17124532 11965:0.24078134 12292:0.31705434 12620:0.16038768 12649:0.11997128 
0.01958175670542305 19:0.26831673 326:0.2506673 2074:0.42078493 3789:0.47936826 6407:0.35733179 8204:0.46787757 13859:0.3342495 
0.5568799075967418 19:0.39715472 25:0.3191803 1039:0.61574529 5545:0.6010406 
2 7:0.12063364 16:0.11128194 29:0.11924232 44:0.13856217 54:0.1588093 57:0.11776124 65:0.14239174 158:0.17157552 203:0.26682149 249:0.16973988 299:0.33388425 733:0.18896683 1152:0.2057753 1434:0.19156455 1538:0.22153123 1646:0.1220093 3356:0.19297384 3699:0.14866052 3850:0.2082528 3862:0.2082528 3959:0.16301102 4632:0.28908246 5976:0.16211458 6204:0.21099154 6332:0.12521262 7518:0.066491339 10925:0.12210366 11416:0.16915572 12440:0.2140532 12673:0.15553299 
0.1022613968774016 71:0.066363608 84:0.12363304 99:0.06170162 336:0.19780914 399:0.23543263 528:0.15307364 548:0.13570098 549:0.20421269 718:0.19780914 921:0.23543263 942:0.14847481 2181:0.23269444 3298:0.22215407 3348:0.20306104 3388:0.2087913 5665:0.21564228 5829:0.20705652 6063:0.2079132 7133:0.32408731 7741:0.17947967 9124:0.19211736 9634:0.27216946 11020:0.25213061 12665:0.22150961 
0.1010105811610454 25:0.22146742 657:0.33910886 2079:0.32338339 3645:0.23919665 4143:0.35936878 8090:0.47702751 8587:0.56343974 
0.2364337986790926 19:0.13223274 26:0.17352356 655:0.12985312 2076:0.42542051 2091:0.19823359 3946:0.13779394 4673:0.12840515 5903:0.17270972 6332:0.14961431 6495:0.19884865 7881:0.1613914 8154:0.37334378 8990:0.23423929 10234:0.21369636 10470:0.26470368 12029:0.19645826 13869:0.37859646 14300:0.26470368 
1.419477538160863 17:0.28301705 89:0.32205391 997:0.2641064 3307:0.25655316 3811:0.28709925 5901:0.31224698 5997:0.31338043 6398:0.25082114 9054:0.41028936 12016:0.4138005 
0.5875421922072172 524:0.553315 3948:0.4352873 9748:0.71018834 
0.03677705107631506 528:0.26206022 1176:0.27258843 1403:0.34572903 1626:0.25377851 4166:0.30826642 6068:0.35977606 6497:0.42908549 7380:0.19476833 10808:0.47599563 
0.7082962813749724 668:0.53228322 758:0.16658111 1033:0.24233585 1730:0.15580311 3878:0.15633892 3919:0.16978179 5527:0.207834 6118:0.21139884 7668:0.24807323 11952:0.24508488 12041:0.44853496 12690:0.24368287 13038:0.28740216 
0.5358383830846779 11:0.16628234 149:0.10119246 214:0.073060069 357:0.20613039 1463:0.16726714 1604:0.12916509 1728:0.10808209 2083:0.16726714 3336:0.12479638 3907:0.45561879 3955:0.10333589 4442:0.17081401 5426:0.42408146 5550:0.27912969 5619:0.26556356 6023:0.17500906 6353:0.34704817 7451:0.13649241 7526:0.10955033 12432:0.18947276 12665:0.14511376 
0.1667641106886238 3700:0.27028772 5807:0.66004524 7461:0.34890742 10879:0.42444043 11828:0.43519967 
0.8674585880565451 398:0.51541566 507:0.66567813 4337:0.14196617 8160:0.20982179 9951:0.26121786 13511:0.27920117 14117:0.28434432 
0.4294166083855613 169:0.083160733 1634:0.076840891 2127:0.4570878 3641:0.12742463 3871:0.096874289 6323:0.18954716 6403:0.056067576 7527:0.10270851 7691:0.5188816 9670:0.27833713 11433:0.12243861 13861:0.56797083 13912:0.064073208 13915:0.12087596 
0.2330915394167469 257:0.16804104 544:0.22972276 859:0.22005579 1416:0.27000247 2073:0.24605834 3327:0.24080955 3926:0.23505997 4275:0.3426236 4366:0.25198747 4631:0.20994729 5839:0.30825989 6268:0.25161662 8151:0.25350165 9148:0.29141823 12671:0.3023035 
1.945540416043713 1:0.42512091 15:0.14062682 68:0.11805772 124:0.16358023 214:0.097062825 240:0.18815601 321:0.15183395 420:0.10707771 475:0.17482097 490:0.16401078 520:0.22867954 544:0.15332539 751:0.18371804 885:0.17739667 912:0.25847958 1388:0.16336721 1484:0.14932007 1618:0.11655251 1657:0.16315567 2136:0.19064261 3315:0.14207289 3412:0.14314935 4179:0.16171447 4270:0.17187944 5481:0.23687993 5882:0.18095514 6386:0.14495465 6452:0.14589892 7126:0.13493608 7534:0.1760817 10945:0.10902362 
0.1198251194232488 68:0.10930632 547:0.13575761 736:0.16424659 1014:0.14238741 2106:0.13453413 3415:0.15641724 3965:0.15992822 4624:0.1262834 5587:0.19863461 5615:0.15571838 5828:0.17207935 5954:0.1889623 6407:0.16046733 6972:0.2526792 7072:0.17249254 7126:0.12493352 7580:0.20317269 7829:0.20574741 8233:0.21011024 8271:0.21011024 8739:0.16971946 8949:0.41425657 9370:0.20574741 9872:0.15246164 10764:0.22404849 10945:0.1009419 11531:0.22972795 11970:0.15246164 
0.1291941116201514 1697:0.33704645 4141:0.64960829 6417:0.37359808 7477:0.38565749 8164:0.31543997 9871:0.27676552 
0.3176181097213587 933:0.24667787 1391:0.22202261 1593:0.27875998 3688:0.1880709 3814:0.4591257 3939:0.16215745 5803:0.2283733 5905:0.1726124 7387:0.21213526 8932:0.25608771 8979:0.22015301 9692:0.25346958 9750:0.25346958 9903:0.19444593 11875:0.26549755 11993:0.24878887 
0.5734545946461811 969:0.28989373 1070:0.29124773 3307:0.3041922 3642:0.45768727 3645:0.2383756 8156:0.38768602 8232:0.47887776 9569:0.30443155 
2 1:0.088952067 5:0.11027529 10:0.11217616 13:0.10965125 27:0.10862411 43:0.14819392 165:0.089062108 254:0.17862873 477:0.14226341 848:0.18052474 887:0.37709898 937:0.15518597 948:0.10619643 969:0.11497781 1399:0.13518042 1450:0.16537746 1608:0.36959745 1618:0.097549536 3716:0.43227494 3752:0.12344997 3757:0.13915216 3764:0.11873257 4271:0.19139513 5844:0.11864481 6268:0.14055715 7439:0.15747864 8043:0.18854949 9935:0.18479873 13619:0.21409627 
0.3931054948319292 166:0.45636744 758:0.20377324 1628:0.20768853 1724:0.21932127 4146:0.26896851 5588:0.16107966 8878:0.46722444 9732:0.32556235 9956:0.32892514 14326:0.35804595 
0.001910302441978603 4187:0.43656195 6231:0.68352078 11045:0.58498974 
1.048032227181558 162:0.16263501 456:0.42830674 557:0.14795372 620:0.13624569 682:0.12726415 857:0.27481821 930:0.11813841 1144:0.13862701 1419:0.2290286 1727:0.15888362 2072:0.11596349 3293:0.14009254 4648:0.16755647 5656:0.14529029 5995:0.14873008 6107:0.22575114 6151:0.25384242 7380:0.084238727 8022:0.17229797 8780:0.19455061 8972:0.175038 9109:0.16497949 9176:0.19780563 9303:0.19780563 10247:0.1139565 11458:0.18157374 12022:0.1313691 12658:0.1374091 13895:0.18558261 
0.08268583718109127 257:0.24000556 420:0.22913687 3386:0.32398343 7380:0.21188608 7915:0.37961327 8151:0.36206516 9952:0.51213809 10221:0.45005534 
0.06002906080682991 32:0.12578894 198:0.10858646 420:0.07443387 754:0.074224286 935:0.1141615 1071:0.097407376 1337:0.099206186 1400:0.13325588 1467:0.10436485 1692:0.17023947 2055:0.094151511 2072:0.28425544 2183:0.11656965 3313:0.11092932 3680:0.09555845 4301:0.1035204 4653:0.08906932 5455:0.13561934 5654:0.11726074 5985:0.14243839 6259:0.14486952 6406:0.088157196 6465:0.14761518 6509:0.19481475 8138:0.18533149 8154:0.12770954 8352:0.18496833 8691:0.36993666 9224:0.16162365 9472:0.16308969 9618:0.32932886 9698:0.16466443 9878:0.095495302 11653:0.17247831 11974:0.29826725 12980:0.22185865 
0.4929796449836565 298:0.46275761 1447:0.29449228 5448:0.2717921 11063:0.416109 11319:0.59765421 11936:0.3080933 
1.43681783079189 210:0.49136738 548:0.75850161 3664:0.42805772 
0.1556570056788212 1447:1 
0.3861605299807885 10402:1 
0.05465720683198878 11:0.19820834 204:0.1229339 214:0.087087511 296:0.15371641 504:0.10336578 736:0.15916531 797:0.14170446 858:0.10187045 859:0.13177887 949:0.11588076 1604:0.15396462 2174:0.43474483 3407:0.11663741 3417:0.16839366 3425:0.14251357 3936:0.15657867 4607:0.29018958 5457:0.16521018 5949:0.16304378 6134:0.18616695 6324:0.1301619 7348:0.19352457 7518:0.070156178 7910:0.18103234 8299:0.18311639 9898:0.13533039 10925:0.12883371 10945:0.097819077 11192:0.21973118 11487:0.31048103 12031:0.17347868 
1.521741345183972 55:0.52104866 145:0.33515941 265:0.18088106 696:0.28599183 1031:0.15456657 1042:0.36521428 1414:0.15638956 4483:0.2378457 5801:0.24248326 6439:0.22165836 7137:0.15476446 7518:0.088837633 10532:0.29598306 12037:0.18969956 
0.03995000127139933 1447:0.78552912 3701:0.61882469 
0.9098489251601872 11:0.067914596 13:0.080553452 16:0.32185236 48:0.083755121 52:0.081339588 116:0.10730101 121:0.10846396 263:0.12230909 268:0.17616775 326:0.074754257 969:0.084466522 1017:0.11819879 1380:0.10711399 1417:0.089487149 1434:0.2077679 1446:0.33591263 1523:0.14564729 1537:0.16017952 2131:0.09667584 3329:0.21773635 3336:0.10194102 3599:0.15255874 3681:0.11959166 3709:0.091564802 3895:0.087616474 4112:0.16017952 4264:0.11482805 4297:0.10866498 4376:0.11197088 4478:0.23197008 4635:0.12452284 5520:0.084634587 5644:0.061413045 5656:0.21000781 5844:0.087160416 8097:0.13851472 8169:0.087419664 8443:0.16360628 9140:0.1145496 11501:0.15255874 11984:0.28591537 12270:0.15477249 12477:0.15477249 13774:0.13335663 
2 2:0.24558647 8:0.23314639 19:0.2048227 64:0.32516758 504:0.36263531 617:0.54554676 1744:0.25483358 4164:0.28914656 7137:0.21438948 7927:0.33765274 
1.105524203928597 50:0.1646198 140:0.19033242 165:0.10594816 214:0.096640004 437:0.22125215 694:0.12299657 801:0.17375354 1029:0.12434686 1174:0.42499298 1839:0.22273709 1840:0.58639344 3312:0.1408286 4186:0.17596224 4609:0.12730773 5694:0.25062457 7043:0.27172063 8959:0.16923635 
0.02727803404687399 68:0.34790404 993:0.50487326 10945:0.32128148 11311:0.72169521 
0.1781329149259971 529:0.43575395 1164:0.58513314 1447:0.29179391 12945:0.61854185 
0.1504965304258819 19:0.18269107 633:0.21588685 1611:0.53099189 2063:0.30278799 2135:0.26762424 4244:0.21154025 4633:0.23274498 5876:0.22758327 6312:0.29387779 9920:0.22023898 12644:0.24541382 13584:0.35909636 
1.671447280575656 224:0.55444735 912:0.20722049 1908:0.65636634 3683:0.4677938 
0.01309012726704273 468:0.23334609 1026:0.14091518 1443:0.17535362 3960:0.22543822 5123:0.37534347 5460:0.22578193 5825:0.26785608 7256:0.3263063 7463:0.2513417 9616:0.31562035 12529:0.33539482 12635:0.28738883 12993:0.34083348 
0.03898336420432948 912:0.16105828 3323:0.2268657 5745:0.94108245 5904:0.19223945 
1.015602599868533 334:1 
0.1707557567686081 30:0.15151938 251:0.15030123 1379:0.13587244 1403:0.32213963 4111:0.23873879 4394:0.12887192 5613:0.44626585 5678:0.2306799 6394:0.17824481 6396:0.16350728 9114:0.14473405 9836:0.21707929 10130:0.21932154 11391:0.22442895 12262:0.2306799 13988:0.47747757 
0.3592870965473708 208:0.35197045 1038:0.397846 2071:0.52182655 8004:0.53926574 11971:0.39335083 
0.2688095185575073 30:0.10716448 61:0.10672902 110:0.22466662 163:0.10070882 173:0.1165648 209:0.12983175 214:0.12582175 325:0.13763608 416:0.12849555 419:0.10225059 500:0.12806946 758:0.096097932 1163:0.15684257 1417:0.094332066 1486:0.086298687 1655:0.17374 2149:0.11086503 2151:0.10949809 3400:0.24849501 3793:0.15069755 4243:0.10294993 4326:0.11195591 4364:0.11233331 4436:0.15511863 4482:0.13568571 4645:0.088922382 4775:0.18258494 5530:0.10179771 5815:0.13029795 6024:0.15069755 6210:0.16081841 6332:0.095437446 6386:0.093951771 6917:0.17688517 7232:0.11586955 7373:0.14057669 7518:0.050679904 7786:0.15684257 7865:0.14403111 9236:0.15069755 9988:0.31023727 10249:0.12645119 10605:0.15684257 11009:0.2458075 12034:0.11311038 12276:0.16315201 12645:0.072235526 14309:0.16885179 
0.2408172198030675 1626:0.5210024 3755:0.39040005 10343:0.52601673 10945:0.2201341 11503:0.50099069 
0.09474539980794758 65:0.11834762 194:0.10148536 297:0.091528368 319:0.11278509 492:0.14935223 1061:0.13298264 1450:0.13965279 1470:0.12659922 3373:0.16741915 3639:0.10041257 3691:0.13199294 4241:0.2189473 4394:0.099390533 5458:0.13013997 5520:0.097286055 6244:0.12514216 6451:0.11443721 7380:0.069981519 7443:0.27577631 7826:0.1570581 12027:0.1199487 12617:0.14208284 12645:0.078768917 13172:0.72317328 13872:0.13199294 13888:0.15417319 
2 24:0.13783416 25:0.17438013 74:0.586088 121:0.1470585 199:0.13939086 223:0.12123062 329:0.18293351 407:0.15725579 476:0.14169954 1167:0.18293351 1626:0.10755283 1743:0.12296067 2128:0.16214575 3955:0.11444659 4154:0.11706456 4467:0.20548852 4638:0.16118401 5629:0.13166168 5799:0.14104888 5813:0.16758826 6069:0.15247521 6282:0.18293351 6404:0.15457089 7445:0.12939503 10659:0.20172975 11660:0.20684344 12813:0.21324769 
0.3365736459695342 324:0.39825088 624:0.089380843 950:0.10377084 1144:0.12803961 1374:0.29722421 1519:0.13196268 1655:0.10531707 2057:0.1032377 3348:0.13887282 3382:0.14075244 3876:0.11650458 3902:0.27672346 4184:0.27879002 4236:0.12424307 4327:0.13861591 4669:0.12274559 7538:0.38765933 7723:0.12723077 7921:0.13046094 9010:0.18114835 9561:0.12675823 9926:0.17349907 10133:0.18805848 12758:0.2010052 13976:0.2047079 14043:0.2047079 
0.1715385446230478 2169:0.51516222 5554:0.33247595 8741:0.28863381 8856:0.53355099 13782:0.50604495 
0.1387140761854221 86:0.18034073 186:0.22828631 469:0.12123003 677:0.20714131 1070:0.27790979 1177:0.14058262 1519:0.16907875 1653:0.154521 1734:0.14346676 2185:0.11439405 3812:0.18034073 4191:0.18667602 4363:0.17449195 4630:0.18374276 5809:0.18943392 5937:0.16426378 7077:0.16047426 9160:0.41601659 9495:0.23620802 11194:0.24656328 11203:0.24656328 11687:0.24980585 13813:0.20389874 
0.301923139020246 129:0.18125603 149:0.29556146 321:0.1669036 328:0.14313564 1018:0.63395286 1696:0.1997552 3944:0.3423255 4337:0.14297825 4668:0.36813702 6403:0.20980978 11129:0.26920651 
0.4525486578762684 25:0.14100484 80:0.22915823 2185:0.15318265 3390:0.28489228 3407:0.17525916 5867:0.27201887 5903:0.22915823 9553:0.63260233 9578:0.19328666 9897:0.22674348 13541:0.34486676 13858:0.24054302 
0.4158444954476597 80:0.14168898 145:0.12295151 530:0.096327537 1419:0.11220207 1467:0.12514952 2055:0.11290215 2065:0.15180196 3626:0.15084029 3639:0.11842889 4341:0.1447177 4371:0.15806611 4629:0.15213075 5534:0.17296016 5554:0.11878403 5574:0.14496629 5840:0.1715037 5944:0.15848729 6335:0.13180044 7380:0.082537811 7387:0.16525771 7852:0.18523793 8052:0.41347167 8076:0.18778817 9148:0.16213366 9414:0.19556963 9908:0.17531393 10075:0.19949756 10214:0.15724407 10455:0.21715973 10645:0.20171471 10765:0.20171471 11287:0.20414332 12215:0.20982927 
0.1186558335192615 55:0.19408889 528:0.16914802 547:0.18616195 625:0.14856588 1505:0.22697297 1902:0.34649442 2180:0.25712987 3686:0.18857332 4631:0.17790902 5662:0.37882319 12565:0.63918602 12645:0.14149975 
1.825256124047608 17:0.22152137 25:0.072848209 48:0.094878521 50:0.34548563 56:0.22787228 99:0.037403834 109:0.11857579 165:0.14823477 292:0.12133965 1341:0.1619437 1409:0.15581856 1434:0.078453754 2015:0.1235595 2143:0.10308979 2187:0.1022995 3310:0.14053481 3381:0.1649905 3423:0.2854409 3672:0.16341265 3725:0.15581856 4623:0.12854579 4828:0.19621076 5769:0.13242766 5794:0.16341265 6030:0.1619437 6078:0.093127563 7383:0.14002174 8936:0.13467092 9355:0.14159959 11227:0.17057658 11257:0.17057658 11425:0.12403266 11481:0.41856222 
0.6265180395999603 29:0.18473855 196:0.17088948 672:0.23326848 788:0.14749824 1665:0.30908948 4354:0.24916192 5634:0.25702735 6079:0.34656894 7778:0.31880151 9566:0.27839672 11055:0.27976199 11301:0.32263983 11388:0.32263983 13857:0.22607223 
0.443682231776678 76:0.34670199 1379:0.31258659 2065:0.38393708 4352:0.3987324 4455:0.40303045 4653:0.27013802 9307:0.49018778 
2 11:0.069054228 14:0.09765746 48:0.085160563 171:0.11028403 364:0.21561713 530:0.072244587 547:0.55000398 632:0.12523029 639:0.10561729 788:0.069993688 797:0.09873744 802:0.19287445 858:0.07098173 1179:0.14083905 1184:0.14083905 3414:0.10835203 4160:0.37569088 4624:0.08527008 5595:0.27971761 6339:0.10097446 11418:0.12436148 11439:0.2495819 12427:0.15736963 13722:0.15992149 13858:0.33463357 
0.1156671271536844 183:0.11977552 208:0.086080538 374:0.22813973 420:0.073874053 490:0.11315279 525:0.076890181 546:0.10367514 557:0.11998127 618:0.10000576 904:0.1711811 930:0.19160582 944:0.13819775 1419:0.092863982 2057:0.18128398 4287:0.14579 4311:0.12333586 4631:0.096674776 4653:0.08839943 7289:0.50687731 7723:0.11170774 12625:0.11690829 12691:0.62037956 13865:0.13677545 
0.02623876321683384 25:0.11670781 43:0.19757797 84:0.060035086 243:0.20546864 374:0.18449719 633:0.17160598 964:0.11967263 1026:0.11801379 1435:0.21703934 2129:0.12059148 3662:0.201503 3748:0.15442491 3749:0.18685055 4293:0.16162039 4467:0.13752779 5166:0.31434304 6316:0.46936608 8044:0.22197103 10233:0.23468304 10965:0.15057047 11468:0.15985785 12069:0.2808868 12984:0.2305434 
2 14:0.35361423 55:0.17302889 110:0.39233888 353:0.16638148 802:0.1745979 868:0.15161056 917:0.19008374 964:0.12138883 983:0.28953504 3585:0.28083974 5531:0.17777095 5562:0.210365 5638:0.19616944 5833:0.18714304 6403:0.1080176 7126:0.30545954 8049:0.18765945 10247:0.15161056 13144:0.28953504 
0.1673279531264238 942:0.30333599 1612:0.47907835 1647:0.23863861 1727:0.43838543 3330:0.34219849 5936:0.36990481 13858:0.41882176 
0.1012123262836775 186:0.17801115 1655:0.21044276 1841:0.19351549 2040:0.37995147 3363:0.35631435 3929:0.28977717 4304:0.29468619 10337:0.40904382 10925:0.45091382 11487:0.27166839 
0.1610623191108679 68:0.18124241 336:0.26430213 1389:0.22361764 2106:0.22307301 2150:0.2424633 3750:0.229858 3779:0.27554059 4175:0.23048792 4362:0.27609596 4466:0.2679138 5828:0.28532729 6129:0.31854081 7380:0.15200993 8056:0.29429325 8966:0.2679138 9878:0.21089967 
0.03435898043867679 26:0.11723551 71:0.039650322 84:0.03693357 99:0.03686492 214:0.066631683 245:0.22120721 935:0.11273947 1382:0.1181852 1467:0.41225942 1477:0.088425155 1516:0.095002168 1651:0.13123105 1739:0.10746575 1763:0.11087614 3947:0.10589398 4649:0.13520221 5572:0.12132306 6063:0.12422208 6117:0.10829811 6453:0.10916485 6509:0.19238808 7150:0.14727597 7384:0.13800431 7489:0.1497476 8726:0.18266431 9919:0.11397421 10031:0.16429298 10200:0.16429298 10227:0.14437695 11064:0.40056765 11941:0.12272254 12649:0.065386951 12889:0.17560359 13056:0.17560359 14154:0.35767674 
0.1116097352089846 568:0.24068949 686:0.44274911 950:0.1561564 1763:0.19098375 2183:0.1982897 3708:0.40260719 3898:0.44611212 3911:0.21397209 4260:0.21016375 5547:0.23288533 5671:0.2368614 5870:0.21352858 5994:0.19715115 
0.506496343096835 16:0.11466087 27:0.11371436 40:0.11044975 682:0.13106703 927:0.31327025 1457:0.10382258 1604:0.1503525 3791:0.20371642 4293:0.25380905 6048:0.18026845 7133:0.12357015 7443:0.34187927 9922:0.19345861 10411:0.68477322 13771:0.19003481 
0.2962666276325177 3773:0.3766389 11116:0.60038593 11971:0.34184383 12077:0.61710831 
1.545554905653938 44:0.50971027 556:0.5614369 11430:0.651908 
2 1:0.21406153 3:0.30493904 11:0.22247188 33:0.54978327 68:0.23778285 154:0.43210589 208:0.25130334 212:0.45058286 
0.7498802349971724 203:0.2980742 241:0.17428575 909:0.35932555 1032:0.26117598 5469:0.34904986 6406:0.24094721 8277:0.61996595 9903:0.3452526 
0.0936179847496276 29:0.11447075 90:0.24489581 122:0.10700908 165:0.086867157 214:0.079235379 568:0.16616407 694:0.10084519 1071:0.11438959 1484:0.12189458 2051:0.12382819 2143:0.12082343 3388:0.29668629 3652:0.1499747 3691:0.15245443 3754:0.1578372 3869:0.1999194 4397:0.13770424 5841:0.16795513 6334:0.1234759 6341:0.56457296 7376:0.17705439 7443:0.15926352 7883:0.15562745 8844:0.18667817 8869:0.16727142 9134:0.13919129 13776:0.17705439 13911:0.17807306 
2 11:0.080339014 27:0.094397433 109:0.49529375 156:0.36752903 468:0.12738002 525:0.081061669 547:0.21329506 618:0.10543133 633:0.11185573 656:0.15297044 1026:0.076923416 1145:0.085485662 1486:0.096843147 1613:0.12325087 2126:0.14146997 3748:0.20131363 4382:0.12250968 4478:0.13720355 5844:0.1031057 5881:0.23213592 6582:0.19849799 7382:0.11836508 7492:0.15866076 7766:0.35201296 8279:0.15523344 8954:0.13486101 9170:0.10746604 10283:0.18948305 
1.212523593409182 11:0.10734908 117:0.45996373 969:0.13351185 1066:0.11287541 1457:0.11516181 1770:0.49721573 4503:0.49721573 5578:0.18150273 6061:0.1999569 7504:0.21200267 7645:0.16181067 7900:0.19609321 8138:0.12955585 8290:0.19835064 
0.1579143758711544 185:0.35635667 354:0.34672723 447:0.1876245 682:0.30274116 3758:0.18467634 3759:0.14179502 4293:0.14656326 5448:0.11269801 6078:0.13529702 6328:0.39245996 8157:0.19452685 11466:0.21596751 12645:0.11277652 12718:0.51769765 
0.4979505862319155 328:0.4045784 4609:0.3972853 9139:0.58026392 11978:0.58461482 
2 1:0.17048916 5:0.31703718 15:0.33837925 19:0.20876426 25:0.16777703 27:0.2081934 48:0.10925757 68:0.18938199 90:0.12030937 96:0.14702631 113:0.11115011 124:0.13120341 129:0.13225435 165:0.085350034 240:0.150915 321:0.12178203 328:0.20887923 394:0.11062604 420:0.085884218 617:0.13901128 964:0.086019602 1409:0.17943321 1736:0.16949199 1832:0.092438695 2047:0.19409102 4178:0.16502181 4252:0.35201303 5849:0.17823697 6403:0.15308872 6846:0.21889352 7526:0.11673493 
0.9393143204889626 5:0.13422408 1076:0.16775115 1176:0.14117292 1614:0.16890038 3473:0.27107011 3716:0.17538442 3752:0.30051988 3956:0.58585738 4263:0.17481302 4466:0.17778104 5844:0.14441122 5906:0.19317375 6283:0.22354771 6485:0.15408905 7133:0.14367351 7134:0.18592011 11243:0.24948505 11998:0.2368586 
0.1166548176469754 73:0.54570317 194:0.13292508 208:0.11550279 1071:0.12971813 1388:0.15123255 1398:0.1806053 1647:0.094110659 2051:0.14042153 4452:0.15784333 5539:0.19207906 5735:0.23302365 6288:0.16099077 6406:0.1173996 7319:0.1829166 7518:0.072384129 7647:0.12944384 7886:0.17648198 10832:0.22401212 10945:0.10092552 11942:0.32600526 12688:0.40156039 
0.04590519074250857 289:0.38317315 2184:0.35207764 3427:0.30532194 8307:0.37533666 9417:0.49258306 10000:0.50247638 
0.04757317512581744 194:0.24992792 241:0.15966673 2091:0.33957704 5614:0.31835278 5713:0.43813489 6424:0.36780962 6490:0.36437579 7518:0.13609783 8300:0.26960066 11947:0.37968218 
0.1316351996486093 59:0.14355646 68:0.11500084 268:0.1395497 477:0.16557558 1506:0.19960075 1738:0.34693013 5936:0.15350211 6078:0.13024294 6334:0.29468133 6336:0.18019334 7302:0.23855877 7464:0.17121061 9114:0.15384635 9885:0.61177143 9913:0.19185034 13798:0.16688755 13834:0.22456354 
1.528509964469595 1:0.079260832 13:0.097704861 73:0.32971865 156:0.12561429 245:0.12015659 326:0.090670904 477:0.25352792 765:0.19428488 801:0.13014749 2112:0.11217301 3777:0.2320004 4293:0.21603325 4322:0.12599111 4670:0.13037661 5588:0.087405941 6287:0.30322673 6390:0.12947364 6402:0.1164958 7367:0.10370247 7378:0.48525263 8156:0.27402359 8939:0.16683789 11469:0.12487883 12980:0.23801865 13861:0.1441947 
0.1440998032235491 203:0.53966515 1841:0.42394978 3354:0.52953597 6116:0.49861785 
0.8450318510981165 5:0.091345592 11:0.076577632 19:0.2706737 165:0.29509533 215:0.14796558 235:0.15406232 321:0.10526448 405:0.45482606 653:0.1288519 1148:0.12794995 2066:0.079329456 2070:0.11935708 3382:0.12418442 4385:0.11253697 4653:0.088832024 5937:0.11311368 6410:0.24459878 6587:0.18920454 7714:0.12252605 8003:0.46528894 8079:0.15618335 8797:0.15854052 9116:0.14149374 13200:0.17734481 13694:0.17734481 
1.79668212265087 11:0.12665906 90:0.086000788 214:0.055650647 397:0.17495166 588:0.27815535 682:0.085766581 1018:0.11021893 1064:0.78066528 1382:0.098708037 1392:0.11896438 1467:0.17215912 2090:0.25481839 2144:0.088442435 4385:0.18613565 4988:0.16151372 6275:0.08705349 6500:0.12506889 8157:0.11021893 9346:0.11896438 
0.3482748885265758 941:0.5386874 1618:0.41780793 8296:0.73160947 
1.770049947496126 40:0.39482561 713:0.71624328 3653:0.57542011 
1.19349129500783 10:0.10009165 29:0.10471988 48:0.10172743 60:0.12184368 86:0.26753771 202:0.13125772 205:0.1098697 344:0.14855437 404:0.285522 569:0.19103211 2195:0.17077652 5545:0.14708107 5640:0.50314564 5680:0.18798382 5844:0.10586344 6338:0.12061771 7382:0.12153096 8153:0.20255074 10236:0.45203839 10960:0.29610526 
0.3310003073181005 530:0.44047687 9348:0.79089482 12645:0.42481233 
1.724877606831381 23:0.2723818 55:0.26245033 258:0.34639955 344:0.34151414 1068:0.33292683 3806:0.30285548 4058:0.4472568 4216:0.41544663 8741:0.21238444 
0.4692566100124727 407:0.40398237 942:0.27674274 1477:0.27585608 2110:0.42600939 7078:0.32362435 11038:0.31271165 13155:0.54782281 
0.2830663156904879 174:0.22284134 2122:0.28455617 3736:0.25172786 4165:0.26204639 4634:0.23828791 5575:0.23017804 7190:0.27567197 7893:0.28241639 7983:0.31313037 8024:0.25715115 10827:0.33870983 11063:0.23866159 11463:0.29873384 12023:0.21613476 
0.6208909215138798 25:0.14671359 174:0.22332701 204:0.19219888 297:0.18166071 413:0.2613374 1630:0.31833066 1831:0.18893141 3380:0.33228476 5660:0.25600752 5904:0.14426022 6244:0.24837562 6261:0.2923396 8164:0.25028171 11069:0.34353492 12949:0.35882912 
0.1502890679878558 548:0.35083202 1647:0.15099265 2055:0.20116533 4446:0.67409902 5516:0.22910827 5943:0.49740489 12043:0.24359579 
0.2227203207491191 129:0.15042507 187:0.15811035 214:0.088547742 870:0.21210843 1079:0.12475091 3317:0.16955182 3421:0.14716312 4139:0.50280272 4175:0.13696428 4507:0.23336198 5452:0.35596284 5534:0.18928849 6340:0.21030867 6855:0.24896779 7721:0.18848012 9170:0.26958038 9575:0.15298136 12246:0.22963823 13482:0.23336198 
0.1248389952042904 1337:0.32826419 1434:0.25908325 2089:0.51113989 5639:0.35162465 8138:0.30662247 13146:0.58838531 
2 7:0.11120102 16:0.10258055 52:0.10369798 65:0.1312578 145:0.11561917 150:0.14711781 186:0.17773897 219:0.15156035 305:0.31996076 358:0.12708003 465:0.15200824 523:0.12394039 552:0.17419109 800:0.31293507 918:0.13879354 942:0.10129409 949:0.10123969 965:0.14675197 1453:0.095558307 1482:0.16907353 1734:0.22340047 1921:0.21392476 2151:0.13242689 3326:0.16195093 4219:0.18968526 4478:0.14786666 4686:0.17658924 5679:0.1973159 6063:0.14184479 6386:0.11362519 7305:0.19196904 7750:0.18968526 7921:0.13014311 8917:0.18760033 9569:0.11308468 9898:0.11823195 11480:0.15200824 
0.1408095239185304 384:0.16193494 394:0.12775858 738:0.60271051 3339:0.1313083 5643:0.17341575 6095:0.19137624 6109:0.17806801 6113:0.30888025 6409:0.16340237 11315:0.45369684 11469:0.31021279 12450:0.23316677 
0.3529776044877744 362:0.36262627 504:0.20220511 797:0.27720358 997:0.26045911 1023:0.22327 1029:0.21920431 3735:0.31565516 5885:0.30683988 7460:0.34914262 7742:0.27417156 11439:0.35034834 12646:0.26726583 
0.002611458965513781 328:0.28649659 5574:0.38263888 5618:0.38068925 10496:0.57319361 11933:0.54592305 
0.3863621876118996 2148:0.43186684 4063:0.67383007 4288:0.54657833 12649:0.246366 
2 13:0.083244162 23:0.10080864 27:0.082464387 30:0.42022494 33:0.086719976 40:0.16019385 46:0.12017004 55:0.097132998 59:0.09363967 163:0.098727573 400:0.58120733 481:0.1301965 512:0.14907292 717:0.14530183 788:0.071137951 942:0.16421598 1063:0.11314859 1163:0.153757 1176:0.088052028 1180:0.1431415 1702:0.10670706 2066:0.07270517 2107:0.091593255 2200:0.13560994 3645:0.071775664 3693:0.070399346 3787:0.14773287 3898:0.11985926 5732:0.15994232 5937:0.10366829 6403:0.060637693 7234:0.15560821 7518:0.099365756 8049:0.10534614 8905:0.15206698 9567:0.10885818 9897:0.10686433 10253:0.088354102 
0.2527130698365833 165:0.078730343 194:0.10623786 210:0.11321511 346:0.14525015 358:0.11994651 737:0.13124967 1393:0.13562305 1419:0.09958804 2072:0.10084834 3460:0.39373913 3691:0.13817408 4635:0.14983995 6234:0.14263765 6274:0.11920492 6327:0.1434754 6394:0.1439062 7639:0.14820431 9131:0.15711304 11719:0.73430364 12660:0.14223014 
0.7862754035808972 63:0.20921389 90:0.19405587 214:0.062786253 1031:0.088002131 1038:0.091228922 1616:0.12659226 1636:0.1380573 3328:0.49883058 3411:0.08654077 3421:0.10434846 3616:0.16049983 3623:0.64199933 3743:0.10216266 3773:0.099379096 5576:0.083410855 5881:0.10322537 7518:0.050579509 11983:0.30079804 12694:0.1654692 
0.8856252446454207 27:0.1238698 120:0.24600958 1731:0.13600485 1739:0.29882366 3297:0.14547552 3356:0.21659035 3671:0.22392251 5520:0.13137615 5912:0.16715008 5943:0.15981791 7918:0.36008133 8880:0.4568398 9350:0.17235052 10253:0.13271675 10945:0.1040551 12192:0.4804989 
0.009467473465593084 389:0.26037725 879:0.29880183 1453:0.20254179 1615:0.31939457 1621:0.25897804 3569:0.27072677 3936:0.28994678 4330:0.31341261 5585:0.35644512 7917:0.31341261 9420:0.3898016 
1.888563035697043 11:0.083729421 71:0.043783247 84:0.040783317 99:0.040707511 110:0.13137867 113:0.10504725 146:0.11945293 163:0.11778332 172:0.11622597 186:0.085940787 199:0.12674902 214:0.073576993 425:0.31885197 530:0.087597786 547:0.11114819 625:0.088701417 639:0.25612551 683:0.15869031 749:0.18343417 753:0.11645885 876:0.31885197 965:0.28383151 1043:0.15596106 1172:0.12432587 1184:0.17076973 1390:0.11741453 2019:0.15942599 2145:0.11050576 2187:0.11133506 3993:0.33474531 4091:0.19747947 4222:0.18343417 4251:0.16634263 6014:0.10129212 7264:0.18564269 8053:0.12806275 8901:0.18141796 
1.067256352370687 16:0.08601585 41:0.098412464 42:0.17953202 198:0.1026739 257:0.073719317 336:0.11315953 422:0.14337978 630:0.14177155 672:0.11638117 728:0.15420942 878:0.11682278 916:0.28098867 939:0.28675957 942:0.084937129 1016:0.13889633 1017:0.12635569 1023:0.083611887 1419:0.088472919 1728:0.094380544 1761:0.28511916 1860:0.17938021 2141:0.11552605 2180:0.13311616 3357:0.14915995 3400:0.12600007 3661:0.11869317 3689:0.086852122 3735:0.118209 3967:0.12048602 4484:0.13759961 4609:0.084043994 4613:0.10751938 4695:0.14807362 5529:0.11297435 5625:0.13074964 6406:0.16671403 6457:0.11773622 6463:0.13957749 7540:0.10958952 9118:0.13414676 9246:0.1528232 9569:0.094823773 9641:0.31139682 12689:0.14255958 12719:0.16813628 13800:0.10823448 
0.647711634152472 16:0.067526899 113:0.071507209 722:0.095014104 752:0.09242903 915:0.090368702 1076:0.16993935 1434:0.058121563 2132:0.10753745 3631:0.32557083 3749:0.086404611 3807:0.45513012 4402:0.29930822 4478:0.097337921 4488:0.099479977 4795:0.14536049 4939:0.43608147 5617:0.092246676 5804:0.11012907 5910:0.087708943 6066:0.088690718 6112:0.23305565 8016:0.10450309 8877:0.09242903 10965:0.069627744 11037:0.097590301 11428:0.081773266 12761:0.13199569 12961:0.13199569 13889:0.33768168 
0.3115677169034262 5:0.12734599 19:0.12578316 95:0.14380693 160:0.14471209 504:0.11134853 548:0.22830346 582:0.10716028 694:0.11939871 950:0.25527849 1618:0.11265028 1744:0.31299042 3649:0.15441771 3768:0.16160922 4322:0.16328428 4333:0.14044045 5617:0.17278543 6037:0.22472118 7712:0.18279447 9333:0.40108856 12038:0.20054428 12763:0.24723854 12875:0.24723854 14152:0.2517929 14202:0.2517929 
0.5008675902640274 40:0.091489664 120:0.18707218 223:0.10554399 224:0.16731411 923:0.089284408 927:0.12974674 1067:0.09513808 1187:0.13554197 1613:0.12298508 1626:0.28090808 1693:0.14698562 3342:0.14590318 3686:0.21559196 3695:0.11650886 3766:0.43022334 4606:0.12710533 4632:0.12336433 5576:0.18717201 5620:0.13554197 5662:0.10827517 5732:0.36538405 7166:0.15570552 7530:0.13188677 8741:0.089783918 8864:0.14871524 9352:0.26211977 10214:0.13690768 10642:0.17562693 12023:0.11206962 12657:0.12152976 14181:0.18907444 
2 7:0.080411238 18:0.31999749 153:0.10278548 186:0.064262949 214:0.055017818 257:0.063573456 393:0.31171122 395:0.099807841 419:0.089421806 918:0.20072767 949:0.073208045 1434:0.12769194 4645:0.077765812 5905:0.27431282 6288:0.2957279 6406:0.071884734 6710:0.15469242 7244:0.13881589 7384:0.22790047 7447:0.085495417 7450:0.30901031 7582:0.1243841 7647:0.079259521 8165:0.1019401 8873:0.32689673 9121:0.23136875 9906:0.35763638 
1.093928685980919 58:0.11443657 84:0.071048105 99:0.070916046 120:0.25528752 296:0.11312181 504:0.076068163 548:0.077983178 753:0.10144076 942:0.085323907 1031:0.44913886 1056:0.15491164 1413:0.11330447 1417:0.096098278 1648:0.090468579 1696:0.23997188 1759:0.28641751 1904:0.18019705 2147:0.39270426 3821:0.1617029 3829:0.1617029 4443:0.14983918 5665:0.12392299 5875:0.12520492 6401:0.12361483 6496:0.14403269 8798:0.15099285 9124:0.11040394 9126:0.14021309 9191:0.15351911 10645:0.15977919 11487:0.11424342 13182:0.16890193 
2 1:0.081942861 41:0.4617563 113:0.10684501 280:0.14544088 355:0.15285299 424:0.16818631 689:0.16455323 698:0.19407888 858:0.087539475 863:0.3535924 1515:0.141648 1704:0.11695316 2151:0.13025439 3340:0.13167095 3343:0.15499705 3733:0.13866066 3873:0.13894292 4613:0.1261216 6078:0.10308755 7607:0.17496653 7624:0.14040727 7693:0.17023704 7894:0.15556499 7984:0.17248335 8768:0.17631366 11006:0.12783021 11182:0.18881974 11936:0.097337379 12366:0.19407888 13126:0.197226 13761:0.197226 
0.9850133903519064 27:0.10289434 29:0.11117244 40:0.29982107 214:0.076952327 218:0.16673963 297:0.20534195 355:0.15717523 859:0.11644254 1434:0.089300087 1604:0.13604632 1642:0.17397357 1655:0.10625903 3271:0.39913375 3693:0.087840274 3735:0.14258159 3786:0.18433262 3853:0.19415902 3898:0.14955353 3944:0.12344721 4239:0.14532809 5526:0.1556441 5658:0.1446903 5834:0.14437758 6076:0.15197904 6078:0.21200514 7385:0.15937992 7518:0.061991451 9133:0.11902867 9631:0.18780065 9897:0.13333919 10922:0.19184919 11175:0.19415902 11420:0.15770789 12625:0.13434493 12646:0.1207241 13866:0.15717523 
0.4244920890307108 327:0.2992638 948:0.11338297 1486:0.1189797 1617:0.12035483 1651:0.17082454 3716:0.46152794 3752:0.1318041 3755:0.1727765 4265:0.24699607 5782:0.20965079 5795:0.20965079 6485:0.27032579 7257:0.21884178 9054:0.20600327 9176:0.20776619 9324:0.34867564 9525:0.20965079 11468:0.12801586 11967:0.17082454 12620:0.11378852 
0.213769326832749 1382:0.57417651 1467:0.25035884 4325:0.57608215 7186:0.35775378 9012:0.38442604 
0.1111100118432903 120:0.1244346 547:0.14157129 1040:0.20306352 1626:0.12456755 1638:0.20606757 2089:0.21455833 2149:0.16515193 3945:0.16311565 4294:0.17987936 7209:0.22079499 7712:0.1826057 8581:0.25691398 8994:0.22258429 9917:0.19015942 10174:0.23107506 10959:0.19141554 11231:0.23645617 11419:0.19206423 14046:0.50306575 14561:0.25153287 
0.6222510688660556 156:0.14645064 420:0.093101668 548:0.1026905 858:0.098719668 949:0.11229664 1026:0.091955866 1650:0.16621383 3237:0.15938195 3715:0.14969029 3957:0.33335214 4298:0.30732923 4333:0.12633974 4495:0.18858141 6426:0.18373558 6531:0.23728867 9268:0.40431678 9913:0.17124359 10171:0.20808921 10210:0.34628142 10288:0.22651202 11382:0.21293504 11471:0.164016 13873:0.16237989 
0.524659272252574 86:0.38168271 186:0.24157865 862:0.25013797 1170:0.34632272 1618:0.24835332 1708:0.48003192 2149:0.36447697 4410:0.33615636 5576:0.27476364 
0.4503157391857157 205:0.20555406 214:0.27122636 4167:0.59338757 6287:0.28404052 7232:0.24977298 7885:0.26635997 8112:0.31475364 9880:0.28295922 11470:0.26355836 11471:0.26355836 
2 11:0.058199844 25:0.055108811 29:0.073885828 218:0.33244828 473:0.11189027 477:0.089561732 522:0.069344313 547:0.077258474 637:0.20435606 912:0.045398116 994:0.09027139 1153:0.38251215 1489:0.13073618 1626:0.20393751 1840:0.10344194 3445:0.14020344 3804:0.1225085 3813:0.11304123 4081:0.54906743 4114:0.13726686 4449:0.081699168 4865:0.14843113 5634:0.10279759 5711:0.13263327 5844:0.074692673 6076:0.10100612 6348:0.121469 6398:0.074257332 6968:0.14379754 7374:0.11428082 7616:0.1136491 7745:0.096372532 8142:0.10711842 9133:0.079107121 9655:0.098890742 10247:0.070577566 11970:0.086764597 12033:0.094381528 13786:0.11428082 
0.0615613038999541 1:0.1307597 307:0.16560593 879:0.44253341 1026:0.13011953 1178:0.17179615 1469:0.17680099 1831:0.16570799 2139:0.18959293 4140:0.22603373 4315:0.18627233 4333:0.17877346 4678:0.23930304 5448:0.13702413 5585:0.52790465 6329:0.23858665 7518:0.096202073 9172:0.21994695 9569:0.17749363 
0.6384587601156626 1447:0.59661165 4385:0.80253009 
0.2671343454638125 8:0.13381344 19:0.11755717 296:0.15475852 357:0.12368646 2143:0.13369718 2178:0.14298809 2185:0.10263632 3393:0.19704676 3939:0.13689154 3949:0.5598859 4463:0.16380179 5511:0.21397624 5520:0.12434005 5538:0.18742906 5628:0.17968916 5656:0.15426542 5835:0.15876739 5925:0.18364056 6310:0.18910307 8157:0.17365055 9315:0.1408029 9537:0.21192992 9881:0.18294147 13219:0.2310696 13558:0.2310696 
0.3799879304697704 187:0.44316027 9390:0.59990165 10493:0.66612836 
0.8794638913696833 328:0.67222781 8161:0.49764192 11057:0.54814441 
2 33:0.38747815 225:0.65449215 400:0.64923086 
1.193417093710494 95:0.67431609 928:0.61894259 4260:0.40275039 
1.737427349903973 9:0.14067326 18:0.11787313 71:0.048238915 84:0.044933692 99:0.044850172 107:0.39395239 124:0.27323699 165:0.088872638 214:0.081064666 289:0.15242256 337:0.18952871 517:0.19098796 532:0.1596568 564:0.18952871 1027:0.093870738 1477:0.10757879 1487:0.20722475 1532:0.19783674 2104:0.1384693 3595:0.41444949 4673:0.10554411 6506:0.16396174 6826:0.22792779 7376:0.181142 7447:0.12597114 7944:0.18683885 9878:0.11473321 12824:0.2136408 13765:0.181142 
1.041224675658344 27:0.20048804 41:0.23129167 268:0.22130339 1413:0.26508416 3764:0.21914527 4005:0.40243769 4164:0.2838034 4360:0.33697509 4611:0.27508771 4686:0.34800669 5911:0.27053883 5971:0.26217091 7137:0.21042776 
0.9865974955837012 68:0.11082486 120:0.24196473 195:0.16815004 397:0.28644654 942:0.12130661 1702:0.31529869 2072:0.12795545 2129:0.10144899 3648:0.16440182 5559:0.18871551 5906:0.1780062 6509:0.1315416 7419:0.20360259 7532:0.16134917 8074:0.21147771 8137:0.51855868 9374:0.14663814 9599:0.19563579 11065:0.18258688 12036:0.16382209 13858:0.16749034 13915:0.19313895 
0.3316404064083392 1633:0.32624311 2182:0.42205983 6473:0.4425462 7507:0.4546018 9869:0.4936594 11936:0.26309957 
0.02176386277847858 555:0.23991107 568:0.20118724 1626:0.25503661 1839:0.44222982 1928:0.53948342 2112:0.29733206 7646:0.32912232 13868:0.39189957 
0.2761993301396082 25:0.34284049 6360:0.34470209 7752:0.79322254 8940:0.36665907 
1.136295939578902 11:0.085074661 223:0.1120069 245:0.12409454 617:0.13348947 949:0.0994763 1029:0.096192687 1729:0.29784094 1810:0.19702293 1843:0.12992489 4230:0.55914396 4450:0.12409454 7915:0.13663335 9887:0.16123991 10214:0.14529112 10475:0.20065228 13244:0.59106879 
0.09147093647500891 1646:0.2837962 4477:0.35943223 5552:0.3109994 7831:0.43954083 11011:0.37506632 11244:0.48440038 12988:0.35359998 
0.5754012513696675 298:0.29442187 1831:0.41824403 3773:0.23853997 7434:0.28096271 7460:0.30886048 7518:0.12140616 8303:0.61563461 13765:0.33675824 
0.2513265707036545 929:0.37554415 3755:0.41607775 6106:0.36410125 9815:0.50975279 12088:0.54169019 
1.821426852064103 62:0.37088446 140:0.41114539 312:0.44435255 568:0.21889085 3323:0.26102221 3965:0.37150179 7225:0.49182885 
0.8854682425687094 52:0.14731888 467:0.17548431 638:0.45278488 673:0.19717752 997:0.33050791 1069:0.44773946 3899:0.43864837 7644:0.22306873 8167:0.18987879 8321:0.21469011 9611:0.26379032 
0.3387696527643028 40:0.17537722 407:0.26243934 624:0.15825003 693:0.24774591 755:0.2886694 1043:0.28623858 1612:0.28393922 3760:0.28993898 4302:0.18523902 5190:0.39191623 5884:0.2432174 5904:0.1430756 5936:0.21923446 8306:0.24871249 9446:0.32640447 
2 7:0.12368763 11:0.04815251 38:0.081022909 58:0.075555432 73:0.064245994 95:0.12972662 115:0.078243828 120:0.056183554 121:0.076902646 125:0.08333716 150:0.081818731 194:0.12519486 214:0.042313882 352:0.080642138 398:0.13724123 466:0.15136838 467:0.068696981 504:0.050223133 616:0.059045351 653:0.081022909 659:0.5611581 737:0.07733488 802:0.067247067 854:0.096255454 893:0.10433286 916:0.062121449 963:0.1032662 1014:0.067042571 1393:0.07991176 1434:0.049103562 1624:0.0908522 1738:0.077631027 2015:0.07733488 3946:0.059119799 4000:0.22713957 4075:0.11356978 4153:0.071405214 4278:0.099691301 4472:0.25070677 5496:0.1032662 6078:0.058287779 6117:0.068773789 6343:0.10049919 6407:0.075555432 7308:0.071035022 7540:0.072684711 7756:0.10549238 8917:0.10433286 9313:0.07856113 9941:0.20866572 10493:0.11356978 10945:0.047528111 11431:0.1817044 11971:0.060787731 12091:0.10973611 12234:0.32920834 12622:0.080642138 12645:0.048585645 
2 1:0.10722182 30:0.33360977 59:0.29735606 87:0.19080209 299:0.19805898 413:0.18795337 1597:0.26282311 2131:0.15862605 3909:0.20355601 4337:0.13122116 4485:0.42239813 4776:0.28419919 5586:0.43287722 5904:0.10375168 5952:0.16254444 6124:0.17863128 6403:0.096278564 
0.4122814489651714 1582:0.68633725 1656:0.33564841 7289:0.64519867 
0.791342094563938 30:0.11357912 59:0.10123637 71:0.039677044 73:0.3037091 84:0.036958461 99:0.036889765 258:0.13860333 289:0.2507385 395:0.12095802 753:0.10553678 1388:0.1122239 1521:0.16272292 1626:0.088626473 1659:0.14253453 2066:0.078603516 2104:0.11389254 3693:0.076110628 4158:0.27520641 4244:0.20703224 6076:0.1316847 6339:0.11095086 6509:0.09625887 8029:0.15475413 8167:0.11712951 8316:0.13243473 8317:0.13243473 9294:0.15971798 9878:0.094369341 10988:0.64466698 
2 44:0.074899111 46:0.086933369 73:0.06774078 169:0.13012763 187:0.079665418 200:0.085843602 214:0.044615629 224:0.10596604 257:0.10310731 399:0.094186707 546:0.2762968 548:0.10857653 754:0.098160912 756:0.09537482 918:0.081388098 921:0.094186707 926:0.092405724 996:0.1051142 1017:0.088363514 1029:0.057407006 1381:0.24953202 1434:0.051774647 1605:0.20298292 1635:0.098102899 1646:0.26380616 2020:0.092075098 2110:0.091436308 3684:0.53642881 3693:0.050928273 3730:0.19828837 3735:0.082666339 3850:0.11257004 3998:0.23949527 4153:0.07528944 4337:0.059787068 5660:0.083888933 5843:0.094571689 5976:0.087630254 6115:0.083004933 6406:0.058293526 6495:0.089955891 7445:0.14269306 7723:0.074425969 8299:0.093811993 8646:0.12230943 8964:0.078252717 9127:0.097609832 9583:0.095794283 9878:0.12629163 10945:0.050113496 12620:0.058531683 12645:0.051228556 12648:0.082500054 
0.06498376301165329 430:0.82372909 6484:0.56698358 
0.2053293550245804 1843:0.3933679 4467:0.28740648 6729:0.63640915 7371:0.34221204 10229:0.49044218 
0.02626136050715781 1639:0.38102849 8050:0.42067352 9618:0.57593215 10818:0.58834788 
1.91171537028012 7:0.23763232 11:0.092512025 35:0.14395712 44:0.13647458 60:0.13665055 97:0.1406561 121:0.14774764 131:0.14590872 268:0.11998625 297:0.21692923 352:0.30986412 527:0.13867042 629:0.16290558 722:0.15422084 965:0.15680168 969:0.11505876 997:0.12428837 1183:0.18868223 1844:0.12140634 3412:0.11989432 3679:0.1225002 3709:0.1247279 3903:0.2422319 5718:0.21082826 5806:0.15758951 6065:0.1660445 6386:0.12140634 6407:0.14515933 7078:0.12656564 7380:0.082930774 8103:0.37736446 9114:0.13227866 10569:0.21819362 12022:0.12932937 
0.03664627662652644 5937:0.61295097 10231:0.79012095 
0.03876778279860348 758:0.09898207 1434:0.15039325 3399:0.21812739 3485:0.17764015 4038:0.6956778 4064:0.17391945 4343:0.10691356 6071:0.24421128 9905:0.24211776 11300:0.32698967 12677:0.14479574 13559:0.34154728 
0.05777613542218547 257:0.20929849 323:0.19425795 715:0.42674458 1628:0.28199883 3877:0.29119163 4162:0.31769182 4350:0.35293369 4351:0.35293369 5904:0.19191334 9655:0.35023818 10247:0.24996231 
0.006644775185435276 941:0.14969417 1402:0.06332619 1672:0.15011036 1762:0.080445794 2022:0.07065769 3903:0.14405066 4190:0.092351085 6391:0.096876821 7084:0.74411303 9552:0.11685522 10051:0.35760661 10805:0.24105395 11281:0.1219781 11450:0.31890559 11659:0.12358224 12137:0.12537552 
2 35:0.21488015 101:0.24868922 102:0.11916874 108:0.12271742 131:0.10889663 141:0.11949538 197:0.12158196 256:0.13341053 282:0.13410545 487:0.19903592 530:0.072234786 628:0.12158196 739:0.13557601 860:0.12914672 1411:0.4195195 1462:0.13890755 2197:0.14294524 3784:0.43601055 4500:0.12016591 5875:0.11853175 6332:0.092042492 7373:0.13557601 7896:0.12612338 10674:0.30252656 11649:0.31019537 14338:0.1628453 
0.3796970555468216 40:0.12472555 162:0.18914381 165:0.10528652 354:0.16951208 524:0.18260411 525:0.22054204 547:0.29015273 754:0.10564717 864:0.16249182 923:0.12171918 1419:0.13317963 3330:0.28847566 3334:0.21010813 4382:0.1666542 4402:0.19130509 4645:0.13574432 5904:0.10175314 5987:0.20273975 6288:0.17206953 7517:0.18345614 7647:0.13835166 7900:0.19963496 8245:0.22453275 8394:0.26327475 9373:0.18018321 11922:0.24549708 12645:0.11027102 13602:0.25309811 
0.3566354340170667 232:0.36955443 3785:0.53653034 7323:0.4977303 11817:0.57256377 
0.6355909568363801 169:0.15100673 216:0.4553744 326:0.12970379 694:0.13178921 891:0.5106367 1147:0.41253805 3646:0.18683347 3745:0.15958486 3748:0.14763745 5631:0.22041029 5921:0.21688134 12037:0.35624862 
2 4:0.068246093 9:0.082494797 15:0.068875037 43:0.086720244 96:0.17955786 124:0.16023394 128:0.083775193 145:0.072240559 160:0.073331044 165:0.36482208 175:0.10207025 223:0.071224138 248:0.19110576 249:0.097763215 397:0.1494495 420:0.15733089 490:0.40163919 520:0.11200077 530:0.11319512 532:0.093627284 544:0.15018887 561:0.11114502 694:0.060503803 885:0.26065161 1002:0.23989015 1018:0.094152654 1029:0.12233606 1034:0.088626708 1630:0.22229004 1647:0.049791145 1657:0.079909027 1662:0.091921367 2104:0.081202335 2132:0.2041405 3412:0.070110502 3699:0.085622364 3955:0.067238455 4262:0.076424372 4445:0.11114502 4648:0.096460523 5557:0.088082229 5629:0.077352481 6066:0.084181685 6411:0.075320708 7133:0.20722199 7785:0.11851814 7901:0.098820467 8139:0.081090189 11473:0.093371355 
0.8516278466722675 120:0.725946 1035:0.37044647 6049:0.57945821 
0.5160907413867085 71:0.050648977 307:0.11803377 625:0.10261085 754:0.37452974 1062:0.62462189 4467:0.32422898 5448:0.097662404 5758:0.44147025 5932:0.17827201 6006:0.16763341 11995:0.20388496 13817:0.17759335 
1.533302609534706 113:0.18839193 165:0.14466254 299:0.26688891 403:0.30412717 405:0.22296623 855:0.2235599 1694:0.20466842 1697:0.25917116 3370:0.32202898 3955:0.18663399 4550:0.34775407 5621:0.25388704 5658:0.248106 6945:0.37100973 7632:0.21903228 
0.5723979144001897 76:0.28205396 186:0.19445324 4350:0.32438249 5568:0.3389048 7399:0.37200216 7853:0.38114345 12467:0.4317423 12709:0.4387433 
0.2845063861598504 334:0.75421096 12620:0.65663218 
0.3218099362189881 13:0.13687065 16:0.27343423 27:0.27117708 60:0.17045215 130:0.18200041 219:0.20199633 630:0.45067502 752:0.18713477 930:0.14507286 949:0.13493006 1658:0.15168095 1728:0.1500123 2015:0.18533003 2118:0.22413226 3764:0.14820629 4294:0.19463446 4337:0.13588562 6403:0.099700934 7365:0.18329091 8930:0.25002963 9157:0.21584466 11468:0.14966581 12352:0.26297832 
0.287141796124463 165:0.25979983 447:0.45268735 5446:0.43148425 7142:0.52378555 7932:0.38960481 10253:0.33949425 
0.1298673508681976 298:0.20004231 323:0.10981651 1038:0.14878202 1419:0.14199857 1430:0.14370331 2078:0.32887726 2139:0.32513239 3301:0.17234331 3312:0.14921634 6249:0.21985434 6456:0.19606832 7379:0.18475379 7919:0.39800393 11090:0.51671167 12700:0.26985786 
0.7359444416659523 257:0.20395464 1035:0.23918757 1416:0.3277072 1497:0.45120215 2106:0.26423467 2137:0.34667952 4366:0.30584205 8029:0.40966608 8869:0.37261792 
0.3255516874137214 71:0.071278399 84:0.066394562 99:0.066271152 169:0.34936106 204:0.16908605 208:0.15397535 755:0.25605822 1029:0.15412386 1432:0.20266895 1612:0.25186241 3421:0.19907352 3903:0.17845602 5520:0.16986849 6289:0.25834518 6548:0.33678883 8590:0.32837109 8961:0.19134797 12399:0.31064095 12437:0.31064095 
2 10:0.29906476 11:0.082155372 16:0.097335118 25:0.077792045 29:0.10429783 44:0.12119636 160:0.22272613 208:0.092802377 245:0.11983631 268:0.21310775 334:0.1087864 345:0.13002909 415:0.29491188 557:0.12935035 881:0.28596697 900:0.18454825 949:0.096062828 1023:0.094614805 1043:0.15302911 1647:0.075614559 1708:0.16755939 2130:0.13695593 3853:0.18215275 3859:0.3643055 4682:0.33511879 5591:0.16639318 5970:0.12280953 6124:0.13169637 8308:0.12348828 9344:0.15432868 10258:0.14103903 12649:0.070845166 
1.377905489521549 19:0.30228681 120:0.29935506 1046:0.45178739 3901:0.40899836 8087:0.52327397 12024:0.41689577 
0.5434174108514406 17:0.16646293 218:0.22015704 582:0.11606085 616:0.1417811 943:0.19956416 1023:0.13316027 1036:0.19455413 1506:0.21449545 3293:0.17237421 3691:0.19549534 4297:0.18500269 6039:0.19746512 6066:0.35984585 6107:0.27777122 6446:0.15848547 7367:0.14556116 7647:0.14637388 7890:0.51782078 10945:0.11412563 13911:0.22834661 
0.1805267197116992 11:0.11011489 41:0.14926269 97:0.16741965 326:0.24240906 445:0.22623166 1077:0.15692123 3339:0.14131954 4310:0.17821882 4311:0.17821882 4322:0.33683777 4613:0.16307519 4670:0.34856244 5997:0.17553806 6287:0.2026695 7232:0.35643763 7383:0.20041113 7448:0.18115834 7642:0.19969407 7828:0.22153408 7880:0.22153408 9569:0.1438197 11006:0.16528441 
1.943238743055761 40:0.16934462 48:0.18299388 71:0.077592223 84:0.072275776 99:0.072141435 311:0.22764169 353:0.19747345 504:0.15476515 524:0.24792853 616:0.18195127 625:0.15719574 798:0.28387961 1023:0.17088795 3929:0.24792853 4198:0.32508016 5464:0.27105196 6509:0.3764867 9878:0.1845482 11985:0.31234367 12652:0.25212861 
0.4448305943135629 186:0.26471926 530:0.26982323 10959:0.92580729 
2 6:0.23292793 48:0.099648255 85:0.29306946 102:0.13946089 182:0.16864174 209:0.14653473 211:0.49095563 340:0.16600791 465:0.14185909 736:0.12977109 788:0.08190116 860:0.15113793 863:0.11182927 1014:0.11250017 1510:0.16728607 1966:0.19964161 3326:0.30227585 3686:0.10865134 4060:0.38114946 4170:0.15534309 6114:0.12196791 6120:0.1346996 7305:0.17915181 7921:0.12145383 
0.9417014274064552 33:0.19565031 505:0.3206961 790:0.29143149 1659:0.29744371 3854:0.35107014 3944:0.22321203 4075:0.37345476 4480:0.25150449 5739:0.36084839 6403:0.13680566 7929:0.20746409 8902:0.34308072 
0.4933468834006778 27:0.097063358 181:0.1339636 203:0.11733332 736:0.13267165 930:0.10385287 1029:0.093403566 1060:0.14296884 1128:0.19900248 1434:0.084239485 1477:0.096334228 3386:0.11322948 3570:0.12469406 4481:0.14777651 5640:0.25193907 5644:0.074699748 5827:0.12094322 6465:0.15881522 7133:0.10547598 7781:0.5429315 7816:0.1661943 9110:0.14502983 9878:0.10274084 11036:0.10586151 11770:0.5566944 
0.1281521331852812 232:0.45438647 241:0.26027599 912:0.24446286 4446:0.64387894 8054:0.50144508 
0.03839251344872328 1:0.062639839 20:0.10033755 39:0.094275501 53:0.090823629 104:0.11146809 116:0.10285557 176:0.10756444 352:0.10902604 411:0.12229193 461:0.12126214 465:0.11429385 475:0.20607328 493:0.12454693 797:0.09308479 873:0.13703501 878:0.31426139 913:0.15955528 923:0.072505978 948:0.14956655 1170:0.19158469 1417:0.085779733 1425:0.14105527 1618:0.068694156 1726:0.11007077 1741:0.11848488 2151:0.099570775 3424:0.1207685 3645:0.066578132 4630:0.10756444 5776:0.13827802 6005:0.13013483 6403:0.1124934 7126:0.079529133 7458:0.11724187 8875:0.11330186 9129:0.12515772 9561:0.19015273 9595:0.12282977 10105:0.14105527 10769:0.14262291 10943:0.088980923 10958:0.23369178 12652:0.33185029 12689:0.12783172 12986:0.12176968 13728:0.30153219 14134:0.15354335 
2 1:0.10452208 4:0.27407515 5:0.12957768 8:0.14568607 27:0.25527496 82:0.200715 121:0.17348698 128:0.33643976 130:0.17132771 149:0.13221373 165:0.10465138 357:0.13466057 397:0.15004666 420:0.21061273 475:0.34385796 880:0.1440807 894:0.23536762 1460:0.21854408 1662:0.18457733 3295:0.36644177 6014:0.13141414 7790:0.23798342 
0.4815937217439013 33:0.16729652 330:0.20351211 387:0.2602981 1030:0.20933548 1534:0.18190004 1632:0.23914518 3736:0.22044799 3927:0.22227615 3939:0.18575942 4251:0.2689837 6147:0.19026123 7366:0.44644962 8674:0.32616501 8740:0.20867809 9138:0.19189061 9141:0.22836574 12023:0.18927771 12649:0.1167548 
0.008644466612438801 351:0.24050509 754:0.1357833 862:0.29856104 1518:0.16813099 1650:0.24309756 2183:0.21324841 3700:0.19596231 3765:0.2117238 6475:0.54008401 11036:0.36000396 11486:0.19289687 11704:0.31552574 12031:0.24587535 
1.53046377089887 11:0.13468264 17:0.19389991 26:0.20823511 353:0.35847759 741:0.29506234 1043:0.25087056 3397:0.20301142 6122:0.21589841 6509:0.170861 7518:0.1906846 8070:0.549382 8326:0.32445053 9116:0.24885531 
0.08374018369234827 672:0.32099198 3288:0.45633837 7495:0.39545709 7498:0.39545709 13928:0.3910214 13948:0.47228072 
0.5167959726863528 923:0.17336892 1057:0.66127266 2185:0.32025016 6492:0.55159599 12277:0.35474412 
1.74816267311847 7:0.099261463 10:0.093780244 40:0.17640725 74:0.1229811 75:0.14518241 86:0.12533389 241:0.064186039 289:0.12769825 344:0.13918709 386:0.14858461 861:0.12189515 1647:0.071133274 1655:0.093780244 1694:0.10534126 2066:0.080063742 2095:0.16130468 3381:0.16574584 3385:0.14395986 3490:0.18618308 3937:0.11218926 4673:0.088423902 5232:0.19710902 5664:0.3939657 6063:0.12661504 7195:0.12086167 7448:0.12714979 7914:0.19432568 8345:0.18618308 9170:0.10338275 9582:0.091928659 10438:0.18228344 10597:0.18228344 12673:0.51191138 
0.01942618026554834 3946:0.48305159 4610:0.63430174 5460:0.60359131 
0.1619754782978278 1519:0.46821624 3407:0.36243657 4618:0.53750009 5639:0.42620656 11486:0.42291241 
1.378658678434543 169:0.12851531 964:0.097371657 2110:0.90303384 2187:0.13334977 3313:0.14488528 9991:0.21729043 10259:0.15338509 12645:0.10118764 12682:0.19692004 
0.1956655118867237 1469:0.3160955 3293:0.36221363 4296:0.35842446 4458:0.44718415 4656:0.42655964 7932:0.35101842 9124:0.36779902 
0.2422795110362825 67:0.24352876 398:0.20865227 916:0.18889049 952:0.1857457 1414:0.1824619 1518:0.1752566 2116:0.21330924 3416:0.20204384 3693:0.14686669 3778:0.23791323 4236:0.20958919 4608:0.20283838 8011:0.47119434 9766:0.31399789 11022:0.29087936 11702:0.32889813 
0.1896132108927293 11:0.1720788 18:0.10993717 29:0.10922869 149:0.10471994 194:0.11184974 357:0.10665796 609:0.12692611 912:0.067114042 942:0.10065841 1467:0.11694755 1518:0.10298746 2136:0.14850066 3719:0.13818276 3902:0.13715847 4151:0.26480613 4162:0.13260923 4189:0.14442996 4261:0.11264205 4337:0.10131682 4659:0.3021086 4667:0.28557432 5952:0.12550176 6343:0.17957299 7398:0.16894638 8034:0.17548104 8114:0.17548104 8140:0.21693088 8309:0.24919487 9568:0.14583102 9878:0.10700865 9995:0.18642303 11425:0.13871192 12010:0.18110973 12321:0.19607762 12645:0.086813333 13294:0.19925716 13747:0.19925716 
2 14:0.10816236 57:0.19177955 71:0.039993635 84:0.03725336 99:0.037184116 143:0.29668095 186:0.078502274 336:0.11920851 610:0.57721488 1413:0.11882013 1470:0.12402984 2045:0.16755722 2138:0.35250587 3339:0.098156074 3914:0.12021184 4402:0.13387984 4427:0.16571552 5151:0.19505818 6392:0.13467866 6449:0.28046385 7135:0.1263696 8256:0.15713334 9028:0.15962637 9123:0.10770221 9560:0.11371563 11084:0.16957458 
0.6084765937907546 55:0.066509365 81:0.088111918 93:0.34860039 102:0.082943004 118:0.33648284 131:0.15158695 195:0.15586332 209:0.087150098 327:0.14570433 488:0.093841069 1076:0.14328459 1158:0.10528122 1165:0.10528122 1412:0.088111918 1422:0.72886816 1447:0.052501589 1621:0.067816299 3659:0.088794088 3957:0.1668033 4265:0.060128216 6554:0.1187349 7114:0.072133104 8138:0.057997258 12006:0.10115635 
2 18:0.20781825 20:0.25067607 39:0.23553109 144:0.28071623 487:0.11721323 527:0.24379353 721:0.12940217 1032:0.10120806 1042:0.11833175 1388:0.12027696 1456:0.15147627 1565:0.19180079 1700:0.15634249 2057:0.096728423 2199:0.50508692 3428:0.19590404 3925:0.23581153 4483:0.15412704 5528:0.13783485 6495:0.14408311 6572:0.200926 11428:0.11667415 12897:0.18833155 12958:0.18833155 
0.7535083436571134 27:0.18710337 71:0.04163397 84:0.038781303 99:0.038709219 357:0.098699247 754:0.15393361 1032:0.099089246 1695:0.11397232 1749:0.16759549 2066:0.082480348 2101:0.16617343 3423:0.14770136 3749:0.12070122 3962:0.10944549 4009:0.18778539 6100:0.14711374 7437:0.13043673 7541:0.12018274 7612:0.16357815 9273:0.16759549 10926:0.11176704 11035:0.55260274 11066:0.14020249 11849:0.17885122 11953:0.3144785 12347:0.1814465 12518:0.1814465 12816:0.18438878 13862:0.28580791 
0.187378352361275 420:0.3251022 548:0.35858548 1694:0.45709344 6323:0.48977347 7517:0.56294987 
0.612888376499523 25:0.29876507 530:0.33010009 1477:0.36795066 1656:0.36393305 3307:0.4117763 3390:0.60363788 
0.1448093319560503 1031:0.29104017 1625:0.31915401 3390:0.45207059 6454:0.37077217 8119:0.48194022 8782:0.4892138 
1.350904564119148 149:0.10805499 165:0.17105795 248:0.31362015 257:0.18029316 357:0.11005474 848:0.52008973 1420:0.19236011 1626:0.10369716 3526:0.21386992 3697:0.12623769 5697:0.20232218 5879:0.15201144 5960:0.16403939 5990:0.098336964 6308:0.16826166 7371:0.23590185 7960:0.1798094 9124:0.13439384 12645:0.17915622 12787:0.41120594 
0.01113309671141374 147:0.41883863 326:0.27266832 1423:0.53674011 1844:0.32509108 12034:0.39138353 12615:0.45085581 
0.5907600118410768 1:0.17099176 194:0.23101983 519:0.36791714 1740:0.27221593 4337:0.20926465 5844:0.22806984 5936:0.25353062 7135:0.29362517 7150:0.34516499 9136:0.23917068 9137:0.28126535 9353:0.29053103 13779:0.34894999 
0.1280011101648379 15:0.22686771 29:0.11311047 57:0.11170556 80:0.13710843 84:0.17359129 99:0.086634317 194:0.23164934 214:0.15658763 352:0.14921298 405:0.13229606 530:0.18642688 694:0.099646836 725:0.15027749 736:0.14309353 737:0.28618705 1018:0.31012973 1061:0.15177233 1373:0.096919002 1393:0.14786155 1397:0.14991752 1486:0.1074004 1736:0.17045486 3909:0.16275253 4235:0.14536247 4247:0.30055498 4262:0.12586724 4413:0.19304817 4452:0.13753726 4467:0.19883062 5580:0.135464 6274:0.12996187 7208:0.18445984 7518:0.063072129 8003:0.18045256 11936:0.10183464 
0.1053117344455599 11:0.079144825 16:0.093768315 625:0.083844579 686:0.13414517 917:0.12033249 1447:0.086466168 1617:0.096506274 1662:0.13447958 2022:0.10164824 2072:0.09766738 3569:0.81728618 3645:0.24282212 3661:0.12939079 4148:0.12593823 4295:0.13623276 5624:0.1338158 5952:0.11544496 7589:0.15723455 10946:0.12687041 10965:0.096685564 11017:0.11847088 12672:0.13105511 
0.3697375213763173 940:0.52562691 2066:0.27571926 7172:0.51695129 7414:0.52262006 10944:0.32760477 
1.36597502630415 25:0.16310527 40:0.19658567 73:0.22982427 196:0.20228602 277:0.3465479 1144:0.25411035 2106:0.22660077 2173:0.29124175 3896:0.22222423 4146:0.30519352 6317:0.32798183 7126:0.21043011 7232:0.27878941 7630:0.26151328 9312:0.2253343 10945:0.17002015 
0.1071530434939484 489:0.19482283 582:0.12843223 994:0.39691557 1468:0.19126519 3995:0.51153605 6151:0.17281434 11476:0.40290388 12658:0.37418905 13798:0.39691557 
0.1503708333881878 25:0.14966713 49:0.28275544 245:0.23055771 1434:0.32236752 1453:0.17444729 3664:0.19075938 3773:0.21984755 5895:0.28980982 6494:0.28004882 7137:0.19492855 7219:0.32723937 9325:0.27918259 9874:0.25948937 9878:0.19658424 13050:0.36605281 
0.05529208192148553 1447:0.30345199 3421:0.40565024 4371:0.47683666 4653:0.32220622 6490:0.52642755 13807:0.3674898 
0.1297968565639853 525:0.37790436 1617:0.45669461 3702:0.601519 9114:0.53553079 
2 4:0.11984167 10:0.23054236 22:0.26956787 40:0.1084166 99:0.046185875 122:0.22548006 131:0.14982897 143:0.12283443 183:0.14931345 227:0.1982697 257:0.096460414 307:0.11576524 322:0.14105748 352:0.15909474 420:0.09209219 431:0.17769071 502:0.16308577 555:0.10437933 859:0.12631839 1406:0.19240319 1432:0.1412446 1485:0.13420291 1626:0.11096008 1694:0.12948155 1831:0.11583658 2023:0.17622976 2187:0.12631839 3327:0.13823165 3691:0.16061924 3945:0.14529727 4394:0.12094611 6403:0.08207722 6504:0.16884475 7126:0.23210357 7375:0.18653667 7449:0.15628778 7518:0.13449827 7737:0.14982897 8902:0.20583295 9577:0.15563049 12645:0.095852128 12673:0.15730559 
0.5036442914887382 546:0.96714975 1832:0.1854349 2129:0.1738829 
0.09907493403942466 13:0.088257448 217:0.1229453 348:0.14970105 1078:0.13803743 1656:0.17165293 2118:0.1445258 2130:0.24808767 4187:0.32027254 6323:0.21734305 6398:0.094939698 6450:0.13643199 7315:0.13311105 7620:0.14530298 8156:0.12376366 8244:0.15287542 9878:0.092544757 10131:0.64490018 11473:0.12842848 12631:0.29060596 13912:0.073469137 13915:0.13860165 13923:0.13695336 
0.02411009528296317 754:0.16396711 1447:0.18530832 3679:0.22460004 4872:0.43258791 7930:0.24864094 9050:0.70801889 10713:0.371598 
0.02731882373835247 198:0.60596861 3937:0.31099465 4325:0.33503504 7449:0.35246604 9904:0.28160912 10680:0.46936115 
1.760766780673775 41:0.18155088 146:0.19107852 280:0.22873467 364:0.20910101 529:0.21851534 547:0.17779414 672:0.21469947 2113:0.19657986 3900:0.11940709 4090:0.15794541 4160:0.12144573 4369:0.10675504 4647:0.59703543 5992:0.23444842 6014:0.16202823 6075:0.11622218 6116:0.087883293 6507:0.11902495 7077:0.096636208 7628:0.19418767 7693:0.13386578 9362:0.13472793 10667:0.14671189 12666:0.11688415 13801:0.11688415 
1.069862865510492 18:0.11097706 203:0.12336325 1021:0.4873706 1029:0.098203708 1062:0.28004799 1432:0.12913537 1681:0.19256875 2178:0.12446856 3712:0.13922714 7526:0.11444152 8303:0.15588788 12328:0.39586463 12822:0.60342578 
0.3254527915091115 15:0.1071805 17:0.12119999 33:0.10402148 56:0.12467474 60:0.24870229 200:0.1423382 219:0.14736379 354:0.13057647 657:0.12205768 694:0.2824606 752:0.27304347 930:0.21167203 1032:0.10477199 1040:0.16029413 2121:0.1549455 3327:0.12249867 3339:0.32412613 5453:0.14869547 5578:0.1423382 5588:0.2679808 5662:0.11370421 5911:0.13347854 6151:0.11370421 6214:0.18910829 6239:0.15059841 8277:0.12435115 9565:0.16105807 9570:0.13395893 10175:0.18240586 10446:0.19855484 11449:0.16266547 11476:0.13254649 14491:0.19855484 
0.406382820647059 4265:0.23048743 6283:0.73193606 8157:0.64120601 
0.1382970953819929 214:0.11589869 754:0.12749703 1656:0.15212671 2115:0.19769706 3749:0.3998879 4338:0.21431162 4473:0.22889718 4656:0.23155293 5574:0.20765682 5614:0.21839667 5644:0.11926474 6326:0.23155293 7107:0.25484337 7518:0.093365959 7636:0.3246835 7916:0.211822 9377:0.28014351 9567:0.20457044 13537:0.30544366 
0.2500409273716137 5644:0.30335986 12644:0.53096411 14356:0.79123316 
0.6548016369461979 40:0.22155059 343:0.35461253 1627:0.32587402 4403:0.33981614 6151:0.26219824 10496:0.45786105 12032:0.33981614 13993:0.45786105 
0.1005856671537754 241:0.087912058 636:0.35708503 858:0.10880968 922:0.18936294 1433:0.14111339 1603:0.14159762 1831:0.38722688 2131:0.15068362 3306:0.15275237 3571:0.14922262 3645:0.21651385 3689:0.12663296 3938:0.15051764 5661:0.15459543 5971:0.16264508 6073:0.18371182 7436:0.1734176 7518:0.14987017 8152:0.16214855 8335:0.51000927 11942:0.16874716 12975:0.14753058 
0.120532256389792 1613:0.60636837 7871:0.79518388 
0.2357576899106072 251:0.28521697 1442:0.23780563 2092:0.40089956 4385:0.28228333 5657:0.31212108 7880:0.38644389 9686:0.41193741 14038:0.45303923 
2 1:0.15444476 20:0.24739222 39:0.23244563 104:0.13741784 109:0.24739222 125:0.13889911 144:0.13851943 156:0.1223837 178:0.15759092 219:0.28097252 414:0.11554354 499:0.17582549 666:0.1721151 721:0.12770701 930:0.1008966 1183:0.16368636 1342:0.16893673 2072:0.099039102 2091:0.14175579 2174:0.11735482 2179:0.1471518 2187:0.10671698 3586:0.18028253 3625:0.12408578 3737:0.12408578 3811:0.11721012 4164:0.13348808 4236:0.11488442 4299:0.10159953 4485:0.15210798 5586:0.15588156 5588:0.085158009 6402:0.11349973 6683:0.19829388 8042:0.16368636 8118:0.16368636 9650:0.12468341 9920:0.11399332 10061:0.1738929 10258:0.137779 13496:0.18586441 
0.3933904096559715 870:0.38142254 1035:0.21577612 1695:0.25938413 3362:0.37227966 3691:0.30637042 3955:0.22521485 5464:0.33099864 6398:0.23119556 7122:0.32206002 7425:0.35580617 12022:0.25331501 
0.0591136083325664 120:0.11831447 326:0.11161444 414:0.14598679 858:0.20846535 1380:0.15993026 1404:0.16135507 3350:0.1323361 3750:0.13745255 3908:0.37046042 4164:0.16865934 4625:0.16754412 5530:0.14418623 5627:0.54785351 7112:0.19593244 7632:0.14791085 7748:0.16254942 8329:0.24427805 9137:0.16049154 10235:0.18523021 11771:0.22778313 12649:0.087442352 13896:0.20025834 
0.6456887127046543 1067:0.30457146 3621:0.5764979 5792:0.54511706 9578:0.33311245 12045:0.40837469 
2 7:0.30165609 11:0.093949563 61:0.14006044 72:0.073583071 115:0.22899035 166:0.070608101 169:0.060197883 187:0.22112243 210:0.065076989 304:0.26038821 305:0.08679607 307:0.057244034 411:0.088242018 415:0.084312326 504:0.048994761 522:0.16790942 548:0.050228203 673:0.075301322 788:0.047613858 854:0.09390121 872:0.09888016 879:0.076483967 920:0.08271848 921:0.08714276 1022:0.087865176 1029:0.053113705 1418:0.084312326 1474:0.089442883 1646:0.3661153 1722:0.084032743 2056:0.12666604 2088:0.094505976 2124:0.086458385 2138:0.054126522 3329:0.075301322 3693:0.047119497 3736:0.076483967 3815:0.18247771 3864:0.10415126 3896:0.060602065 3903:0.061498981 4262:0.066361162 4681:0.095807074 5629:0.067167062 5633:0.087865176 5656:0.072628504 6113:0.14181393 6154:0.10552096 6589:0.11606316 6929:0.11606316 7232:0.076027775 7346:0.18345897 8685:0.11316226 8740:0.2896017 8962:0.16806549 9318:0.062890421 9648:0.10074049 10313:0.11079206 10546:0.11079206 11016:0.07558705 12017:0.09888016 14418:0.11079206 
1.808938076982145 15:0.25383091 19:0.1174514 65:0.15112246 90:0.40611846 95:0.13428129 128:0.15437185 165:0.09603637 172:0.13837588 186:0.30695719 214:0.087599023 307:0.12147888 397:0.13769467 414:0.14351632 618:0.13082131 621:0.17349431 682:0.13500416 725:0.16813795 949:0.11656139 1018:0.17349431 1457:0.10694131 1486:0.12016492 4295:0.17159094 4306:0.16938273 4327:0.15920535 4609:0.11539769 5099:0.25423684 5952:0.14540782 7349:0.19466125 7446:0.15412662 7525:0.1430222 9561:0.14558638 11942:0.15891342 12669:0.18209564 
0.06704694948176404 620:0.43512594 1480:0.58604457 1721:0.53687136 3571:0.42306775 
0.08979150069191785 241:0.087965204 257:0.10754992 557:0.33353031 5530:0.15060864 5596:0.17865045 5628:0.19075209 5969:0.1964899 5983:0.1964899 7188:0.18886028 7380:0.09494918 7734:0.57832337 9177:0.22295544 9302:0.22295544 9357:0.21309251 11860:0.23792915 12328:0.24138169 14140:0.24981445 
0.5566002846067492 473:0.32214669 504:0.17477047 6182:0.75281305 6236:0.29246617 7944:0.33937724 9152:0.31342612 
0.7854847522950064 41:0.49874291 529:0.2000963 857:0.17933767 2113:0.1800098 3880:0.24674296 5296:0.31279041 5992:0.21468635 7380:0.10994306 7885:0.2116807 8045:0.44174931 11938:0.20445377 12027:0.188443 12037:0.18539312 12084:0.27949942 
0.1676701184449362 143:0.12333118 323:0.17978134 858:0.098044172 1647:0.087787955 2094:0.19907151 3346:0.17359663 3399:0.14107219 3718:0.15318702 3903:0.12487302 4190:0.3202251 4333:0.12547525 5574:0.15017481 5891:0.34976904 6344:0.19907151 6492:0.16899428 7459:0.17177545 7673:0.1906654 7879:0.19189337 8592:0.22977477 9273:0.20077511 10129:0.20666534 11172:0.21147802 12026:0.31873787 13837:0.19907151 14169:0.22496209 
1.279225526622971 73:0.37365719 466:0.44018217 6501:0.55308164 9638:0.60060025 
0.6652311576490294 625:0.21402439 3382:0.65524841 3771:0.23160603 7539:0.30627003 9654:0.61432923 
1.271274089076597 11:0.058225296 25:0.055132912 335:0.11139292 501:0.19077597 504:0.060729063 524:0.097285901 620:0.084419004 927:0.37694606 1403:0.18530057 1486:0.070186584 1606:0.11639066 1655:0.07065123 3435:0.14026476 3759:0.073865738 3915:0.095588155 3946:0.071486779 4534:0.13484295 4545:0.40452886 5492:0.12486795 5767:0.13269127 5793:0.1236738 5839:0.10845505 5858:0.11714027 6151:0.078641474 6402:0.082343033 7518:0.041217885 8713:0.14026476 8740:0.089740413 9358:0.3514208 9649:0.12486795 10210:0.06997973 11006:0.08739721 11939:0.40018576 12649:0.050209507 12928:0.26968591 
0.7882240013056216 353:0.43429141 1066:0.34313252 1152:0.71492914 4261:0.42723222 
0.6485471747014822 1:0.096443897 13:0.11888643 21:0.13791399 43:0.16067529 53:0.13983728 68:0.10713137 71:0.052413256 84:0.048822016 99:0.048731269 189:0.2016535 263:0.18051233 582:0.100611 1374:0.34324537 1454:0.32135058 2133:0.18911578 3321:0.19913001 3336:0.15045171 3583:0.22515688 3627:0.15261994 3629:0.19085005 3705:0.1603754 3885:0.2016535 4673:0.11467733 5538:0.18828769 5588:0.10635479 5640:0.15284638 6437:0.16222537 7526:0.13207141 11734:0.22515688 11967:0.17347265 12161:0.22842409 13189:0.23212815 
0.6362054400359489 217:0.21446415 260:0.22590352 547:0.34460962 1363:0.2958038 1603:0.17362723 3570:0.19592833 4160:0.23539228 4385:0.19075081 4610:0.20926158 6113:0.19592833 6232:0.29157284 6338:0.37959837 7636:0.15976762 11443:0.23456646 11739:0.29157284 12620:0.14963771 12979:0.19273319 
0.5809823533345823 71:0.083522193 330:0.1200416 522:0.19030975 626:0.11751294 942:0.093431796 994:0.12387119 1414:0.09952376 1442:0.098871747 1467:0.10855149 2022:0.10256976 2109:0.22637332 3303:0.11246195 3423:0.14815236 3738:0.11970924 4239:0.39760793 4394:0.10167664 4777:0.20367849 5588:0.16947975 7646:0.60189518 7914:0.10040119 9133:0.21710297 10963:0.1433403 11036:0.20468615 11935:0.13003122 11946:0.15771937 
0.2857727895705202 11417:1 
0.9014169887053461 19:0.23179868 25:0.18628904 71:0.10287692 84:0.095828026 95:0.26501367 99:0.095649907 165:0.1895346 262:0.35431024 491:0.37638645 1722:0.35194262 2055:0.24124308 3319:0.32032713 3460:0.47394173 
0.8202466244376655 47:0.17077044 90:0.43561996 165:0.1030127 190:0.38646767 194:0.1390042 196:0.12557045 405:0.15877195 568:0.09852406 609:0.15774077 725:0.18035193 948:0.12283092 1624:0.2017469 1725:0.14194322 3750:0.14494244 4276:0.22137506 4649:0.190659 5519:0.28581915 6059:0.19917207 6239:0.19128201 6392:0.18829038 7625:0.17629188 7992:0.21656581 12985:0.2000057 
0.8003448182743256 210:0.23075917 243:0.27767779 522:0.29769845 1023:0.095915638 1470:0.13506147 3339:0.1068864 3962:0.11448437 4115:0.19643106 4375:0.68655962 4651:0.12856513 6099:0.15388688 7262:0.18465712 9141:0.28094851 11468:0.10801886 11925:0.18708556 11940:0.1385253 
1.126166066772422 1:0.065036794 10:0.24605087 24:0.10117768 25:0.064002192 74:0.10755502 140:0.11698102 196:0.079376645 326:0.14879846 357:0.083789872 414:0.097310926 523:0.48377907 801:0.21358281 858:0.06947874 878:0.10876227 1425:0.14645284 1602:0.12810555 1698:0.11666125 1734:0.087200361 2124:0.12440504 3414:0.10605775 3742:0.093002088 3962:0.0929128 4265:0.084571725 4397:0.10322568 4434:0.14645284 4625:0.11168047 4651:0.1043404 4830:0.17238473 5572:0.10814891 5868:0.11050361 5904:0.12586388 6014:0.081769847 7135:0.11168047 7288:0.14986333 7631:0.1026173 7741:0.19117926 8019:0.12393145 8173:0.13886825 8936:0.11831772 9073:0.14107149 9727:0.14495557 10928:0.1293128 11001:0.14356932 11039:0.12994696 11468:0.08766554 11773:0.1518342 11936:0.077255187 12043:0.10036425 13442:0.15653526 13921:0.12440504 
1.312228477714239 15:0.35249747 16:0.32802762 57:0.23141785 68:0.098641796 84:0.13485941 99:0.13460875 171:0.14739336 319:0.13333416 353:0.12282194 1172:0.13703736 1380:0.14555886 1449:0.31857857 1476:0.11098684 1487:0.20731443 3274:0.21032273 3570:0.13930917 3709:0.12442883 4152:0.1420222 5485:0.19792236 6328:0.16202845 6403:0.079738028 7949:0.18691971 9569:0.24107818 9581:0.32806539 9872:0.13758665 10247:0.11191812 11036:0.1182693 
0.0222659755553867 10:0.11054635 13:0.10805812 16:0.21587381 21:0.12535263 83:0.16833393 257:0.46253306 268:0.11815977 504:0.09502136 752:0.14774118 856:0.15681782 949:0.10652604 1457:0.097734196 2107:0.11889596 4051:0.2148722 4633:0.13674839 7263:0.20199291 7524:0.13256569 9152:0.17040737 9356:0.54986 9878:0.11330729 9898:0.12440556 10925:0.11843333 11480:0.15994552 12819:0.21098565 
1.831801437635999 40:0.1052681 48:0.22750553 155:0.1563386 156:0.14065579 165:0.088861599 268:0.1196319 311:0.14150676 1032:0.11479482 1187:0.15595473 1451:0.16500514 1626:0.32321313 2143:0.1235975 3721:0.18681565 4163:0.15341807 4241:0.12934733 4609:0.10677645 4632:0.14194313 5536:0.1732704 5569:0.49501542 5832:0.16242448 5911:0.14624753 6288:0.14522632 6504:0.16394137 7133:0.11777297 9322:0.28567779 11064:0.16242448 12649:0.079540434 13644:0.21361427 13807:0.12203733 
1.426196948286336 48:0.10694147 90:0.35327697 125:0.15007822 130:0.13676689 588:0.50782935 737:0.13926898 1382:0.27031749 1393:0.14390957 1467:0.11786685 1700:0.33342518 2001:0.21425331 3991:0.17334221 4327:0.13849059 7737:0.41030068 9448:0.1841891 13767:0.17027442 
0.2682020398065874 214:0.049097479 223:0.073559673 334:0.073983328 487:0.080531421 530:0.1753604 544:0.077556881 3339:0.071705327 5904:0.052020045 7314:0.84333816 7518:0.039552072 7630:0.084824287 9312:0.073089296 10830:0.1224045 10925:0.36316403 10977:0.11867555 11819:0.12550736 12110:0.12732858 14455:0.13177685 
2 18:0.1061929 41:0.22531158 42:0.10275793 132:0.1548055 153:0.13643968 163:0.23382127 326:0.09147894 345:0.1315385 353:0.11060346 526:0.1315385 618:0.10906653 622:0.15126001 867:0.14724985 914:0.14017764 998:0.16720252 1361:0.56819868 4609:0.096207761 5480:0.17823279 5749:0.18939956 6482:0.15977867 6539:0.20534207 7130:0.28103679 7538:0.12373329 8987:0.17345705 9581:0.14771451 10098:0.18007379 10948:0.15751453 
0.8842402786518595 117:0.39151989 469:0.29883495 1419:0.33405292 2052:0.38440902 2185:0.28198409 3903:0.35888306 4492:0.53827142 
0.09857591037973612 11:0.10104717 16:0.11971753 27:0.23745856 71:0.052838933 84:0.049218526 99:0.049127042 143:0.13065666 420:0.19591344 524:0.16883495 527:0.15146413 858:0.10386769 949:0.11815267 1434:0.10304294 1443:0.12039631 1710:0.20609002 2111:0.16354289 2171:0.20199033 3709:0.13623528 3767:0.25101718 4295:0.17393348 4385:0.14849692 6034:0.21270052 6315:0.3376699 6426:0.193317 7518:0.071531635 7914:0.12703431 8034:0.20609002 8885:0.21894062 9789:0.21670226 9972:0.21894062 12016:0.21270052 12649:0.087136158 12799:0.23401339 
0.215995995042902 2154:0.42832025 4412:0.42832025 5444:0.29124839 5657:0.32121631 7362:0.38602072 7819:0.39770489 9349:0.37134458 
0.1091951459371258 855:0.14680041 1063:0.15896643 1176:0.12370739 1622:0.18603966 3312:0.25253227 3421:0.14400397 3771:0.11303894 4228:0.21601861 4236:0.14114661 4304:0.16754166 4371:0.16927482 5554:0.12720719 5792:0.20943778 6030:0.2075551 6106:0.15103961 6133:0.18522503 7189:0.17581502 7622:0.15866153 7627:0.16256647 7746:0.16327529 8140:0.1243034 9080:0.20579397 9154:0.18443402 9591:0.18603966 10798:0.21601861 11350:0.21861944 11613:0.22149452 12641:0.19254542 13712:0.22835239 14505:0.23255886 
0.1440326202437948 66:0.13899922 1001:0.20782659 1419:0.22845297 2151:0.14336598 3261:0.21361513 3714:0.16456485 3717:0.16823938 3805:0.12752465 3813:0.18206079 3855:0.20782659 4653:0.10873491 6107:0.67555126 7622:0.1508287 7882:0.13558101 8870:0.17388732 10024:0.20309702 11199:0.20782659 13314:0.21707905 
0.2012758134661401 657:0.20812886 3769:0.23279249 4035:0.33856937 4696:0.29277676 4701:0.36610609 7630:0.2179359 7700:0.28695263 9009:0.29960387 10161:0.31103265 11953:0.28349592 12649:0.12378786 12655:0.21343368 13728:0.33244541 
0.1459107421747764 3323:0.23299114 5644:0.19174989 7627:0.34960656 8966:0.33502582 9938:0.45945163 11000:0.45040543 11962:0.38455347 12644:0.33561562 
1.815916570189678 4:0.22473487 5:0.21250101 53:0.24853471 586:0.3859913 738:0.34980567 886:0.36333576 1145:0.189558 3595:0.4001744 6112:0.2428122 8659:0.42915304 
0.00490364909063033 27:0.11261961 48:0.11820302 200:0.16205603 326:0.10550016 526:0.15169975 528:0.11560606 788:0.09715137 857:0.14015273 1023:0.11038332 1395:0.18426838 1434:0.097740464 1447:0.20942765 3412:0.24843383 3681:0.16877888 3704:0.18165721 3749:0.58121126 4449:0.13454766 5831:0.16877888 5907:0.16454461 7197:0.16981923 7380:0.17184142 7522:0.18004911 7601:0.19691902 7636:0.11797663 7729:0.17444404 8305:0.16285989 11951:0.18928812 
0.8468685183207112 71:0.048694199 84:0.04535778 99:0.045273472 120:0.65191184 187:0.14611477 204:0.11551199 382:0.18614602 1031:0.11469379 1145:0.099086417 1398:0.16447825 1757:0.13255685 2143:0.12477952 5504:0.19970394 6097:0.17418043 7198:0.16498858 7445:0.13085705 7931:0.1319777 8973:0.17345444 9409:0.19779411 9575:0.1413749 10035:0.20176672 10217:0.15352861 10357:0.21962977 11393:0.20646531 11431:0.1756968 12645:0.093958568 
0.06744463233892609 5:0.1199341 16:0.11912163 48:0.12399532 71:0.052575924 84:0.048973539 99:0.04888251 113:0.12614314 306:0.16541288 321:0.1382092 397:0.13887972 448:0.30353667 468:0.15941598 525:0.20289721 531:0.14577584 682:0.27233211 694:0.22489875 877:0.17260778 1393:0.16685868 2138:0.23170339 2143:0.1347265 3293:0.29978353 4425:0.21785083 4451:0.15520793 7381:0.16241084 8138:0.12134328 11997:0.42328358 12653:0.1708405 13859:0.14757164 
0.06361754334422333 530:0.41936324 4449:0.28134626 5479:0.30296236 6137:0.37649221 6200:0.45021431 8963:0.32566905 11910:0.45021431 
2 12:0.19602661 288:0.21596057 320:0.39361231 627:0.38271738 874:0.17821785 3409:0.17377034 3620:0.27207052 5460:0.18581082 5574:0.19069493 5843:0.22560337 6131:0.22751926 7394:0.23782583 7931:0.34331339 8973:0.22560337 12873:0.28049431 
0.008766669262165466 18:0.12556383 185:0.15665442 214:0.086353777 321:0.13508195 694:0.10990499 1172:0.14591529 1474:0.37422122 2085:0.19770238 3838:0.21787989 3959:0.51164004 4221:0.21528786 4346:0.18157359 4369:0.15665442 4381:0.13751901 4386:0.17637771 4691:0.20042422 5567:0.17579283 5904:0.091494053 6285:0.15812481 7367:0.12371187 9124:0.14875922 9325:0.17357154 9542:0.20872929 12000:0.20685298 
0.01687287507380681 25:0.33556132 528:0.42743784 5554:0.45718853 11019:0.7040413 
1.299758834022032 35:0.14803137 39:0.27552469 48:0.11731865 56:0.28176734 60:0.14051801 110:0.14926761 268:0.12338208 521:0.15718113 858:0.097785649 1061:0.16204959 1614:0.14279226 1616:0.16854868 1624:0.17948797 4297:0.15221075 4426:0.41224082 5588:0.10094031 7074:0.13980159 7135:0.15718113 7645:0.14339291 8165:0.15489038 9010:0.39709319 10965:0.11621386 13359:0.22031059 13934:0.31368285 
1.217976162487133 7:0.11455809 20:0.27495067 39:0.2583391 50:0.13351729 60:0.13175333 144:0.15394991 165:0.34372319 219:0.15613584 306:0.14674413 321:0.12261069 633:0.12418815 1017:0.15523811 1063:0.14380197 1373:0.097027281 1467:0.12123896 1615:0.15523811 3580:0.18192033 4237:0.28596722 4383:0.14019569 5599:0.15044538 6280:0.17720415 6403:0.077065207 6407:0.13995718 7464:0.14193303 7760:0.19541171 8124:0.18192033 8463:0.2148747 8964:0.13747533 9654:0.13561534 11965:0.15437188 13147:0.20656892 13385:0.20656892 
0.4701855374723148 25:0.22753007 1146:0.38591892 3350:0.31359586 3901:0.38305826 3963:0.38099073 5479:0.36323102 10838:0.52643134 
0.129538272861726 163:0.14820939 265:0.15185885 693:0.16985815 753:0.14654278 942:0.12326015 1618:0.11117385 2043:0.23081932 3733:0.34308808 3946:0.12935524 5949:0.17333342 6286:0.19391542 6449:0.19317721 6784:0.26031525 7728:0.38350921 9142:0.17770532 9372:0.17370486 10952:0.39936712 12139:0.24010469 12623:0.17644652 13298:0.24399816 
0.5025841644137977 33:0.13138374 48:0.13113043 994:0.16492387 1011:0.23575178 4202:0.23294714 4632:0.16362734 5448:0.10721161 5555:0.342848 5979:0.18352119 6165:0.23885217 6389:0.16712501 6485:0.14560699 6842:0.26271498 7380:0.095317524 9964:0.2303867 11184:0.47150356 12610:0.369072 12631:0.20763445 
1.691213084099305 41:0.16767826 568:0.11397865 797:0.17687365 1030:0.19125548 1042:0.17999743 2201:0.23901784 3324:0.2313788 3348:0.19792381 4451:0.19095386 5559:0.22513725 8026:0.25229251 8056:0.21468289 10251:0.21849056 10484:0.29175306 10941:0.23665595 11989:0.52076997 13921:0.22767424 
0.8954675172025901 57:0.1066691 97:0.12935634 113:0.10674166 521:0.14057528 523:0.1217892 757:0.31964506 758:0.2284071 941:0.23149954 997:0.11430353 1434:0.086760375 1515:0.14151099 1744:0.1247179 4073:0.40132962 4184:0.13664188 4297:0.27226 4336:0.14936989 4609:0.098489319 5531:0.1209772 8255:0.34959458 8875:0.14807347 9119:0.15720365 9150:0.14981839 9317:0.15170305 9442:0.18071465 10948:0.16124998 12000:0.17909017 13614:0.19703523 13799:0.13196406 
0.1679593921667412 84:0.094236405 171:0.15449222 208:0.10927162 653:0.16276955 692:0.17362432 944:0.35085961 1470:0.15687345 1476:0.11633226 2082:0.5838483 3339:0.1241482 3654:0.16696109 3693:0.097033152 3736:0.15750339 3900:0.17248495 3957:0.16788432 6337:0.16200461 6386:0.12694846 7133:0.123514 8740:0.14909415 8962:0.17304858 9543:0.20547087 9902:0.15914631 11918:0.21729925 12645:0.097605279 12653:0.1643683 
0.1420750311313848 2070:0.66279124 6391:0.74880423 
0.7279121841662154 13:0.21172055 172:0.24778047 682:0.12087147 928:0.1103517 1172:0.13252427 1651:0.15446559 1702:0.13569767 2109:0.12649263 3421:0.13034591 4344:0.12464257 4386:0.16019107 5520:0.2224471 5572:0.14280338 5681:0.40679221 5904:0.083097405 6288:0.42156531 7883:0.15404336 8753:0.36955605 9511:0.18957366 9603:0.19140412 9918:0.15913985 11136:0.19788448 13806:0.12502751 
0.009244221277807321 4342:0.26100523 7542:0.54708958 9374:0.4712824 11039:0.64067321 
0.2890316715945881 169:0.41168823 625:0.17016666 1017:0.27955799 1434:0.16380082 1832:0.16759943 2114:0.23575878 3645:0.16427311 3707:0.2104606 9170:0.42973105 9374:0.22716277 9917:0.28641051 10802:0.35190396 12688:0.31540858 
0.3102653643678167 3404:0.28782481 3743:0.27264383 3948:0.25063737 4399:0.32648823 5644:0.17242554 8529:0.45934706 10414:0.44972595 10945:0.18820697 12737:0.44159142 
1.151838635947787 1:0.095420113 19:0.11684209 43:0.31793933 71:0.051856872 73:0.13231332 84:0.048303754 99:0.04821397 146:0.14148004 220:0.16212772 297:0.23253928 547:0.1316439 548:0.10603746 633:0.13807281 865:0.17308877 949:0.1159567 1014:0.27614562 1514:0.41062442 2057:0.11795708 3336:0.29770922 3865:0.21987517 3944:0.13979766 4166:0.14070251 4382:0.15122387 6234:0.17308877 8044:0.35719226 9524:0.21064077 
0.4951943490198825 40:0.11107195 42:0.120334 163:0.13690743 245:0.14196254 353:0.12952145 522:0.11596057 693:0.47071601 1493:0.21862271 1516:0.1219377 1683:0.21578491 2131:0.13854031 4467:0.10859531 4486:0.18445636 5614:0.16115833 5620:0.16455314 6151:0.1314502 6271:0.17036308 7076:0.31628782 7528:0.16011559 7720:0.18204272 7733:0.17713204 8300:0.13647876 10851:0.2132178 10930:0.18619465 10949:0.18445636 12022:0.13605681 12612:0.16890682 12649:0.083925814 13819:0.17844616 
0.2793304813972967 10:0.12463414 25:0.097258648 530:0.10745931 1177:0.12984703 2185:0.10565834 3702:0.3299252 4302:0.12381447 4465:0.16228175 5884:0.16256744 5992:0.17979731 6565:0.25378072 6770:0.50756145 7386:0.18435517 8167:0.15855717 8569:0.2474377 8705:0.2474377 9130:0.19746926 9720:0.22027657 10240:0.36748767 
1.019340458525394 3732:0.76394948 3930:0.2823452 3948:0.41761616 5644:0.2872983 7117:0.2823452 
1.026902642034168 19:0.2089215 41:0.12018091 84:0.043185179 99:0.043104909 305:0.16381949 323:0.083556339 353:0.11799148 430:0.12381826 501:0.43574607 797:0.12677157 863:0.12270558 1436:0.10350283 1453:0.097851455 1605:0.17722978 4984:0.22611711 5943:0.26881529 5992:0.1551974 6014:0.10725754 6140:0.16654858 6312:0.1680361 6328:0.15565604 6452:0.11710984 7518:0.062763082 7744:0.27080233 7931:0.12565608 10944:0.21826089 11032:0.17613908 12469:0.20205096 13848:0.37008706 
0.29348652329061 215:0.2685866 296:0.21560254 1176:0.17439426 1655:0.33733669 2202:0.2685866 3645:0.14215758 3855:0.30819481 5521:0.21042245 5904:0.38825968 7518:0.098401011 8050:0.21774025 10556:0.32784566 10857:0.30452834 11610:0.3122479 
0.7935836824249697 79:0.20595796 197:0.208385 205:0.15762198 430:0.16526584 965:0.20057703 1150:0.2592572 1373:0.12872832 1631:0.21780659 3638:0.14256525 3781:0.24909962 5449:0.23108558 5516:0.16526584 5554:0.15266916 5661:0.172828 5976:0.20424887 7137:0.14594087 7739:0.21385602 8007:0.207149 8876:0.38381668 9129:0.2275093 9374:0.16735698 9618:0.25378617 13800:0.17642064 
2 12:0.37952426 24:0.35101131 120:0.27360391 179:0.40472779 425:0.44649135 849:0.45790587 969:0.29164432 
0.05768332374573917 1457:0.22136494 4259:0.33203303 4645:0.25629961 6115:0.33734905 7421:0.40518202 8339:0.49709056 8852:0.42720566 10253:0.25977217 
0.5735048457285675 187:0.44532547 304:0.52440407 1646:0.36866561 3412:0.36781647 5904:0.26424467 7631:0.43087941 
